0.0445602610707283 0.0936922207474709 0.0640489459037781 0.129277691245079 -0.0478315539658070 0.0322410799562931 0.0202181432396173 -0.0805648937821388 -0.0440076999366283 -0.0984366759657860 0.0972684323787689 0.0481801629066467 -0.0845670029520989 0.0134355872869492 -0.0424020439386368 0.000451963889645413 -0.0773651003837585 -0.0620851181447506 0.0206219386309385 0.107920929789543 -0.0884321406483650 -0.00834119692444801 -0.103237845003605 0.0155491447076201 -0.0396910049021244 0.0136499367654324 -0.0238310117274523 0.101914606988430 0.0599610470235348 -0.0667383894324303 -0.0860594063997269 0.101638577878475 -0.0246353670954704 -0.00568802468478680 -0.0884290486574173 0.167395055294037 -0.00321753369644284 0.0216518249362707 -0.247814342379570 0.153398752212524 -0.0679457858204842 0.0681980773806572 -0.0892623588442802 0.0527248196303844 0.0171871744096279 0.0451244637370110 -0.00639250129461288 0.0178028792142868 -0.00462630111724138 -0.0555984042584896 0.0216395109891891 -0.0680281296372414 -0.0236889068037272 -0.0819188207387924 -0.0588874556124210 0.0398934148252010 0.00923912413418293 0.0681476816534996 -0.119987308979034 0.255520582199097 -0.148765847086906 0.0575159564614296 -0.162239879369736 -0.0594343729317188 0.0143537176772952 0.0439087003469467 -0.00308480765670538 0.0717403590679169 -0.0334439799189568 -0.0503380894660950 -0.0624303407967091 -0.0416595861315727 -0.00166178331710398 0.00419441936537623 -0.137594461441040 0.210135638713837 0.0340249426662922 0.111495979130268 -0.0614401213824749 0.338580369949341 0.0692565590143204 -0.00361317116767168 -0.189404025673866 0.0188003145158291 -0.0971716493368149 0.0468640960752964 -0.0131241893395782 -0.0291039980947971 -0.0715212523937225 -0.0604555904865265 0.0497001521289349 -0.177486613392830 0.0394166968762875 -0.00459532439708710 -0.0276769716292620 0.0723913684487343 -0.0162946209311485 -0.00183254503645003 -0.0820522084832192 0.0341219305992126 -0.0199988409876823 0.0877113118767738 -0.122592605650425 0.101634800434113 -0.114640310406685 0.0344511680305004 -0.0335195064544678 0.172946199774742 0.0471592918038368 0.0195345934480429 -0.0977539271116257 0.0315346568822861 -0.0353089831769466 0.127400934696198 -0.0512088052928448 0.183731168508530 -0.124864920973778 -0.0162248611450195 -0.0857204943895340 0.190710932016373 -0.0610706843435764 0.119934901595116 -0.0722517669200897 0.269203633069992 0.00516368215903640 0.00248949439264834 -0.101177334785461 -0.0273033697158098 -0.0178840626031160 -0.0701113566756249 0.0819897428154945 -0.0598936229944229 -0.0286466274410486 -0.100300490856171 -0.0764260143041611 0.0250632297247648 -0.0446142405271530 -0.00416355999186635 0.0208702925592661 -0.0175725985318422 -0.0165736973285675 -0.0665535181760788 0.0209446065127850 0.128693237900734 -0.00335933687165380 -0.0405247360467911 0.0126483663916588 -0.0171633251011372 -0.000403844896936789 -0.0883842930197716 -0.0627588853240013 -0.0547354705631733 -0.0549085028469563 -0.0493584312498570 -0.0551076792180538 0.00886368378996849 -0.00265119760297239 0.0689464807510376 -0.0220435243099928 0.0179261323064566 0.0240004826337099 0.0116347605362535 -0.0249253138899803 0.0116070406511426 -0.0209965314716101 0.0626978278160095 0.0367221310734749 -0.0550421588122845 0.0587762631475925 0.0417790636420250 -0.00158432708121836 -0.0796855688095093 -0.0669068992137909 -0.0873009562492371 0.0101534724235535 0.00636364845559001 0.0372880697250366 0.0729737132787705 -0.0353136695921421 0.0876728072762489 -0.0247113164514303 -0.00548251625150442 -0.0388460978865624 0.0514060445129871 0.00576871307566762 -0.0559737682342529 -0.0666444450616837 0.120907217264175 -0.0260362736880779 0.0579082444310188 -0.0621674321591854 -0.00382148195058107 -0.0714540258049965 -0.0592982731759548 -0.0264255478978157 -0.147823452949524 -0.0288129523396492 -0.0227838568389416 0.0401464924216270 -0.0540671162307262 -0.0334707088768482 -0.0391210094094276 0.0121566886082292 -0.133030980825424 -0.0749718844890595 -0.104742109775543 -0.0276225022971630 -0.0183684676885605 -0.00256248330697417 0.0608945228159428 0.00161578389815986 -0.0620427876710892 -0.0979252308607101 -0.0695048123598099 0.0854579880833626 -0.0414110757410526 -0.0181800071150064 0.00601892312988639 -0.00268458062782884 -0.00182736373972148 0.0446100048720837 0.00503942277282476 0.0209591593593359 0.0556081049144268 -0.0584977492690086 -0.0562543869018555 -0.156079694628716 0.0436821095645428 -0.000408528168918565 0.0918407142162323 0.0617149993777275 0.0838334858417511 0.0297119040042162 0.0324566774070263 -0.00507567171007395 0.00765219843015075 -0.00616676360368729 -0.0425608679652214 0.0651348382234573 -0.0133445132523775 0.0112547837197781 0.0208865832537413 -0.0120257092639804 -0.0364123173058033 0.0495227240025997 -0.0526628866791725 0.0116858435794711 -0.0446788705885410 -0.0195848718285561 0.0115978484973311 0.0580295324325562 -0.0173305440694094 0.0365410111844540 0.0673165991902351 0.0106113525107503 -0.0467140898108482 -0.0421090535819531 0.0483153834939003 0.0585629642009735 0.00438189273700118 -0.0912157446146011 -0.0292419642210007 0.0468097887933254 -0.0274356547743082 0.0289173722267151 0.0545687489211559 0.0930123925209045 -0.0259703677147627 -0.0265943147242069 -0.0567264072597027 0.0447113066911697 -0.0426658615469933 0.0644484832882881 -0.0382238589227200 -0.00358190550468862 -0.0772129073739052 0.0119326552376151 0.0588196665048599 0.0368949808180332 -0.0222410708665848 -0.0371844843029976 -0.0460656844079495 -0.0169196818023920 0.0659698322415352 0.00991582684218884 0.0622895509004593 0.136565715074539 0.0885273143649101 0.0393744744360447 -0.0282425191253424 0.0433102026581764 -0.116511888802052 0.0664926245808601 0.000431044987635687 -0.0475837551057339 -0.0495580434799194 0.00377418473362923 0.0369638726115227 0.0413149185478687 -0.0666208788752556 0.00851656962186098 -0.0249084327369928 -0.00791285000741482 -0.0747606456279755 0.0147316260263324 0.0145246898755431 0.0337422527372837 -0.0697949528694153 0.0648735463619232 0.00206583575345576 0.0969278439879417 -0.0207406822592020 -0.0329094529151917 0.00337371928617358 0.0185408610850573 0.00290300790220499 0.00722441496327519 0.0367132239043713 -0.00991250388324261 0.0125556066632271 -0.0354255922138691 0.0208460390567780 0.0218733679503202 -0.0212988946586847 -0.0835319310426712 0.00161328434478492 0.0715850368142128 -0.0352869741618633 -0.0207785386592150 -0.0261415578424931 -0.00320963514968753 0.0191315580159426 -0.0635427013039589 -0.00369901931844652 -0.0344319641590118 0.00661748927086592 -0.0240263734012842 0.0438784100115299 0.0518262162804604 0.107848078012466 0.0123977838084102 0.0857979133725166 -0.0502073355019093 -0.0160112306475639 -0.0331145077943802 -0.0731189101934433 0.0214856658130884 -0.0807459056377411 0.110273778438568 0.0224478188902140 0.0421139858663082 -0.0602541603147984 0.0120442789047956 -0.0164590012282133 -0.0288019683212042 -0.0310145597904921 0.00842108856886625 -0.00791135616600514 -0.00691442564129829 -0.0161888208240271 -0.0180812068283558 0.00293666147626936 0.0613804273307323 -0.154520004987717 0.0825781673192978 -0.0556671991944313 0.0170398391783237 -0.0582210421562195 -0.0361820198595524 -0.000742379401344806 0.0893047302961350 -0.0250119604170322 -0.0255089923739433 0.0812934413552284 0.0117793548852205 0.0992256477475166 -0.0310595966875553 0.0518965534865856 -0.00339896068908274 -0.00874928943812847 -0.0622129961848259 -0.0613770410418510 0.0444101877510548 -0.0687580630183220 -0.0533366315066814 0.0247897077351809 0.0280449092388153 0.0597159266471863 0.0110221207141876 -0.00429680990055203 -0.0771212875843048 -0.0965855941176415 0.0196473523974419 -0.0573862977325916 0.0734841525554657 -0.0120964404195547 0.0894099250435829 0.00453186454251409 0.0637807995080948 0.00823603756725788 -0.0381641946732998 0.0365416370332241 -0.0575445629656315 0.131021842360497 -0.110808767378330 -0.0639620199799538 -0.136458814144135 0.00371033372357488 -0.0301922578364611 0.0621712505817413 -0.0149963423609734 0.0618487633764744 -0.0170027632266283 -0.0458313673734665 0.0407561101019383 -0.0269196312874556 0.0244306828826666 -0.000592248747125268 0.0587663203477860 -0.0532220527529717 0.0415467135608196 -0.0750388130545616 0.0996119529008865 0.00387546094134450 -0.0103013385087252 -0.0655153617262840 -0.0223030671477318 -0.0832298099994659 -0.0110148666426539 -0.0127302343025804 0.00530617637559772 -0.0171790923923254 0.0287382919341326 0.0623877160251141 -0.0256334356963635 -0.0581943541765213 -0.0376983657479286 0.00674222595989704 0.0316621623933315 -0.0485634654760361 0.000603075895924121 -0.0273634381592274 -0.0950629487633705 -0.0171901397407055 -0.0241278726607561 0.0564985349774361 0.00890736188739538 0.141960650682449 0.00509497523307800 -0.00210858299396932 -0.0353709794580936 0.0349027812480927 0.0256985351443291 -0.0241061467677355 0.000924504129216075 -0.0363520756363869 -0.0115789892151952 0.0338947325944901 -0.0546671412885189 0.130246788263321 -0.0297390073537827 0.0150207141414285 -0.0715626105666161 -0.0177055764943361 0.100590623915195 -0.00785468984395266 -0.0148225678130984 -0.0710653886198998 0.0103459684178233 -0.0111534977331758 0.00539572769775987 -0.168815702199936 -0.0851032659411430 -0.101023674011230 -0.0467289835214615 -0.0481167435646057 -0.0343548431992531 -0.0426633879542351 -0.0267365798354149 0.0492795705795288 0.0425019674003124 -0.00661687692627311 0.0265212655067444 -0.0571708269417286 -0.00985085126012564 -0.0514777973294258 -0.0307296346873045 -0.00890536699444056 -0.0265454500913620 0.00151578511577100 -0.0106635168194771 0.173638343811035 0.0157805625349283 0.118641480803490 0.0201928187161684 0.110377542674541 -0.0632575303316116 0.0123162036761642 -0.0490622483193874 -0.00365035049617291 -0.0390871502459049 -0.0204548444598913 0.0179700180888176 -0.0558549799025059 0.0333179086446762 0.0376046560704708 0.0260803420096636 -0.0571834184229374 0.0779600813984871 -0.0198073461651802 0.0642703548073769 -0.0530237257480621 0 0 0 0 0 0 0 0 0 0 0 0 0 0 0 0 0 0 0 0 0 0 0 0 0 0 0 0 0 0 0 0 0 0 0 0 0 0 0 0 0 0 0 0 0 0 0 0 0 0 0 0 0 0 0 0 0 0 0 0 0 0 0 0 0 0 0 0 0 0 0 0 0 0 0 0 0 0 0 0 0 0 0 0 0 0 0 0 0 0 0 0 0 0 0 0 0 0 0 0 0 0 0 0 0 0 0 0 0 0 0 0 0 0 0 0 0 0 0 0 0 0 0 0 0 0 0 0 0 0 0 0 0 0 0 0 0 0 0 0 0 0 0 0 0 0 0 0 0 0 0 0 0 0 0 0 0 0 0 0 0 0 0 0 0 0 0 0 0 0 0 0 0 0 0 0 0 0 0 0 0 0 0 0 0 0 0 0 0 0 0 0 0 0 0 0 0 0 0 0 0 0 0 0 0 0 0 0 0 0 0 0 0 0 0 0 0 0 0 0 0 0 0 0 0 0 0 0 0 0 0 0 0 0 0 0 0 0 0 0 0 0 0 0 0 0 0 0 0 0 0 0 0 0 0 0 0 0 0 0 0 0 0 0 0 0 0 0 0 0 0 0 0 0 0 0 0 0 0 0 0 0 0 0 0 0 0 0 0 0 0 0 0 0 0 0 0 0 0 0 0 0 0 0 0 0 0 0 0 0 0 0 0 0 0 0 0 0 0 0 0 0 0 0 0 0 0 0 0 0 0 0 0 0 0 0 0 0 0 0 0 0 0 0 0 0 0 0 0 0 0 0 0 0 0 0 0 0 0 0 0 0 0 0 0 0 0 0 0 0 0 0 0 0 0 0 0 0 0 0 0 0 0 0 0 0 0 0 0 0 0 0 0 0 0 0 0 0 0 0 0 0 0 0 0 0 0 0 0 0 0 0 0 0 0 0 0 0 0 0 0 0 0 0 0 0 0 0 0 0 0 0 0 0 0 0 0 0 0 0 0 0 0 0 0 0 0 0 0 0 0 0 0 0 0 0 0 0 0 0 0 0 0 0 0 0 0 0 0 0 0 0 0 0 0 0 0 0 0 0 0 0 0 0 0 0 0 0 0 0 0 0 0 0 0 0 0 0 0 0 0 0 0 0 0 0 0 0 0 0 0 0
0.0174880791455507 -0.0754964053630829 0.0352150648832321 0.0945724025368691 0.108364492654800 -0.00505722360685468 0.0167307481169701 0.0427509173750877 -0.0638427287340164 0.0575376637279987 -0.0271336771547794 -0.0677991658449173 0.00531787844374776 0.105604648590088 0.0310466364026070 0.0257583539932966 -0.0799986198544502 -0.171312510967255 0.0737860053777695 0.203475371003151 0.0521523244678974 -0.131834939122200 -0.0590510256588459 0.0873064175248146 -0.0401538871228695 -0.0130812749266624 0.0127373542636633 -0.0603238604962826 0.00560330739244819 0.0234134662896395 -0.0809135735034943 -0.0760149657726288 0.0141030726954341 0.0148823391646147 0.0530570819973946 0.0675376281142235 0.0335147939622402 -0.138109743595123 -0.0358759313821793 0.0401170179247856 -0.0126744955778122 0.0622102543711662 -0.0351533107459545 0.00538038276135922 -0.0203110408037901 -0.0461687371134758 0.0818857252597809 0.0285999029874802 0.0377430021762848 -0.00822850596159697 -0.0403627231717110 -0.0494097955524921 0.00443706335499883 0.0112321926280856 -0.0335026830434799 -0.0194068308919668 -0.0614299662411213 -0.000341420382028446 -0.0208846572786570 0.00816991552710533 0.0112376352772117 -0.0396533384919167 0.0670633241534233 0.132689923048019 0.0595368184149265 0.00381899927742779 0.0222394187003374 0.0391569994390011 0.00397423701360822 -0.0905246362090111 -0.0541404187679291 -0.0337859578430653 -0.0532315894961357 0.0652639940381050 0.0134069658815861 0.00750107411295176 -0.0441216081380844 -0.0280083213001490 0.0783366411924362 0.0986315757036209 0.0255139879882336 -0.0677061527967453 -0.0569301396608353 0.0362028703093529 -0.0151732154190540 -0.0969169884920120 0.0411143787205219 0.114711470901966 -0.0542099773883820 -0.00936574023216963 -0.0626631677150726 -0.0263997092843056 0.0351557023823261 0.0637204125523567 0.0522478595376015 -0.101145885884762 -0.0854043215513229 -0.00404856959357858 0.0613088198006153 0.0429052822291851 0.0609516277909279 -0.0336259678006172 -0.0654823780059815 0.0917656496167183 -0.0391764566302300 -0.0917833745479584 0.0476482436060905 0.0467396713793278 0.000589884060900658 -0.0659480541944504 -0.0599347874522209 0.0410923622548580 -0.0656171664595604 -0.0956991463899612 -0.0179424528032541 -0.0195123460143805 -0.0703939422965050 -0.104945652186871 -0.0406565070152283 0.0214610062539578 0.0273905508220196 0.0465673692524433 0.0501054190099239 0.0821942836046219 -0.0239798706024885 -0.119870841503143 0.0239230096340179 0.0514736026525497 0.0428968444466591 0.0561099685728550 0.0629701912403107 0.0749821662902832 0.00241331988945603 0.0952691361308098 -0.0683838278055191 -0.0232734978199005 0.0142149236053228 0.0490843690931797 -0.0813444480299950 0.00100636458955705 0.00752001162618399 -0.0678513422608376 0.0315718390047550 0.121960528194904 0.0130315776914358 0.0191946923732758 0.0535760819911957 0.0200362578034401 -0.0141193745657802 -0.0957062989473343 -0.0790601894259453 -0.0886988490819931 -0.00524245155975223 -0.0704156383872032 -0.0111871901899576 -0.0466979742050171 -0.00907497853040695 -0.0370104201138020 0.0204592254012823 -0.0556423999369144 -0.0624794028699398 -0.0624189786612988 -0.0118116894736886 -0.000863381428644061 0.0574931465089321 0.0190642699599266 0.0307489074766636 -0.0338027365505695 -0.0465197190642357 0.0323082581162453 -0.00823076721280813 0.00635867472738028 -0.00282457238063216 0.00227745831944048 -0.0432861335575581 -0.0513494983315468 -0.0539597049355507 0.0589144974946976 0.0828824192285538 0.00941026303917170 -0.00966023281216621 -0.0104031842201948 0.00289241224527359 0.0829859152436256 -0.0346231088042259 -0.0745411440730095 -0.101450309157372 0.0443988330662251 0.0450410768389702 -0.0448483899235725 -0.0129844127222896 -0.0237864870578051 -0.0482599139213562 -0.0677263662219048 -0.0242867115885019 0.0436768792569637 -0.0356846712529659 0.0949086025357246 0.0127777410671115 -0.00517358025535941 -0.0229402594268322 0.0248241703957319 0.0284126605838537 0.0504225566983223 -0.0298142023384571 -0.0135013358667493 0.0114184375852346 -0.00488146767020226 -0.0577944256365299 -0.0612868666648865 -0.0262637473642826 -0.0158791765570641 -0.0772167369723320 0.0153263108804822 0.0487491711974144 0.0342471413314343 0.0538192577660084 0.0489068813621998 0.0168984401971102 -0.0796292945742607 0.0376241989433765 0.0310020465403795 0.0238263923674822 0.0160613693296909 0.130590230226517 0.0650129392743111 -0.0219761133193970 0.0228862222284079 0.104084365069866 -0.0332538224756718 0.0467092655599117 0.0230115819722414 0.0806802585721016 0.0712389647960663 0.0739698633551598 0.0461450591683388 -0.0808740630745888 -0.113783203065395 -0.0768090635538101 -0.0628284737467766 0.0551467798650265 0.0344763994216919 -0.0437998473644257 -0.0806422382593155 -0.0776454508304596 -0.0320000164210796 0.0277585648000240 0.142448171973228 -0.0241809356957674 -0.0878956988453865 -0.0662007257342339 0.0847121998667717 0.109042845666409 0.0260787717998028 0.0381213873624802 0.0617683045566082 -0.0606454834342003 0.0108141405507922 0.0141250668093562 0.0363792367279530 0.0241730511188507 0.0430855043232441 0.0439521260559559 -0.00286309700459242 -0.0372909717261791 -0.0198292341083288 -0.0334729328751564 0.0325538888573647 0.0443690456449986 -0.0174137949943542 0.0273629706352949 -0.00555374287068844 0.00218081590719521 0.0514562129974365 -0.0882341861724854 -0.0595494955778122 -0.00733369495719671 0.0404247455298901 0.0601680353283882 0.0504651404917240 0.0494919158518314 0.00978608988225460 0.00725495954975486 -0.0270046591758728 0.0130755212157965 -0.0289742127060890 0.0653421580791473 -0.0413512438535690 0.0626907944679260 0.107929006218910 -0.0481098182499409 0.00304075982421637 -0.0260383225977421 0.000350719084963203 0.0279663223773241 0.00274220807477832 0.0263862926512957 0.00631139287725091 0.0269863437861204 0.0410683713853359 0.0314414128661156 -0.0692115724086762 -0.0617173723876476 -0.0455216877162457 -0.0176877044141293 -0.0461325384676456 -0.0356144346296787 -0.0363361202180386 -0.0821993798017502 -0.0451990775763989 -0.0227570701390505 0.00669972412288189 0.0208898223936558 -0.0413441397249699 0.00776078319177032 0.0494574718177319 0.0272421743720770 0.0842008218169212 -0.0272332318127155 0.0140404282137752 -0.0231636874377728 -0.0310394763946533 -0.0399937555193901 -0.125364437699318 -0.0503397360444069 0.121106326580048 0.0367949046194553 -0.0469707138836384 -0.00157557625789195 0.0426609031856060 -0.00320617714896798 -0.0638739466667175 -0.00272500794380903 0.0225325729697943 -0.0605468973517418 -0.0917476341128349 -0.0570235401391983 0.0500724166631699 0.0187347680330277 0.0215169880539179 -0.0161953642964363 -0.0529131889343262 -0.0133876167237759 -0.0470639728009701 0.0499112531542778 0.0750466361641884 0.0187280531972647 -0.0370683819055557 0.0430876277387142 0.00494516408070922 0.0823632255196571 0.0118254115805030 0.0392306111752987 -0.0172726232558489 0.0474722087383270 0.0610685348510742 0.0150198554620147 0.0539414659142494 0.0415011681616306 0.0305809807032347 0.0320412255823612 -0.0224877372384071 -0.0272379834204912 0.0127227054908872 -0.0580950640141964 0.0148951346054673 0.0592725016176701 0.0568973012268543 0.0732585862278938 -0.00174377113580704 0.0196566116064787 -0.0140894921496511 -0.0315477028489113 -0.0164448693394661 -0.0792323127388954 -0.100236319005489 0.0133748287335038 0.0490980185568333 0.0391879118978977 -0.0136025631800294 -0.0349995903670788 0.00166039820760489 -0.00554080307483673 -0.0643501803278923 -0.0322337187826633 0.0171890463680029 -0.0233804285526276 0.0233116801828146 0.0862944796681404 -0.0239208694547415 0.0400470122694969 0.0205254573374987 -0.0314755663275719 -0.0906777232885361 -0.0492762774229050 -0.0934911072254181 -0.0428245887160301 -0.0744300857186317 -0.0672301277518272 -0.0150706889107823 -0.111883722245693 -0.0384133011102676 0.0535812787711620 0.0619153939187527 0.0372597053647041 0.0171346496790648 0.00189481896813959 -0.00569203961640596 -0.00835576467216015 -0.0281857457011938 -0.119926698505878 -0.0532343834638596 -0.0502267219126225 0.0631171986460686 -0.00920574180781841 0.0611351691186428 0.0998321101069450 0.0325157791376114 0.0644844472408295 0.0753537416458130 -0.0136124966666102 -0.0506138764321804 -0.0891849547624588 -0.00985992420464754 -0.0576268620789051 -0.0492339059710503 -0.0218653585761786 0.0307961869984865 -0.0480867400765419 -0.0126489093527198 -0.122157201170921 -0.00237566255964339 -0.0679679512977600 -0.127115935087204 -0.0713634118437767 -0.00356679619289935 0.0625301897525787 0.0249343756586313 0.00433710450306535 -0.00367383635602891 0.0306809879839420 -0.0241034589707851 -0.0258517023175955 -0.122163437306881 -0.0665886253118515 -0.0393795333802700 -0.0827399343252182 -0.0932073891162872 -0.0627504065632820 0.00978830922394991 0.0484421141445637 0.0182667113840580 0.0379065461456776 0.0657965838909149 0.0734004378318787 -0.0502925589680672 -0.0359054245054722 -0.0410100147128105 -0.0612000003457069 -0.0394826270639896 0.0195674989372492 -0.0228439774364233 0.0183055549860001 -0.0855088829994202 -0.0494606792926788 0.0121070872992277 -0.0192620754241943 -0.0284748468548059 0.0384970866143703 -0.000808022392448038 0.00734485220164061 0.0350678674876690 -0.0254901442676783 -0.0601051151752472 -0.0311205461621285 0.109613187611103 0.00507189333438873 0.0155086154118180 -0.0212542526423931 0.0135546205565333 0.0599241144955158 0.0191485900431871 -0.0240837484598160 -0.0345337539911270 -0.0360302068293095 0.00940254889428616 0.0479256995022297 -0.00928031932562590 0.0836809054017067 0.00680489651858807 0.0312233027070761 0.0184765961021185 -0.0109312748536468 0.0100948195904493 -0.0558919794857502 0.0295405834913254 -0.0149094723165035 0.0490542761981487 0.107469804584980 0.0140594625845551 0.100323379039764 -0.0168675184249878 0.0268296673893929 0.0269811134785414 0.0775971263647080 -0.0981910079717636 -0.0229535829275846 -0.0932152792811394 -0.0304239243268967 0.0358920916914940 0.0452892743051052 0.0794920921325684 0 0 0 0 0 0 0 0 0 0 0 0 0 0 0 0 0 0 0 0 0 0 0 0 0 0 0 0 0 0 0 0 0 0 0 0 0 0 0 0 0 0 0 0 0 0 0 0 0 0 0 0 0 0 0 0 0 0 0 0 0 0 0 0 0 0 0 0 0 0 0 0 0 0 0 0 0 0 0 0 0 0 0 0 0 0 0 0 0 0 0 0 0 0 0 0 0 0 0 0 0 0 0 0 0 0 0 0 0 0 0 0 0 0 0 0 0 0 0 0 0 0 0 0 0 0 0 0 0 0 0 0 0 0 0 0 0 0 0 0 0 0 0 0 0 0 0 0 0 0 0 0 0 0 0 0 0 0 0 0 0 0 0 0 0 0 0 0 0 0 0 0 0 0 0 0 0 0 0 0 0 0 0 0 0 0 0 0 0 0 0 0 0 0 0 0 0 0 0 0 0 0 0 0 0 0 0 0 0 0 0 0 0 0 0 0 0 0 0 0 0 0 0 0 0 0 0 0 0 0 0 0 0 0 0 0 0 0 0 0 0 0 0 0 0 0 0 0 0 0 0 0 0 0 0 0 0 0 0 0 0 0 0 0 0 0 0 0 0 0 0 0 0 0 0 0 0 0 0 0 0 0 0 0 0 0 0 0 0 0 0 0 0 0 0 0 0 0 0 0 0 0 0 0 0 0 0 0 0 0 0 0 0 0 0 0 0 0 0 0 0 0 0 0 0 0 0 0 0 0 0 0 0 0 0 0 0 0 0 0 0 0 0 0 0 0 0 0 0 0 0 0 0 0 0 0 0 0 0 0 0 0 0 0 0 0 0 0 0 0 0 0 0 0 0 0 0 0 0 0 0 0 0 0 0 0 0 0 0 0 0 0 0 0 0 0 0 0 0 0 0 0 0 0 0 0 0 0 0 0 0 0 0 0 0 0 0 0 0 0 0 0 0 0 0 0 0 0 0 0 0 0 0 0 0 0 0 0 0 0 0 0 0 0 0 0 0 0 0 0 0 0 0 0 0 0 0 0 0 0 0 0 0 0 0 0 0 0 0 0 0 0 0 0 0 0 0 0 0 0 0 0 0 0 0 0 0 0 0 0 0 0 0 0 0 0 0 0 0 0 0 0 0 0 0 0 0 0 0 0 0 0
0.00406647194176912 -0.0255735348910093 -0.0503391958773136 -0.0479325056076050 0.00850102026015520 0.00410514650866389 0.0407724194228649 0.0853898674249649 -0.0256876237690449 -0.0768249109387398 -0.0867049321532250 0.0517623350024223 0.0648070126771927 -0.00249604205600917 0.0363376513123512 0.0937662497162819 -0.0491598397493362 -0.0295594967901707 -0.0645978078246117 0.0180535633116961 0.0326172560453415 0.0517110116779804 0.118960842490196 0.191593408584595 0.0162265896797180 -0.0212606787681580 -0.100071310997009 -0.0331745706498623 0.00428082700818777 -0.0388687998056412 0.00756350345909596 0.0261018667370081 -0.117830298841000 -0.0886940732598305 -0.0502111800014973 -0.0135417133569717 0.0131681663915515 0.0776280760765076 -0.0254124514758587 0.00934873707592487 0.0339125581085682 0.147098705172539 0.0851430892944336 0.0921994745731354 -0.0633723512291908 -0.120860353112221 -0.0390993803739548 -0.00162158324383199 0.0279183033853769 0.0623654648661613 -0.0131102548912168 0.0221351534128189 0.0162030309438705 -0.121003948152065 -0.0257129669189453 -0.0389566794037819 -0.0257616601884365 -0.0601469203829765 -0.0473475381731987 0.173459887504578 -0.0162918306887150 -0.0454345420002937 0.0252310056239367 0.0555256418883801 0.00127061654347926 0.00415521208196878 0.0210163034498692 -0.0514205470681191 -0.00128966430202127 -0.0529569610953331 -0.0293793193995953 -0.0488638281822205 0.00198658648878336 -0.0449964776635170 -0.0294259171932936 -0.105053514242172 -0.0125343129038811 0.0438165403902531 0.00159042142331600 -0.0183423254638910 -0.0540007278323174 0.00931698456406593 0.0149168465286493 0.0369706526398659 0.0845443904399872 0.0628847703337669 0.0692718699574471 0.0725125297904015 0.0106734568253160 0.0480407401919365 -0.0285550858825445 -0.0256493780761957 -0.0394569672644138 -0.0172981526702642 0.0251069385558367 0.0816070809960365 0.0770673528313637 -0.0485017038881779 -0.103124186396599 0.116608850657940 -0.0609785616397858 -0.107569314539433 -0.0419144779443741 0.164499565958977 0.0566015839576721 -0.131405711174011 -0.0749913454055786 0.0303157661110163 -0.0619983598589897 -0.0522032305598259 -0.0481872148811817 -0.0794139876961708 -0.0929768308997154 0.0290598478168249 -0.00296740164048970 0.0148148322477937 -0.0630122944712639 -0.0596191883087158 -0.0483853556215763 0.109605766832829 0.00883156619966030 -0.0729992911219597 0.0115590784698725 0.110497944056988 -0.0131408050656319 -0.0152969844639301 -0.103646993637085 -0.0647830590605736 -0.0521665215492249 -0.0532375685870647 0.00499705504626036 0.0369910039007664 0.0697357878088951 0.0201812479645014 -0.0217975433915854 -0.0313451103866100 -0.0195475667715073 -0.0515608899295330 -0.00721281347796321 0.0475038550794125 0.00845844112336636 0.0554004088044167 0.00510443514212966 -0.00236340216360986 0.0310500338673592 0.0297720991075039 0.0232714936137199 0.0531322583556175 0.0472002327442169 0.0640116333961487 0.0238917544484139 -0.0211290773004293 -0.0185396745800972 0.00263196509331465 0.0795996785163879 0.0418127551674843 0.0160822961479425 0.00547759467735887 0.0587383694946766 -0.0152423297986388 0.0220304410904646 -0.142659410834312 -0.0694763734936714 0.112613163888454 0.0393340103328228 0.0552258938550949 0.0474528893828392 -0.0262872353196144 0.0547789372503758 -0.0411837063729763 -0.0180097352713346 -0.0190231986343861 0.0132641699165106 0.0436089299619198 -0.0152621427550912 0.00432856194674969 0.0236680153757334 0.0335527025163174 -0.0148335862904787 -0.0949363261461258 -0.0417708531022072 -0.0411870814859867 -0.112936273217201 -0.127958536148071 -0.0276656337082386 0.0349884293973446 -0.0438203364610672 -0.0589948408305645 -0.0175436679273844 0.0913939848542213 0.00380803667940199 0.00367065612226725 -0.0445224083960056 0.0143984779715538 0.0323098041117191 0.0559944845736027 0.0601998940110207 -0.0103645576164126 -0.0496339052915573 -0.0436521098017693 0.00941197108477354 -0.00863930024206638 -0.00782056804746389 0.00937089789658785 -0.0486871302127838 0.0746461823582649 -0.0403599254786968 -0.00602976698428392 0.00959998369216919 0.0352927632629871 0.0276327263563871 0.0138317337259650 -0.0293731130659580 0.0424473285675049 0.0379503630101681 0.111913621425629 -0.00892335083335638 0.0808975622057915 0.0381085835397244 0.105612717568874 -0.0102735739201307 -0.0514810457825661 -0.0412442609667778 -0.0294050704687834 -0.0436055436730385 0.00794545654207468 -0.0113307060673833 -0.0763816833496094 -0.0475155077874661 -0.00485713034868240 0.0309317428618670 -0.0105607025325298 -0.0390938855707645 -0.0448212660849094 -0.0348712801933289 -0.0424911119043827 -0.00374099356122315 0.0412019342184067 0.0173665806651115 0.0205609016120434 -0.0155127905309200 -0.0679623708128929 0.00518906163051724 0.0675377622246742 0.0343041829764843 -0.0588130429387093 0.0358709432184696 0.0714805498719215 -0.00627453532069922 0.0259720329195261 0.0423774197697640 0.0200062170624733 -0.0341678038239479 -0.0433333143591881 -0.0482756122946739 -0.0478775724768639 0.0439641550183296 0.0699819177389145 0.0929784998297691 -0.000409424828831106 0.00878837238997221 -0.00101054494734854 -0.00228453380987048 -0.0683358535170555 -0.0249044820666313 -0.00671167671680450 -0.0275235194712877 0.0227569174021482 -0.0320154130458832 0.00358143774792552 0.0239114891737700 0.0222654826939106 -0.0499048680067062 -0.0978115424513817 -0.0949737355113030 -0.0692105218768120 -0.0566582903265953 -0.0986730009317398 0.0184826329350472 -0.0623209998011589 -0.0305398721247911 0.0116033591330051 0.0650245696306229 -0.00487854145467281 0.0332423038780689 0.119945049285889 -0.00202865200117230 0.0120709007605910 0.00470256851986051 0.00373282143846154 0.0626142099499703 0.0238671954721212 0.0428910255432129 0.0227252040058374 0.0318357050418854 0.0102277938276529 0.00472609791904688 0.0447971709072590 -0.00961220543831587 -0.126143112778664 -0.0303507000207901 0.0580963604152203 0.0494301281869412 0.0591009892523289 -0.0198953282088041 0.0652420520782471 0.0608390197157860 0.0374057292938232 -0.00154667091555893 0.00333954184316099 0.0294083543121815 -0.00688084820285440 0.140401601791382 0.0954746454954147 -0.00675369985401630 0.0170282628387213 0.0163659751415253 0.0209165476262569 -0.00578067917376757 0.0537483096122742 0.0441447794437408 -0.00467513781040907 0.0678894370794296 0.0337134338915348 0.0161000695079565 0.0871441513299942 -0.0450196303427219 -0.0876345783472061 0.0471477434039116 0.0151689061895013 0.0247635450214148 -0.0511664338409901 -0.0107811484485865 0.0464471727609634 0.0402572378516197 -0.0316580981016159 -0.0389644727110863 -0.0440924689173698 0.0819637998938561 0.138479739427567 0.0791314542293549 0.0151128079742193 -0.0949616804718971 -0.0230868402868509 -0.0411560349166393 0.0608309581875801 0.0133890109136701 0.0188912246376276 0.0665783882141113 0.0220347028225660 -0.0326084829866886 -0.0378479175269604 -0.0262975376099348 0.0151712251827121 -0.0717237815260887 -0.00488989939913154 0.0588658861815929 -0.0188753269612789 0.0419750511646271 0.0248459447175264 0.00412047328427434 0.0566710457205772 -0.0391849875450134 0.0128889447078109 0.0562776587903500 0.0422454252839088 -0.00206645741127431 -0.0288854315876961 0.0186466593295336 0.0243083555251360 -0.0379686504602432 -0.0363700538873673 -0.0514678545296192 0.0276070758700371 0.0415564253926277 -0.0601886101067066 -0.0617331154644489 0.00722412206232548 -0.00797394756227732 -0.0612912885844708 -0.0169202741235495 0.0246863849461079 0.0194425098598003 -0.0624292157590389 -0.0885908454656601 -0.135251522064209 -0.0173258502036333 0.227841138839722 0.0771415829658508 -0.0969088599085808 0.00236007431522012 0.135881274938583 -0.0316056013107300 -0.0819514989852905 -0.0984208732843399 0.00890330504626036 0.0397291481494904 -0.0139694567769766 0.0218626037240028 -0.0581795312464237 0.0716325417160988 0.0111249154433608 -0.00784008856862783 -0.0419457703828812 -0.0408005528151989 -0.0605117455124855 0.0131126176565886 -0.0722680985927582 -0.0397109314799309 -0.0202951505780220 -0.0911496654152870 -0.0996606871485710 -0.0462958402931690 -0.0594217106699944 0.0206635631620884 0.0387337617576122 -0.0385610312223434 -0.0209668967872858 -0.0754206404089928 -0.0625801607966423 -0.00397746637463570 -0.0378047302365303 -0.0786436796188355 0.0507907681167126 0.0214993320405483 0.0435446053743362 0.0804684311151505 0.0420874431729317 0.0109280468896031 -0.0785332247614861 -0.0968433693051338 0.00874442793428898 0.0324166566133499 0.00854424294084311 0.0343005135655403 -0.0420359410345554 -0.0323396511375904 -0.0436370149254799 -0.0791189223527908 -0.0625119358301163 0.0188394654542208 0.0320082046091557 0.0643256902694702 0.126877829432488 -0.00110943731851876 -0.0328371338546276 0.0924456641077995 0.0705590248107910 -0.0236252024769783 -0.0950135812163353 -0.0288335718214512 -0.0589426159858704 -0.0396323688328266 -0.0271600708365440 -0.0672304555773735 -0.0597762838006020 0.0366290584206581 -0.0258892737329006 -0.00359905534423888 -0.0217184200882912 -0.000631669070571661 -0.0244902521371841 -0.0978546887636185 0.0738457217812538 -0.0200502593070269 -0.0925817117094994 0.0313183367252350 0.0131883258000016 0.00671425834298134 -0.0453699007630348 -0.110406830906868 -0.0911436006426811 -0.0197187419980764 -0.0396728888154030 -0.0438298434019089 -9.48340311879292e-05 0.000109874919871800 -0.0333078578114510 -0.0406369529664516 0.0366577319800854 -0.134540617465973 -0.0374290905892849 -0.0391555763781071 0.0586122050881386 0.0431331023573875 0.00253583583980799 0.0584535486996174 -0.0403259955346584 0.00947378203272820 -0.0213840994983912 -0.0309326462447643 -0.0152458278462291 -0.0132510764524341 -0.0476951189339161 -0.0352781824767590 -0.0433599762618542 -0.0544552616775036 0.0237599313259125 -0.0833140090107918 -0.0502598397433758 0.0359595380723476 -0.0153850736096501 0.123335823416710 0.0612163357436657 -0.0191427953541279 -0.0823927894234657 -0.0140168108046055 -0.0272059105336666 -0.0225953198969364 -0.0661834925413132 0.0290186218917370 0.0805835723876953 0 0 0 0 0 0 0 0 0 0 0 0 0 0 0 0 0 0 0 0 0 0 0 0 0 0 0 0 0 0 0 0 0 0 0 0 0 0 0 0 0 0 0 0 0 0 0 0 0 0 0 0 0 0 0 0 0 0 0 0 0 0 0 0 0 0 0 0 0 0 0 0 0 0 0 0 0 0 0 0 0 0 0 0 0 0 0 0 0 0 0 0 0 0 0 0 0 0 0 0 0 0 0 0 0 0 0 0 0 0 0 0 0 0 0 0 0 0 0 0 0 0 0 0 0 0 0 0 0 0 0 0 0 0 0 0 0 0 0 0 0 0 0 0 0 0 0 0 0 0 0 0 0 0 0 0 0 0 0 0 0 0 0 0 0 0 0 0 0 0 0 0 0 0 0 0 0 0 0 0 0 0 0 0 0 0 0 0 0 0 0 0 0 0 0 0 0 0 0 0 0 0 0 0 0 0 0 0 0 0 0 0 0 0 0 0 0 0 0 0 0 0 0 0 0 0 0 0 0 0 0 0 0 0 0 0 0 0 0 0 0 0 0 0 0 0 0 0 0 0 0 0 0 0 0 0 0 0 0 0 0 0 0 0 0 0 0 0 0 0 0 0 0 0 0 0 0 0 0 0 0 0 0 0 0 0 0 0 0 0 0 0 0 0 0 0 0 0 0 0 0 0 0 0 0 0 0 0 0 0 0 0 0 0 0 0 0 0 0 0 0 0 0 0 0 0 0 0 0 0 0 0 0 0 0 0 0 0 0 0 0 0 0 0 0 0 0 0 0 0 0 0 0 0 0 0 0 0 0 0 0 0 0 0 0 0 0 0 0 0 0 0 0 0 0 0 0 0 0 0 0 0 0 0 0 0 0 0 0 0 0 0 0 0 0 0 0 0 0 0 0 0 0 0 0 0 0 0 0 0 0 0 0 0 0 0 0 0 0 0 0 0 0 0 0 0 0 0 0 0 0 0 0 0 0 0 0 0 0 0 0 0 0 0 0 0 0 0 0 0 0 0 0 0 0 0 0 0 0 0 0 0 0 0 0 0 0 0 0 0 0 0 0 0 0 0 0 0 0 0 0 0 0 0 0 0 0 0 0 0 0 0 0 0 0 0 0 0 0 0 0 0 0 0 0 0 0 0 0 0 0 0
0.0285735987126827 -0.00259338505566120 -0.0107735050842166 -0.0485182702541351 -0.0287376530468464 -0.0256172996014357 -0.0138736572116613 -0.0664120987057686 -0.0688885524868965 -0.107250027358532 0.0139469970017672 0.0189341530203819 -0.0198139529675245 -0.0329010784626007 -0.0652648061513901 -0.00925149396061897 -0.0344908572733402 -0.0703472346067429 -0.0658981800079346 -0.0475229360163212 0.0886221975088120 0.0773434564471245 0.0184050705283880 0.0682170614600182 0.0668407976627350 0.0365438535809517 0.0855137705802918 -0.0198660679161549 0.0404618456959724 0.0592729896306992 0.0364897325634956 -0.0328612253069878 0.00637046713382006 0.0188260283321142 0.126062095165253 0.00565535807982087 -0.0407921485602856 -0.0649041980504990 -0.114223115146160 -0.0185063369572163 0.00933401659131050 0.0808071866631508 0.0261529218405485 -0.0557909160852432 -0.0291595682501793 0.0613085553050041 0.121857821941376 -0.0365602709352970 -0.0923020541667938 -0.0510760582983494 0.0806751549243927 -0.00717000616714358 0.0550588406622410 -0.0552589483559132 -0.0607017613947392 0.0449563264846802 0.0745387673377991 0.0333641953766346 -0.0443736240267754 0.0475188829004765 0.0468194186687470 0.0438197627663612 0.0716081112623215 -0.0290292911231518 -0.0297357328236103 -0.0366177037358284 -0.0591205097734928 -0.136508911848068 -0.0746036767959595 -0.0188173558562994 0.0223914775997400 0.0136642651632428 0.0623789988458157 0.0323512926697731 0.0156659465283155 -0.0407555773854256 -0.0351145341992378 0.0282647106796503 0.0585329309105873 -0.0510547533631325 0.0412532947957516 0.108436278998852 0.0866179987788200 0.0286669526249170 -0.0876916274428368 -0.0649252459406853 0.0122722275555134 0.00760976923629642 0.0979823991656303 0.0427090860903263 0.0474493168294430 0.0467469133436680 0.0724420025944710 0.0536005571484566 -0.0117183132097125 -0.0618820153176785 -0.0498355068266392 0.0189560931175947 0.0660228654742241 0.0130388392135501 -0.0318966545164585 0.00687543209642172 0.0661249235272408 0.0434968657791615 0.0615187212824822 0.0907951667904854 0.0289340335875750 -0.0185614973306656 0.00330346170812845 0.0392404459416866 0.00711577758193016 -0.0148752583190799 0.120611503720284 0.145761147141457 0.124447651207447 -0.00825006980448961 -0.128738090395927 -0.0799171999096870 0.0404477454721928 -0.0392310507595539 0.0365073233842850 0.105625785887241 0.0259649958461523 -0.0800005197525024 -0.0761910453438759 -0.0534501932561398 0.0776132792234421 -0.0384735353291035 -0.0509492792189121 -0.0586278699338436 0.00440640654414892 0.0576943345367909 -0.00318015506491065 -0.0857644602656364 -0.0717077329754829 0.0525972694158554 0.102695122361183 0.0185473598539829 -0.0670638233423233 -0.0533128939568996 -0.107737995684147 -0.0600720979273319 -0.0424679778516293 -0.0237039551138878 -0.0233948100358248 -0.00524667324498296 -0.0332148969173431 6.28960406174883e-05 -0.0272459182888269 -0.0932614952325821 -0.0398602634668350 0.0337308011949062 -0.0386434681713581 -0.0407033674418926 -0.0378333777189255 -0.0255686007440090 -0.0202341973781586 -0.00777783617377281 0.00925469025969505 -0.00463630631566048 -0.00589644536375999 -0.0302717648446560 -0.00554896378889680 -0.00924631766974926 0.0456031151115894 -0.0272082742303610 -0.0300284214317799 -0.0967588350176811 -0.0814050137996674 -0.0653790608048439 0.000792721635662019 0.0273852888494730 0.0544561743736267 0.00112551765050739 -0.0598953440785408 -0.0958223044872284 -0.0437397137284279 0.00492610828951001 -0.0252186264842749 0.000311907933792099 -0.0343374647200108 -0.0392134450376034 -0.0217489358037710 0.00547405472025275 0.0108885429799557 0.00796083454042673 0.00197726837359369 -0.0335357338190079 0.00318510713987052 0.0273623447865248 -0.0705966651439667 -0.0797931104898453 -0.0389045141637325 0.00926939398050308 0.0872851833701134 -0.00444547273218632 -0.0347739718854427 -0.0100429784506559 -0.0620661713182926 0.00723389536142349 -0.0395028889179230 -0.0149126248434186 -0.0245471820235252 -0.0216155759990215 -0.0140666775405407 -0.0672398507595062 -0.0675438642501831 -0.0109328534454107 1.87494915735442e-05 -0.0177564620971680 -0.0865553468465805 -0.0751153975725174 -0.139682561159134 -0.141099408268929 -0.0711905434727669 -0.0208429992198944 -0.0256657637655735 -0.0357055142521858 -0.00218236702494323 0.0394317805767059 0.0159054212272167 0.0693073272705078 0.0561642535030842 0.0398500375449657 -0.00784104783087969 -0.0477245338261128 0.000373241491615772 -0.0290336497128010 0.0502774193882942 0.0539168566465378 0.0495775267481804 -0.0166945084929466 0.0183115117251873 0.0379246994853020 0.0310486480593681 -0.0362045913934708 0.00950437039136887 0.0304542183876038 0.0264611411839724 -0.0218680612742901 -0.0187083464115858 -0.0537949018180370 -0.0871619880199432 -0.0378221608698368 -0.0299667734652758 -0.0640555545687676 -0.0361257418990135 0.00288868322968483 0.0330260023474693 0.0480777285993099 -0.00863012671470642 -0.00647193938493729 -0.0186531748622656 -0.0648769289255142 -0.0680750831961632 -0.0144160836935043 -0.0520123653113842 -0.0468047671020031 -0.00186252931598574 0.000781943264883012 0.00956788845360279 0.0653284862637520 0.135338187217712 0.0310791172087193 0.0105323484167457 0.0159545484930277 0.0173385441303253 -0.0197921022772789 -0.0329364985227585 -0.0533704496920109 -0.0436880923807621 -0.0273344796150923 -0.0525034032762051 -0.0360726788640022 -0.00144898402504623 0.00144540611654520 0.00934357475489378 0.0382600426673889 0.0586746744811535 0.0162870977073908 0.0865909308195114 0.0715898498892784 0.0501389913260937 0.0393132306635380 0.0485256314277649 -0.00833853892982006 0.0237679947167635 0.0192662011831999 0.0665790587663651 0.00479464465752244 -0.0316587276756763 0.0541359260678291 0.0818233937025070 -0.00919592939317226 0.0645427703857422 0.0588363260030746 0.0419420264661312 -0.00683959433808923 -0.0607927963137627 -0.0386871658265591 -0.00353308394551277 -0.00629808893427253 0.0218537040054798 0.0233493745326996 0.0111286453902721 0.00312797422520816 -0.0379485972225666 0.0182803701609373 0.0107591412961483 -0.00325350044295192 0.0198509804904461 0.00963864289224148 -0.0568305887281895 -0.0144066717475653 -0.0462412424385548 0.0650777369737625 0.0854530408978462 0.00223098183050752 0.00914806779474020 -0.00680348277091980 -0.0759582743048668 -0.0330107882618904 -0.0349024869501591 0.00457645859569311 0.0560113564133644 0.0788199752569199 0.00844527129083872 0.0823766514658928 0.0193379949778318 0.0520518980920315 0.0368303433060646 0.0132823996245861 0.0469617471098900 0.0233708973973990 -0.0450594499707222 -0.0190281458199024 -0.0465174913406372 -0.0626399070024490 -0.00697147985920310 -0.0195980817079544 -0.0427873842418194 0.0316799506545067 0.0503229796886444 0.0568256303668022 0.157941609621048 0.0966947600245476 0.0700275003910065 -0.0204300843179226 -0.0211541131138802 0.0392778404057026 0.00417414074763656 0.0737166032195091 0.0466787628829479 -0.0579039379954338 -0.0712679922580719 -0.0150508331134915 0.107229322195053 0.0431316979229450 -0.0573241300880909 0.00682026613503695 -0.0723871961236000 -0.103838868439198 -0.0706786140799522 -0.00247958954423666 -0.0350732654333115 -0.0846759229898453 -0.0831851139664650 0.0317701324820519 0.0372071191668510 -0.0340390130877495 -0.0261659454554319 -0.0100813172757626 -0.0813195481896401 -0.0642185434699059 0.00715478137135506 0.0319738723337650 0.0802745744585991 0.0526347048580647 0.0321527533233166 0.00930219050496817 -0.0420066677033901 -0.0136070512235165 -0.0241587273776531 -0.0380339026451111 0.0271189101040363 0.0364142544567585 -0.0473544038832188 0.00377828883938491 -0.0170484893023968 -0.0450640730559826 -0.0271531641483307 0.0274610705673695 -0.0153471119701862 0.00464069470763207 0.0325698330998421 0.00566241890192032 -0.0161550100892782 0.0217267498373985 -0.0235821362584829 -0.0601390562951565 -0.0683656930923462 -0.110858455300331 -0.00666100159287453 0.0234953667968512 0.0666675418615341 -0.0111310705542564 -0.0463256798684597 -0.0907971039414406 -0.0663508102297783 -0.0534913539886475 0.0382905229926109 -0.0241870433092117 -0.00553605007007718 -0.0613481476902962 -0.0429631210863590 0.00277499714866281 -0.00672259740531445 -0.0334615521132946 -0.00398926436901093 -0.137968346476555 -0.0899558365345001 -0.0753044560551643 -0.0760319828987122 -0.0666947960853577 -0.112191148102283 0.00874629244208336 0.0216597169637680 -0.0250969249755144 -0.0232231486588717 -0.000664670020341873 -0.00665216241031885 0.0319261550903320 -0.0205311514437199 0.0377645976841450 0.0123250046744943 -0.0480831861495972 -0.0490728244185448 -0.0601864494383335 -0.00303450343199074 0.0182344764471054 0.0328195020556450 0.0112133119255304 0.0870265960693359 -0.0207754261791706 0.0247515849769115 0.0493643991649151 0.130141109228134 -0.0175371281802654 -0.0464434362947941 -0.0308337565511465 -0.0148411989212036 -0.0192963033914566 0.00912994332611561 0.0630143061280251 0.104289218783379 0.0370433814823628 0.0303017497062683 -0.00838873255997896 -0.102542944252491 -0.0803608894348145 -0.0718346834182739 -0.0348541662096977 0.0363537259399891 0.0541714616119862 -0.0215439330786467 0.0111946817487478 0.00701466156169772 -0.0682540610432625 -0.0518748313188553 -0.00946355052292347 -0.0850252658128738 0.00558949261903763 0.0218315124511719 -0.0167624410241842 -0.0777825340628624 -0.0341037996113300 0.0603156276047230 0.0562538355588913 -0.0283442120999098 -0.0369065515697002 -0.0834866911172867 -0.0472940839827061 -0.0274785701185465 0.000241852365434170 -0.0377546660602093 -0.112637393176556 -0.0402911007404327 0.0107161933556199 0.0688832104206085 0.0109443729743361 0.0455681197345257 -0.00357032008469105 -0.0165811404585838 0.0463084466755390 0.0481236018240452 0.0140027236193419 -0.0127518223598599 0.0264095347374678 0.0549743808805943 0.0666864216327667 -0.0444554090499878 0.0735081061720848 0.142236307263374 0.0585103780031204 0.0466549955308437 0.0475373156368732 -0.0400605089962482 -0.0192453768104315 -0.0712541490793228 -0.0558960922062397 -0.0792884454131126 -0.00798675417900085 0 0 0 0 0 0 0 0 0 0 0 0 0 0 0 0 0 0 0 0 0 0 0 0 0 0 0 0 0 0 0 0 0 0 0 0 0 0 0 0 0 0 0 0 0 0 0 0 0 0 0 0 0 0 0 0 0 0 0 0 0 0 0 0 0 0 0 0 0 0 0 0 0 0 0 0 0 0 0 0 0 0 0 0 0 0 0 0 0 0 0 0 0 0 0 0 0 0 0 0 0 0 0 0 0 0 0 0 0 0 0 0 0 0 0 0 0 0 0 0 0 0 0 0 0 0 0 0 0 0 0 0 0 0 0 0 0 0 0 0 0 0 0 0 0 0 0 0 0 0 0 0 0 0 0 0 0 0 0 0 0 0 0 0 0 0 0 0 0 0 0 0 0 0 0 0 0 0 0 0 0 0 0 0 0 0 0 0 0 0 0 0 0 0 0 0 0 0 0 0 0 0 0 0 0 0 0 0 0 0 0 0 0 0 0 0 0 0 0 0 0 0 0 0 0 0 0 0 0 0 0 0 0 0 0 0 0 0 0 0 0 0 0 0 0 0 0 0 0 0 0 0 0 0 0 0 0 0 0 0 0 0 0 0 0 0 0 0 0 0 0 0 0 0 0 0 0 0 0 0 0 0 0 0 0 0 0 0 0 0 0 0 0 0 0 0 0 0 0 0 0 0 0 0 0 0 0 0 0 0 0 0 0 0 0 0 0 0 0 0 0 0 0 0 0 0 0 0 0 0 0 0 0 0 0 0 0 0 0 0 0 0 0 0 0 0 0 0 0 0 0 0 0 0 0 0 0 0 0 0 0 0 0 0 0 0 0 0 0 0 0 0 0 0 0 0 0 0 0 0 0 0 0 0 0 0 0 0 0 0 0 0 0 0 0 0 0 0 0 0 0 0 0 0 0 0 0 0 0 0 0 0 0 0 0 0 0 0 0 0 0 0 0 0 0 0 0 0 0 0 0 0 0 0 0 0 0 0 0 0 0 0 0 0 0 0 0 0 0 0 0 0 0 0 0 0 0 0 0 0 0 0 0 0 0 0 0 0 0 0 0 0 0 0 0 0 0 0 0 0 0 0 0 0 0 0 0 0 0 0 0 0 0 0 0 0 0 0 0 0 0 0 0 0 0 0 0 0 0 0 0 0
0.0782533660531044 0.0700310990214348 0.0882711708545685 0.0178917199373245 0.0302736852318048 -0.00942984223365784 -0.0375888794660568 -0.0380482785403729 -0.0760471150279045 -0.0432223565876484 -0.0184227302670479 -0.0441263094544411 0.0626783147454262 0.0605505034327507 0.000155804897076450 -0.0153802242130041 -0.0148265976458788 0.0625797137618065 0.00355817005038261 -0.0289496965706348 -0.0224423557519913 -0.0403019115328789 -0.0209337640553713 -0.0509416759014130 -0.0316938124597073 0.0536811016499996 -0.0905696526169777 -0.0399608872830868 -0.0304816067218781 0.0464272722601891 0.00738301174715161 -0.00604631518945098 0.0223342087119818 0.0185697302222252 -0.0519883409142494 -0.0165866017341614 0.0296364352107048 0.0329793393611908 0.0959507748484612 0.0552136339247227 -0.0982073396444321 -0.0728162378072739 -0.0528161488473415 0.0439688861370087 0.0466561578214169 0.00864335056394339 0.0809769928455353 -0.0526809319853783 0.0205075982958078 0.00294841849245131 0.0225582104176283 -0.0221210885792971 -0.0208414420485497 0.0127024687826633 -0.0212082713842392 0.000615013355854899 -0.0351779311895371 0.00167381984647363 -0.0212157629430294 -0.0395647883415222 0.0850411579012871 0.109002433717251 -0.0268367417156696 -0.0399244725704193 0.0230602137744427 0.0932057127356529 0.126556813716888 -0.0166870541870594 -0.0903815552592278 -0.0483777597546577 -0.0155081497505307 -0.0906970724463463 -0.0808624327182770 0.107145808637142 0.0199611205607653 0.0295486021786928 -0.0118275899440050 0.00801481027156115 -0.0381827987730503 0.0122206434607506 -0.0447696819901466 -0.00289131305180490 0.0756495445966721 0.0355201773345470 -0.0521087087690830 -0.0664555281400681 -0.128287091851234 -0.0358668006956577 0.0517045259475708 0.100654847919941 0.0376956462860107 0.0815008580684662 0.000951918773353100 0.0434612184762955 -0.0612676963210106 0.0200286172330380 0.194474056363106 0.162950202822685 0.00123707996681333 -0.0535498447716236 -0.0922559052705765 -0.0198303833603859 -0.0370863974094391 -0.00669356761500239 -0.0218663308769465 -0.0375914461910725 -0.116102144122124 -0.0574608370661736 0.0344194099307060 0.0757296010851860 -0.0404894426465035 -0.0294854957610369 -0.00399050628766418 0.0236086472868919 -0.0613575242459774 -0.0263981819152832 0.0476831384003162 0.111402109265327 -0.0190476737916470 0.0592479482293129 0.0439235717058182 -0.0500056669116020 -0.0198964215815067 0.00608942750841379 0.00344217126257718 0.0911432951688767 0.00427452521398664 0.0833723470568657 0.0210249628871679 0.0393929928541184 0.0255912188440561 0.0282515380531549 0.0378673896193504 -0.0247660204768181 -0.0621604025363922 -0.0320792458951473 -0.0528510250151157 -0.0111734084784985 0.0529705360531807 0.0483144558966160 -0.0641614198684692 -0.0987416431307793 -0.0527815632522106 -0.0440040715038776 -0.103183299303055 -0.108026869595051 -0.0269818324595690 -0.0120978914201260 -0.0762115120887756 -0.0839316099882126 0.0397827886044979 0.0593728646636009 -0.0196793563663960 -0.0252055469900370 -0.0532710067927837 -0.00842277705669403 0.0862008854746819 0.0320813730359077 0.00351599766872823 0.0248968750238419 -0.0259329210966826 -0.0135113839060068 0.000593686418142170 -0.0202575661242008 -0.0212157946079969 -0.0303440131247044 -0.0254626162350178 0.109861381351948 0.0338639169931412 -0.113016359508038 -0.0713827759027481 -0.0847576707601547 0.00943428371101618 0.0515541806817055 0.00798825267702341 0.00122975360136479 0.0224303826689720 -0.127815246582031 -0.126104071736336 -0.0265082065016031 0.0642155259847641 0.134385868906975 0.0304056461900473 -0.0417398661375046 -0.00113886129111052 0.0518368780612946 0.0517355501651764 0.0514082834124565 -0.0218343641608953 -0.0555431731045246 0.0154900420457125 -0.00480212550610304 -0.0159482341259718 -0.0293605513870716 -0.0655211061239243 -0.0474911406636238 0.0157443992793560 0.0569190420210362 0.0831423550844193 0.00215270975604653 -0.0656521245837212 -0.0448448024690151 -0.0204194430261850 2.33853988902411e-05 -0.0144381346181035 -0.0117120184004307 -0.0264572184532881 0.0419191494584084 -0.0224770195782185 -0.0191935468465090 -0.0273486357182264 -0.0796036422252655 -0.0392570607364178 0.0561785884201527 0.0692684277892113 0.0327759794890881 0.0260422844439745 -0.0108365081250668 -0.0817961916327477 -0.0475025735795498 0.0448954515159130 0.00251443823799491 0.0103374812752008 0.0311492364853621 0.00375677668489516 0.00315265567041934 -0.0463861227035522 0.0347064286470413 -0.0442453026771545 0.00168419722467661 0.0534420348703861 -0.00975544564425945 0.00423949817195535 -0.00687273032963276 0.0102624921128154 0.0107253789901733 -0.0600295290350914 -0.0288645960390568 -0.0539119541645050 0.0239793285727501 -0.0325751677155495 -0.0383520498871803 -0.0251579284667969 -0.0428831540048122 0.0379728749394417 -0.00457741180434823 -0.000111793247924652 -0.0491907410323620 -0.0529057495296001 -0.00179419748019427 0.0218838900327683 0.0606301836669445 -0.000913274241611362 -0.0617646276950836 -0.0931615978479385 -0.0370921827852726 -0.0531565025448799 -0.0973755046725273 -0.0408679656684399 -0.0341820158064365 0.0212522968649864 -0.00741905253380537 0.0148233287036419 -0.0150428991764784 0.00494016706943512 -0.0957932695746422 0.0359672233462334 0.0195480547845364 0.0148468185216188 -0.0230172723531723 -0.0331736579537392 -0.00292018568143249 0.0507542416453362 0.0610531456768513 0.0792335718870163 0.00939791463315487 -0.0154165793210268 -0.0276345144957304 -0.0970444083213806 -0.0659499317407608 -0.0335374288260937 -0.0371298976242542 -0.00926987174898386 0.0152603788301349 -0.0302811879664660 -0.000371150992577896 0.0548914372920990 0.0682119354605675 0.00308297644369304 0.0485964119434357 -0.00941482465714216 -0.0409829467535019 -0.0449224449694157 -0.0808421373367310 2.56860166700790e-05 -0.0278999898582697 -0.0356788188219070 0.00865778978914022 0.0146257383748889 0.107821218669415 0.0473267063498497 -0.0513022579252720 0.0548467822372913 0.0105755981057882 0.00770688429474831 0.0248261801898479 0.0441315025091171 0.0487289801239967 0.0339996963739395 0.0362714529037476 0.0419524796307087 -0.0207292716950178 -0.0691200941801071 -0.0756122991442680 -0.0532615147531033 0.0176360309123993 0.0708188936114311 0.0402789972722530 0.0354615077376366 0.0133775258436799 -0.0301287192851305 -0.0185214877128601 -0.0542704425752163 -0.0286170020699501 0.0557858832180500 0.128245517611504 0.0254438035190105 0.0372809953987598 0.0281180590391159 -0.0890838503837585 -0.0737172663211823 -0.00631457800045610 0.0937317460775375 0.0385001637041569 -0.0527548268437386 0.0424200966954231 -0.0452201031148434 -0.0100561175495386 0.0829172357916832 0.0518409200012684 0.00734129315242171 -0.0339863002300262 0.0146591477096081 0.0477889254689217 -0.0226278211921453 -0.0695822685956955 -0.0513179115951061 0.0353967323899269 -0.0514124631881714 -0.0349113196134567 0.0639624223113060 -0.00434074271470308 -0.00964008178561926 -0.00923339184373617 0.000567307171877474 -0.0235817264765501 -0.0343116074800491 -0.0444795601069927 -0.00882476195693016 -0.0411045886576176 -0.0413733124732971 0.0143097210675478 -0.0266368556767702 0.0156748630106449 -0.00823971908539534 -0.0407310575246811 -0.0593040250241756 -0.0825322717428207 0.0762249380350113 -0.0225313398987055 -0.0973442867398262 -0.0748620554804802 -0.115558817982674 0.0230326224118471 0.0660605579614639 0.0745336040854454 0.0147654823958874 -0.0390452295541763 -0.0162448249757290 0.0284651070833206 -0.0196783319115639 0.0391453430056572 -0.0313366465270519 -0.0485490076243877 -0.0683845579624176 0.0630450546741486 0.0134508479386568 -0.0308112781494856 -0.0863962471485138 -0.0250001344829798 -0.0450050383806229 -0.0989695563912392 -0.0271142013370991 -0.0777127072215080 -0.117443948984146 -0.0690437704324722 -0.0484719388186932 -0.00246611842885613 -0.0559515766799450 -0.0563831888139248 -0.0275366734713316 0.0324693359434605 0.0281814616173506 -0.0372036397457123 -0.00480011664330959 -0.0207441691309214 -0.0299875698983669 0.00378950778394938 0.0164070483297110 0.0482920557260513 0.0542571991682053 0.00296091916970909 -0.0304214209318161 -0.0120158391073346 -0.0675557553768158 -0.0519265085458756 -0.0198335759341717 0.0191787853837013 -0.0276530310511589 0.0139250149950385 0.0109151024371386 0.0451332405209541 0.0605801641941071 -0.0482193678617477 -0.0408310629427433 -0.0659729093313217 -0.0535460449755192 -0.0370653271675110 0.0104002822190523 -0.0622361898422241 -0.0306325107812881 -0.111183740198612 0.00960929691791534 -0.0331358835101128 0.0261751413345337 -0.0642651617527008 -0.0503050610423088 -0.0555071681737900 -0.0337777175009251 0.0391087420284748 0.0636443570256233 0.0979982838034630 0.0556682944297791 0.0124269686639309 0.0153491785749793 0.0681913271546364 0.0233192872256041 0.00176223285961896 -0.0316914580762386 -0.00791360810399056 -0.0251811016350985 -0.0689916312694550 0.0302342586219311 0.0283997915685177 0.0395725294947624 0.0329763107001781 -0.0650541484355927 -0.0519132018089294 0.0772975608706474 0.0669963583350182 0.0816554352641106 0.00105220265686512 -0.0277317166328430 -0.0282548125833273 0.0853352174162865 -0.00124980381224304 -0.0418776944279671 0.00243021943606436 0.0357212610542774 0.0208616144955158 0.0115257315337658 0.0447491779923439 0.0423981584608555 0.00262079527601600 -0.0247087683528662 -0.0565562732517719 0.0366501845419407 0.0905733183026314 0.0378765910863876 -0.0233478024601936 0.0463672243058682 0.129947260022163 0.00884947739541531 0.115132868289948 0.0593367479741573 0.0927861183881760 -0.00495847035199404 0.0841056182980537 0.0701401606202126 0.129505500197411 -0.00935929827392101 0.0109554063528776 -0.0351444408297539 -0.0770110934972763 -0.0447466708719730 -0.0464936345815659 -0.0582484975457192 -0.0674564838409424 0.0331790708005428 -0.000552792102098465 -0.00605100905522704 -0.0171920303255320 -0.0413486324250698 -0.0138936173170805 0.0139982448890805 0.0149538358673453 -0.0165000855922699 -0.0292650740593672 0.00202138326130807 0.0814241096377373 0.0375455468893051 -0.0713746696710587 0 0 0 0 0 0 0 0 0 0 0 0 0 0 0 0 0 0 0 0 0 0 0 0 0 0 0 0 0 0 0 0 0 0 0 0 0 0 0 0 0 0 0 0 0 0 0 0 0 0 0 0 0 0 0 0 0 0 0 0 0 0 0 0 0 0 0 0 0 0 0 0 0 0 0 0 0 0 0 0 0 0 0 0 0 0 0 0 0 0 0 0 0 0 0 0 0 0 0 0 0 0 0 0 0 0 0 0 0 0 0 0 0 0 0 0 0 0 0 0 0 0 0 0 0 0 0 0 0 0 0 0 0 0 0 0 0 0 0 0 0 0 0 0 0 0 0 0 0 0 0 0 0 0 0 0 0 0 0 0 0 0 0 0 0 0 0 0 0 0 0 0 0 0 0 0 0 0 0 0 0 0 0 0 0 0 0 0 0 0 0 0 0 0 0 0 0 0 0 0 0 0 0 0 0 0 0 0 0 0 0 0 0 0 0 0 0 0 0 0 0 0 0 0 0 0 0 0 0 0 0 0 0 0 0 0 0 0 0 0 0 0 0 0 0 0 0 0 0 0 0 0 0 0 0 0 0 0 0 0 0 0 0 0 0 0 0 0 0 0 0 0 0 0 0 0 0 0 0 0 0 0 0 0 0 0 0 0 0 0 0 0 0 0 0 0 0 0 0 0 0 0 0 0 0 0 0 0 0 0 0 0 0 0 0 0 0 0 0 0 0 0 0 0 0 0 0 0 0 0 0 0 0 0 0 0 0 0 0 0 0 0 0 0 0 0 0 0 0 0 0 0 0 0 0 0 0 0 0 0 0 0 0 0 0 0 0 0 0 0 0 0 0 0 0 0 0 0 0 0 0 0 0 0 0 0 0 0 0 0 0 0 0 0 0 0 0 0 0 0 0 0 0 0 0 0 0 0 0 0 0 0 0 0 0 0 0 0 0 0 0 0 0 0 0 0 0 0 0 0 0 0 0 0 0 0 0 0 0 0 0 0 0 0 0 0 0 0 0 0 0 0 0 0 0 0 0 0 0 0 0 0 0 0 0 0 0 0 0 0 0 0 0 0 0 0 0 0 0 0 0 0 0 0 0 0 0 0 0 0 0 0 0 0 0 0 0 0 0 0 0 0 0 0 0 0 0 0 0 0 0 0
0.0258141811937094 0.0601602718234062 -0.0225250963121653 -0.0379683859646320 0.0473436117172241 0.120017759501934 -0.0780934616923332 0.147662088274956 0.0406579002737999 0.146740734577179 -0.100210659205914 0.0384745486080647 0.0475771538913250 0.0460528098046780 -0.0157504267990589 -0.0317347235977650 -0.0203272495418787 -0.0185865983366966 0.0489400736987591 -0.0458698235452175 -0.0837763324379921 -0.134368404746056 0.0175018068403006 -0.0749184191226959 -0.0955169275403023 -0.00390014052391052 -0.0902208313345909 0.0369040705263615 0.0274554416537285 0.113852851092815 -0.0163860358297825 0.0285248439759016 0.0695687234401703 0.0154977813363075 -0.171604171395302 -0.0444234870374203 -0.0441649295389652 -0.00410369783639908 -0.0860165134072304 0.0433096960186958 0.0449535772204399 0.127549380064011 -0.0844645798206329 0.0302816443145275 0.0692114755511284 0.0834624543786049 -0.273551583290100 -0.0566050112247467 0.0154003873467445 0.00881390925496817 -0.0153741510584950 0.00829074624925852 0.0918583795428276 0.0588573701679707 -0.00835716724395752 0.00891572237014771 -0.0275250039994717 -0.111848384141922 0.0479039661586285 -0.0123637039214373 -0.0933262705802918 -0.0332898236811161 -0.0634025186300278 0.00816827733069658 0.0536605566740036 -0.0661903321743012 -0.0769097283482552 -0.0406996309757233 -0.0140764145180583 -0.00175738823600113 -0.0613976009190083 0.00656700413674116 0.00482416106387973 0.0392152704298496 -0.117072194814682 0.0173566285520792 0.0181255843490362 0.0452406257390976 -0.150440722703934 0.0836139023303986 0.108145147562027 0.137598827481270 -0.199872881174088 0.0125755723565817 0.0170572996139526 0.0805882140994072 0.0672269836068153 0.0691309794783592 0.0525834038853645 0.0272872708737850 -0.0810273587703705 -0.0630058795213699 0.0365235768258572 -0.0653940737247467 -0.0119649972766638 0.0264415834099054 -0.0422565117478371 -0.0113870026543736 -0.108680717647076 0.124261796474457 0.0563081428408623 0.0604416355490685 0.0214264001697302 -0.174042016267777 -0.0453091561794281 -0.157584264874458 0.0219039283692837 -0.0472050309181213 0.00530989374965429 -0.0280296113342047 0.0440299399197102 -0.0201222039759159 0.0688117668032646 0.0636202022433281 -0.106035113334656 0.142491132020950 0.168827950954437 0.196863234043121 -0.353013128042221 0.0270203184336424 0.0924447029829025 0.0403115451335907 0.00573329720646143 0.0241098850965500 -0.0328464768826962 -0.0257591642439365 -0.0253950450569391 0.113320738077164 -0.0123506486415863 -0.0294217150658369 0.0348748788237572 -0.00825077202171087 0.0112825864925981 -0.0783702731132507 0.0355818755924702 -0.0371934249997139 -0.0505062304437161 -0.0195936188101769 -0.0362404137849808 -0.0168430060148239 -0.0421321168541908 -0.0410875715315342 0.0183682087808847 -0.0377467460930347 -0.0151648856699467 0.0300173629075289 0.0336096771061420 0.0350221209228039 -0.0283938199281693 -0.00870805419981480 -0.0177725069224834 -0.0162342078983784 -0.00362386321648955 0.0232641808688641 -0.0231069680303335 0.106144368648529 0.0425923913717270 0.0419292971491814 -0.0664473846554756 -0.0243001691997051 0.0447253137826920 -0.100592568516731 0.0224700104445219 -0.0783525332808495 -0.0587913133203983 -0.0532350689172745 0.0980131402611733 -0.0943340808153153 -0.0650485455989838 -0.0345818325877190 0.195359334349632 0.0434266068041325 -0.0204383768141270 -0.110969007015228 -0.00186212535481900 0.109395921230316 -0.00603049295023084 0.0212390031665564 0.0689830929040909 0.0568162202835083 -0.0372720733284950 0.00632001599296927 0.0377780087292194 -0.0117241879925132 0.0462812595069408 -0.0739671885967255 0.0440877564251423 -0.00729711959138513 -0.0456523597240448 -0.116836629807949 -0.0418937057256699 0.0136054176837206 0.0265244916081429 0.0590800680220127 -0.0604772232472897 0.0619772858917713 0.0974760651588440 0.0412355735898018 -0.0496525093913078 -0.0155547149479389 -0.0682993829250336 0.0216894373297691 0.00625568814575672 -0.0191620532423258 0.0167431905865669 -0.0567902922630310 0.0584678985178471 -0.0432635024189949 -0.0232126489281654 -0.00210730545222759 0.0499998629093170 0.00148476334288716 -0.0208359602838755 -0.0107900034636259 0.0238822363317013 0.0343352071940899 0.0339734368026257 -0.0492145307362080 -0.0930143296718597 -0.0430021509528160 -0.0305360890924931 -0.0767672210931778 -0.00971138849854469 -0.107598356902599 -0.103224724531174 -0.0511369407176971 0.0333182960748673 -0.0296049900352955 -0.0296640917658806 -0.0124939614906907 0.0795712545514107 -0.0260403510183096 -0.0192060004919767 0.0214992519468069 -0.0236561782658100 -0.0123459389433265 0.00288489903323352 0.0601535961031914 0.0205312501639128 -0.0126872668042779 -0.0275337453931570 0.0531013794243336 0.0213061887770891 -0.0464269034564495 -0.0460494086146355 -0.0134953036904335 0.0250387229025364 -0.0821204483509064 -0.0270000454038382 -0.000512849539518356 -0.0150714768096805 -0.0213838685303926 -0.0298999696969986 -0.0205217264592648 0.00607705255970359 -0.00902843102812767 0.0225367303937674 -0.0312929935753346 0.0202623661607504 -0.0436896942555904 0.0133611168712378 0.0145359598100185 0.0157234910875559 0.00232493877410889 0.0328769348561764 -0.0107005825266242 0.0191251691430807 0.0249792505055666 0.00566017301753163 -0.0289577580988407 0.0614564716815949 0.0207094978541136 0.0416008122265339 0.0312757231295109 0.00623148726299405 -0.0567038916051388 -0.0814496576786041 -0.110619105398655 0.195529013872147 0.0570401586592197 -0.0513944365084171 0.0370885245501995 0.0714591294527054 0.0528515800833702 -0.0367941558361054 -0.0576584488153458 -0.0360433273017406 0.00579627742990851 -0.0266086664050818 0.0273925587534904 0.0776559337973595 0.0202716384083033 -0.0535411238670349 -0.0341047085821629 0.0824941247701645 -0.0199891421943903 -0.139529287815094 -0.0427250303328037 0.0167604628950357 -0.0591326467692852 0.0166413467377424 -0.0128656616434455 0.0563635602593422 0.0627982839941979 0.0121220499277115 0.0131379617378116 0.0386204384267330 0.0185748301446438 -0.0388223640620709 0.0144786015152931 0.0673605725169182 -0.0350160822272301 -0.0586798861622810 -0.121083788573742 0.116209946572781 -0.0777972787618637 -0.0514157563447952 -0.135326325893402 0.0352272205054760 -0.0116067742928863 -0.0737583041191101 -0.00908222515136004 -0.0179180670529604 -0.00542326644062996 0.0184282660484314 0.000613579526543617 -0.0207662805914879 -0.0509279221296310 -0.0545623637735844 -0.0772703066468239 0.0517221391201019 0.0219655390828848 0.0394574441015720 -0.0182218141853809 0.00753427203744650 0.0436662994325161 0.0526620075106621 0.0422551929950714 -0.0224642101675272 -0.0132108321413398 0.0494932271540165 -0.0863830968737602 -0.0663605034351349 0.0339001491665840 0.0122260386124253 0.0651183575391769 0.0540534667670727 -0.0202109254896641 -0.0408882498741150 -0.0940428897738457 0.130983904004097 0.0443099513649941 -0.0452132076025009 -0.0115548409521580 0.0961365625262260 0.00851381011307240 -0.0168714057654142 -0.0363457389175892 0.0792074203491211 -0.0269656032323837 0.00667514326050878 -0.0110969878733158 0.0108901783823967 0.0838423147797585 0.0257480014115572 0.0167434047907591 0.138538122177124 -0.0766269043087959 -0.146129325032234 -0.0898111760616303 0.108005724847317 0.0958351641893387 0.0186484456062317 0.0538480356335640 0.0524461902678013 -0.0527256019413471 -0.0925176292657852 -0.0538910962641239 -0.0463934689760208 0.0748633518815041 -0.0567291975021362 0.0734150186181068 0.0198335684835911 0.0327775366604328 0.0789648368954659 -0.0813288837671280 -0.0399617366492748 0.00601798528805375 0.0741637796163559 0.0700823143124580 -0.0256285872310400 0.00314041320234537 0.0135171543806791 -0.0241233352571726 0.0677371844649315 -0.0147784259170294 0.0187698379158974 -0.0207248441874981 0.0944739282131195 0.0268132146447897 0.0166617222130299 -0.0377162992954254 0.0386203452944756 -0.0153478281572461 0.00588957685977221 0.0783912241458893 -0.0768201500177383 -0.00252304784953594 0.0419237501919270 0.0519075021147728 -0.0513756275177002 0.00575912650674582 0.0675799846649170 -0.0107914954423904 -0.130499973893166 -0.00566939124837518 0.0803513005375862 0.0304364264011383 0.0596255734562874 -0.0636299997568131 -0.100151918828487 -0.0873589888215065 -0.0804484933614731 0.00609750160947442 0.0686448737978935 0.0229344815015793 -0.0345003828406334 0.0595173984766007 -0.0169673543423414 0.0398797504603863 0.00999723095446825 0.0319834314286709 -0.0388094410300255 -0.0687443763017654 0.0946897268295288 -0.0562163591384888 -0.0417055785655975 -0.000566904549486935 0.105742029845715 -0.0312090553343296 0.0733915120363236 -0.0453789941966534 -0.0197830684483051 0.00419691903516650 0.0545845627784729 0.0869755372405052 0.00968664884567261 0.0700688734650612 0.120559558272362 0.0814263299107552 -0.0884819999337196 -0.0118337273597717 -0.0106010306626558 -0.0535156726837158 -0.0113127240911126 -0.0295809917151928 -0.0104193380102515 -0.104044057428837 -0.128762573003769 -0.0269558355212212 0.0243138447403908 0.0844162702560425 -0.0257380995899439 -0.00442818831652403 0.0940660610795021 -0.0133669208735228 -0.0340757817029953 0.0526005662977695 0.0535142235457897 -0.0245281029492617 0.0459524132311344 -0.0785378813743591 -0.0689580142498016 0.0110487770289183 0.0616221576929092 -0.0632725358009338 0.0157498177140951 0.0609200447797775 -0.00481532933190465 -0.0425878725945950 -0.0250705648213625 0.000689917651470751 -0.0227093920111656 -0.0703995302319527 0.00266214995644987 0.0250869020819664 0.0221435893326998 -0.0549433007836342 -0.0638081952929497 -0.0812840014696121 -0.0581575296819210 -0.0313122682273388 0.109499841928482 0.0538814142346382 -0.143999174237251 -0.0391554497182369 0.108745545148849 0.135789409279823 -0.0197287090122700 0.0571129359304905 0.0256497450172901 0.115824528038502 -0.117457605898380 -0.0889319628477097 0.0338755063712597 0.00196534721180797 -0.0174731574952602 -0.0880919694900513 -0.00425696512684226 0.0339662879705429 0.0176258366554976 -0.0539923347532749 0 0 0 0 0 0 0 0 0 0 0 0 0 0 0 0 0 0 0 0 0 0 0 0 0 0 0 0 0 0 0 0 0 0 0 0 0 0 0 0 0 0 0 0 0 0 0 0 0 0 0 0 0 0 0 0 0 0 0 0 0 0 0 0 0 0 0 0 0 0 0 0 0 0 0 0 0 0 0 0 0 0 0 0 0 0 0 0 0 0 0 0 0 0 0 0 0 0 0 0 0 0 0 0 0 0 0 0 0 0 0 0 0 0 0 0 0 0 0 0 0 0 0 0 0 0 0 0 0 0 0 0 0 0 0 0 0 0 0 0 0 0 0 0 0 0 0 0 0 0 0 0 0 0 0 0 0 0 0 0 0 0 0 0 0 0 0 0 0 0 0 0 0 0 0 0 0 0 0 0 0 0 0 0 0 0 0 0 0 0 0 0 0 0 0 0 0 0 0 0 0 0 0 0 0 0 0 0 0 0 0 0 0 0 0 0 0 0 0 0 0 0 0 0 0 0 0 0 0 0 0 0 0 0 0 0 0 0 0 0 0 0 0 0 0 0 0 0 0 0 0 0 0 0 0 0 0 0 0 0 0 0 0 0 0 0 0 0 0 0 0 0 0 0 0 0 0 0 0 0 0 0 0 0 0 0 0 0 0 0 0 0 0 0 0 0 0 0 0 0 0 0 0 0 0 0 0 0 0 0 0 0 0 0 0 0 0 0 0 0 0 0 0 0 0 0 0 0 0 0 0 0 0 0 0 0 0 0 0 0 0 0 0 0 0 0 0 0 0 0 0 0 0 0 0 0 0 0 0 0 0 0 0 0 0 0 0 0 0 0 0 0 0 0 0 0 0 0 0 0 0 0 0 0 0 0 0 0 0 0 0 0 0 0 0 0 0 0 0 0 0 0 0 0 0 0 0 0 0 0 0 0 0 0 0 0 0 0 0 0 0 0 0 0 0 0 0 0 0 0 0 0 0 0 0 0 0 0 0 0 0 0 0 0 0 0 0 0 0 0 0 0 0 0 0 0 0 0 0 0 0 0 0 0 0 0 0 0 0 0 0 0 0 0 0 0 0 0 0 0 0 0 0 0 0 0 0 0 0 0 0 0 0 0 0 0 0 0 0 0 0 0 0 0 0 0 0 0 0 0 0 0
0.00974339339882135 0.000745279772672802 -0.0530006438493729 -0.0823612213134766 -0.0428703613579273 0.0130620077252388 -0.00445050513371825 -0.0166816357523203 -0.0929030478000641 -0.135111927986145 -0.0621366985142231 0.0749896913766861 0.0991676598787308 0.0879733636975288 -0.00109938322566450 -0.0273458827286959 -0.0277402754873037 0.0574311912059784 0.0386046804487705 0.109296604990959 0.114761531352997 0.134350031614304 0.0449034571647644 0.0426485575735569 0.0781022608280182 0.0925346165895462 0.0252235047519207 -0.0681425184011459 -0.0147642008960247 -0.0596604533493519 -0.0196299683302641 -0.000423480843892321 -0.0900727659463882 -0.0822758153080940 -0.136493995785713 -0.0402542166411877 0.0408363565802574 -0.00780908623710275 -0.0241424851119518 -0.0304301492869854 -0.0172886848449707 0.0777188166975975 0.0829002186655998 0.0608306154608727 0.0652807950973511 -0.00791718624532223 -0.00595396710559726 0.0504521690309048 0.0332361049950123 0.0221699289977551 -0.0170313604176044 -0.0653448402881622 -0.0644290968775749 -0.162587195634842 -0.0931837335228920 0.102601915597916 0.127595126628876 0.165264070034027 -0.0311106555163860 -0.0270445961505175 -0.0151990158483386 0.113407053053379 0.0298124365508556 -0.0159809030592442 0.0303520616143942 0.0389270819723606 -0.0817533656954765 -0.101848304271698 -0.0322568602859974 0.0396773740649223 0.0108407437801361 0.0197182614356279 -0.0179305877536535 -0.0111298235133290 0.0215600058436394 -0.0331261567771435 -0.00124488689471036 0.0402375012636185 -0.0147407334297895 -0.00989672727882862 -0.0722507312893868 -0.0971519500017166 -0.0364649780094624 -0.00924831256270409 -0.00355392228811979 0.122190438210964 -0.0171958375722170 -0.0198158454149961 -0.0599890537559986 -0.0852479338645935 0.0156712085008621 0.0471933558583260 0.103729642927647 0.106547087430954 0.0348722897469997 0.00246439804323018 -0.00832329876720905 -0.0389703810214996 -0.0470283403992653 0.0253796279430389 0.0631520897150040 0.00580740068107843 -0.0787905380129814 0.0435303896665573 -0.0551940053701401 -0.0458862818777561 0.0380215197801590 0.0991315469145775 0.0480910576879978 0.000413110712543130 -0.0370757766067982 -0.0233889818191528 -0.0415279008448124 0.00815417245030403 -0.0279818791896105 -0.0459529682993889 0.0377532988786697 -0.0352703854441643 -0.0316799581050873 -0.0419771447777748 -0.0498537570238113 -0.0236752815544605 0.00879050884395838 0.0381799116730690 -0.0167849659919739 0.0233346447348595 -0.00154016294982284 0.0185553915798664 0.0184252802282572 0.0583685673773289 0.0825933292508125 -0.0560096241533756 -0.0950990095734596 -0.0894563719630241 -0.0990246087312698 -0.142658323049545 -0.0200679469853640 -0.0319565124809742 -0.0242821890860796 0.00363705190829933 -0.121192410588264 -0.143414214253426 -0.110047869384289 -0.0378827191889286 -0.0907156243920326 -0.0412156693637371 -0.0239595863968134 0.0491297841072083 -0.0447711795568466 -0.0308235026896000 0.00100553652737290 -0.0814411193132401 -0.0443173088133335 -0.0622476972639561 -0.0371692031621933 -0.0170446913689375 -0.0131325330585241 -0.0273166503757238 -0.0225594900548458 -0.0628535971045494 -0.0703471153974533 -0.101722866296768 -0.000388592598028481 0.0479516722261906 0.0320586636662483 -0.00340959662571549 -0.0717704817652702 -0.0365354344248772 -0.0341845415532589 -0.0177570916712284 0.0560587607324123 -0.0706886649131775 -0.0976777151226997 -0.0213193353265524 -0.0550316199660301 0.0169213395565748 -0.00407725153490901 0.0713711977005005 0.0681687816977501 -0.00489479256793857 -0.0115234982222319 -0.0231633130460978 -0.0279739834368229 -0.0333619005978107 -0.0775235965847969 -0.0485284067690373 -0.109904795885086 -0.0504323244094849 0.0777543410658836 0.00580969778820872 0.0418741665780544 -0.0194594450294971 -0.0988244414329529 -0.0704277604818344 -0.0352421663701534 -0.0118184750899673 -0.0241328123956919 0.00346854678355157 -0.0297652911394835 0.00419075693935156 -0.00399008858948946 0.0306919254362583 -0.0279604867100716 0.00622589560225606 0.0195479653775692 -0.0592115148901939 0.0322738736867905 0.114550724625587 0.0486942864954472 0.0949755981564522 -0.0484960749745369 -0.0514882355928421 0.0313149280846119 0.0348597466945648 -0.00509159732609987 0.0383027009665966 -0.0173020679503679 0.00285991048440337 -0.00166776694823056 0.00457044783979654 0.00172833818942308 0.0103073241189122 0.0200214479118586 -0.0128997471183538 -0.00605814019218087 -0.0280133411288261 0.00405094353482127 -0.0355690605938435 -0.0533220991492271 -0.00748989265412092 0.0536142997443676 0.0750274509191513 0.0263976063579321 0.00848118029534817 -0.0343333669006825 -0.104793921113014 -0.0587525703012943 -0.0318168625235558 0.0171451382339001 -0.00517302565276623 -0.0539484098553658 -0.0483555793762207 0.00368061941117048 -0.0982212796807289 -0.0638454779982567 -0.0967753827571869 0.0182314943522215 0.0375318750739098 0.0211416184902191 0.0510432906448841 -0.0419428348541260 -0.0657408088445664 0.0142808398231864 0.0459588654339314 -0.0341789014637470 -0.0885957404971123 0.0523384585976601 0.0338230654597282 0.0256202127784491 -0.00135743222199380 0.00536356493830681 0.103524506092072 0.105722904205322 -0.0550750009715557 -0.0458256900310516 -0.0402292013168335 -0.0350365228950977 -0.0143450004979968 -0.0124175334349275 -0.0196548681706190 -0.00502197816967964 -0.0205241236835718 0.0328291431069374 0.0663545280694962 0.114165708422661 0.0643915235996246 0.0103733977302909 0.0321264155209065 -0.0683688595890999 -0.0476438291370869 -0.0535227209329605 0.0359310731291771 0.0603937432169914 -0.00576017657294869 -0.0332163348793983 0.0200902279466391 0.0489941090345383 0.00647114356979728 -0.0423581600189209 -0.0668901354074478 -0.00812394171953201 0.00952898990362883 0.0235014036297798 -0.0644052922725678 -0.0295993369072676 0.0269961114972830 0.00407393276691437 0.00966399814933538 0.0215092599391937 0.0712973028421402 0.0386082977056503 -0.0282300915569067 0.0567593127489090 0.0356299206614494 0.0106157856062055 -0.0519358813762665 -0.0399584509432316 -0.0253988727927208 0.0610258132219315 0.114283569157124 0.0971941575407982 -0.0390379168093205 -0.0753276050090790 -0.0560857057571411 -0.0407982878386974 0.0198129937052727 0.000536911888048053 0.0418426916003227 -0.0269271619617939 -0.0399463139474392 -0.0341118872165680 0.0273913349956274 0.0656781420111656 0.00721996137872338 -0.0889932364225388 -0.0622641593217850 -0.0238015893846750 0.0212793424725533 -0.0630877614021301 -0.111712671816349 -0.0398099683225155 -0.0427010729908943 0.0457061938941479 -0.0328791067004204 0.0200733095407486 -0.00828035827726126 -0.0309478715062141 -0.0138199636712670 -0.000920436752494425 -0.0579609796404839 -0.102771170437336 -0.0979250967502594 -0.0172448791563511 0.00764404796063900 -0.0186227299273014 -0.0235387496650219 -0.0392197594046593 -0.100382864475250 -0.0637000277638435 -0.123672515153885 -0.0767957195639610 0.0143335703760386 0.0201855357736349 0.0297683924436569 0.0544869862496853 0.114872433245182 0.0628385841846466 0.0186448022723198 0.0376552827656269 -0.0823270380496979 -0.0290745254606009 0.0418425276875496 0.0709270238876343 0.0890444964170456 0.0595393404364586 0.0452891029417515 0.0244677159935236 -0.0156916230916977 0.000859841995406896 0.00663857348263264 0.0374081172049046 0.0323898270726204 0.0604399926960468 -0.0601640567183495 -3.23416461469606e-05 0.0808271765708923 0.0302005968987942 0.0820561274886131 0.0192410871386528 0.00842080265283585 -0.0333309285342693 -0.107418030500412 -0.0810299143195152 0.0702335312962532 0.0509345680475235 0.0379424467682838 0.00195876439101994 -0.0101106781512499 -0.0177329257130623 0.0630762502551079 -0.0169408060610294 -0.0178400781005621 -0.0267501119524241 -0.0327296666800976 0.0109004210680723 0.0405645817518234 0.0140077276155353 -0.0735632702708244 -0.0541551746428013 0.0323183350265026 0.0414723604917526 0.0500815138220787 0.0243522543460131 -0.0399616770446301 -0.000488024728838354 0.0280931182205677 -0.0124145932495594 0.0578737333416939 0.0402521900832653 0.0499662943184376 0.0765122771263123 0.0520637407898903 0.0160438790917397 -0.0469945520162582 -0.0506109558045864 0.116633221507072 0.0553922317922115 0.0303989183157682 -0.0221362151205540 -0.0569703392684460 -0.0429361611604691 0.0691591128706932 0.0299654789268971 -0.00202081399038434 0.0285059269517660 0.0519585050642490 -0.0675453916192055 -0.0292672980576754 -0.0665312781929970 -0.0195676852017641 -0.0102041335776448 0.0609335191547871 0.0666609331965447 -0.0211302097886801 -0.0815996825695038 -0.0243526771664619 0.00247040763497353 0.0846292600035667 0.0776175707578659 0.0852620229125023 0.0311157759279013 -0.0175702869892120 -0.0307521484792233 0.0561170838773251 0.0272655002772808 0.0169235207140446 0.0436105243861675 -0.0469984747469425 -0.0975223407149315 -0.0659936517477036 -0.0270571280270815 0.00379475625231862 -0.0178646706044674 0.0455908626317978 -0.0129786971956491 0.0306296851485968 0.0352363176643848 0.0211248081177473 -0.0202255435287952 0.00822519417852163 -0.0116714416071773 0.0161448735743761 -0.0638637617230415 -0.101525321602821 -0.0369106307625771 -0.0295724831521511 0.00397508917376399 0.0298957433551550 0.0189502518624067 0.0736107677221298 0.0604562535881996 0.0473734326660633 0.0517374537885189 0.00116744416300207 -0.0148666035383940 -0.0359566882252693 0.0273776520043612 0.123145982623100 0.0936749726533890 -0.0261277426034212 -0.00413683569058776 0.0873365029692650 0.0981397628784180 -0.0230357833206654 -0.0529307983815670 -0.0806140005588532 0.000893516640644521 0.0747880265116692 -0.00264610978774726 -0.0694713965058327 -0.0970273688435555 -0.0267201494425535 -0.0549504645168781 -0.0773884877562523 -0.0450122766196728 -0.0147832017391920 -0.000217484470340423 0.0810586735606194 0.0575931370258331 0.112187422811985 0.00834356248378754 -0.0890882536768913 -0.0690897256135941 0.00305756554007530 0.0607328563928604 0.0318389460444450 0.0496691912412643 0.0913675650954247 0.0312934070825577 -0.0465816706418991 -0.0443783178925514 -0.00224085967056453 0 0 0 0 0 0 0 0 0 0 0 0 0 0 0 0 0 0 0 0 0 0 0 0 0 0 0 0 0 0 0 0 0 0 0 0 0 0 0 0 0 0 0 0 0 0 0 0 0 0 0 0 0 0 0 0 0 0 0 0 0 0 0 0 0 0 0 0 0 0 0 0 0 0 0 0 0 0 0 0 0 0 0 0 0 0 0 0 0 0 0 0 0 0 0 0 0 0 0 0 0 0 0 0 0 0 0 0 0 0 0 0 0 0 0 0 0 0 0 0 0 0 0 0 0 0 0 0 0 0 0 0 0 0 0 0 0 0 0 0 0 0 0 0 0 0 0 0 0 0 0 0 0 0 0 0 0 0 0 0 0 0 0 0 0 0 0 0 0 0 0 0 0 0 0 0 0 0 0 0 0 0 0 0 0 0 0 0 0 0 0 0 0 0 0 0 0 0 0 0 0 0 0 0 0 0 0 0 0 0 0 0 0 0 0 0 0 0 0 0 0 0 0 0 0 0 0 0 0 0 0 0 0 0 0 0 0 0 0 0 0 0 0 0 0 0 0 0 0 0 0 0 0 0 0 0 0 0 0 0 0 0 0 0 0 0 0 0 0 0 0 0 0 0 0 0 0 0 0 0 0 0 0 0 0 0 0 0 0 0 0 0 0 0 0 0 0 0 0 0 0 0 0 0 0 0 0 0 0 0 0 0 0 0 0 0 0 0 0 0 0 0 0 0 0 0 0 0 0 0 0 0 0 0 0 0 0 0 0 0 0 0 0 0 0 0 0 0 0 0 0 0 0 0 0 0 0 0 0 0 0 0 0 0 0 0 0 0 0 0 0 0 0 0 0 0 0 0 0 0 0 0 0 0 0 0 0 0 0 0 0 0 0 0 0 0 0 0 0 0 0 0 0 0 0 0 0 0 0 0 0 0 0 0 0 0 0 0 0 0 0 0 0 0 0 0 0 0 0 0 0 0 0 0 0 0 0 0 0 0 0 0 0 0 0 0 0 0 0 0 0 0 0 0 0 0 0 0 0 0 0 0 0 0 0 0 0 0 0 0 0 0 0 0 0 0 0 0 0 0 0 0 0 0 0 0 0 0 0 0 0 0 0 0 0 0 0 0 0 0 0 0 0 0 0 0 0 0 0 0 0 0
-0.0787573531270027 0.0307048372924328 0.156486093997955 0.148146912455559 -0.0887263119220734 0.0589710995554924 0.118451207876205 0.126717314124107 -0.160653054714203 -0.183621525764465 -0.0161654073745012 -0.0453525632619858 -0.0652512907981873 0.0705123841762543 -0.0452458634972572 0.0408988557755947 0.0188111085444689 -0.0124927321448922 -0.0484406389296055 -0.205557808279991 -0.0940615609288216 0.0765145048499107 0.101956270635128 0.0184336863458157 -0.134254619479179 -0.0420855171978474 -0.0152727980166674 0.0524826981127262 0.0164336618036032 0.105935908854008 -0.00226642447523773 0.0489565730094910 -0.109111167490482 -0.0969749912619591 -0.0582822784781456 -0.0521388947963715 -0.0335840955376625 -0.0281850360333920 0.102044910192490 -0.0334544777870178 -0.127066045999527 -0.00984447449445725 0.0925930365920067 0.214626982808113 -0.0657054558396339 -0.110169403254986 -0.0422845147550106 -0.0131000624969602 -0.0394433923065662 0.0321399793028832 -0.00753714796155691 0.0105110500007868 -0.00866341684013605 -0.0929645672440529 -0.162818640470505 -0.0815441235899925 -0.00684461835771799 -0.0382662303745747 0.00877833925187588 0.00450568180531263 -0.0458347760140896 0.00210633687674999 0.0161060877144337 0.0360194630920887 0.00499615911394358 -0.0567001439630985 -0.136957108974457 -0.00963395740836859 -0.0279157422482967 0.0837526172399521 0.0628767386078835 0.0645679980516434 0.0548378527164459 -0.0103885633870959 0.0210917945951223 -0.0108479987829924 -0.193442866206169 0.0474904552102089 0.00175970932468772 0.177760541439056 -0.0683642625808716 0.0766519159078598 0.0368278287351131 0.0387256108224392 -0.0306774470955133 0.0445980317890644 0.0667715892195702 0.0775630995631218 -0.141465276479721 -0.0479050204157829 0.0452751405537128 -0.0548519901931286 -0.0159989446401596 0.0805207192897797 0.0758708715438843 0.131426706910133 -0.0986675918102264 -0.0769822597503662 0.0243526566773653 0.0312226805835962 0.0313762612640858 -0.0484020933508873 -0.0226541012525558 -0.0236437246203423 0.0105479201301932 0.00729464320465922 -0.0588054880499840 0.0109090618789196 -0.0236856713891029 0.0264837406575680 -0.115389667451382 -0.0955217108130455 -0.0818237066268921 0.0401413999497891 0.0480295978486538 0.169937178492546 0.0346353091299534 0.0926405563950539 0.0651546418666840 -0.0111603848636150 -0.0234953332692385 -0.0392723083496094 0.0292169172316790 0.0789997503161430 -0.00261346693150699 -0.000931656803004444 0.0500122271478176 0.0495939590036869 -0.0195398069918156 0.0111459307372570 0.0345856845378876 -0.00587320839986205 -0.0109097398817539 -0.0401401855051518 0.00469568790867925 -0.0394351817667484 -0.00284077646210790 -0.0351142622530460 -0.0351575762033463 0.0236224494874477 0.0107733104377985 0.00581373646855354 0.0369104556739330 0.0656441226601601 0.0340355820953846 0.107685022056103 0.00556957861408591 0.0110640954226255 -0.0336422286927700 0.0647643879055977 0.0919334813952446 0.0391694642603397 0.0925174355506897 0.0635436400771141 0.0749125182628632 0.0802116841077805 -0.00619472516700625 0.0248288307338953 0.0121099958196282 -0.00630952790379524 0.0881015285849571 0.103530950844288 0.0590105280280113 0.0546449013054371 0.00569903617724776 -0.00150636082980782 -0.0216228794306517 -0.0645871385931969 0.0755158811807632 -0.000550057156942785 -0.0171346105635166 0.0720610693097115 0.0440298728644848 -0.0689526200294495 0.0158541835844517 0.0217660069465637 0.0118116978555918 -0.0408666059374809 -0.0804786086082459 0.00865262746810913 0.122979752719402 0.0273365862667561 -0.0199741739779711 0.0118072349578142 0.0309868529438972 -0.0583795420825481 -0.0569925531744957 -0.00276035093702376 -0.0278550758957863 0.0234789792448282 0.0456686466932297 -0.00787894800305367 -0.0360768660902977 -0.0213184002786875 -0.0350498035550118 -0.0350798703730106 -0.0138944080099463 -0.0549093484878540 0.0231734886765480 -0.00655227620154619 -0.00949897523969412 -0.0660193711519241 -0.0710477903485298 -0.111971713602543 0.0147184990346432 -0.000108351654489525 -0.0319452397525311 0.000405940139899030 -0.0598856620490551 0.0261948592960835 0.0500163212418556 0.0408794842660427 0.0114517407491803 0.0310366339981556 0.0541195347905159 -0.0157750900834799 -0.0491027422249317 0.0203830059617758 0.00129532371647656 0.0531137660145760 -0.00551265710964799 -0.0734425559639931 -0.0233196541666985 -0.00988301355391741 0.0277845580130816 -0.0647644251585007 -0.0307144839316607 -0.104073382914066 0.00494432030245662 0.0420714952051640 0.0580960027873516 -0.00933034997433424 -0.0283901914954186 -0.0907635390758514 -0.0308804605156183 0.0203311685472727 -0.0874768272042275 -0.0558838248252869 0.0347550064325333 0.0490611903369427 0.0343757197260857 -0.0311241261661053 -0.0313964597880840 0.000130320957396179 -0.0891330614686012 -0.0992199704051018 -0.0927977189421654 0.0748706758022308 0.0106253037229180 0.000364072649972513 -0.0360954590141773 -0.0451678149402142 0.00639181537553668 0.0570141598582268 -0.00862444750964642 0.0321233868598938 -0.0290700215846300 0.0198516268283129 0.00167933257762343 -0.0267201513051987 -0.0689717531204224 0.0749635249376297 0.0544298738241196 -0.0752390101552010 -0.0282813180238009 -0.0505455620586872 -0.172883436083794 -0.0748200342059135 0.0187704283744097 0.0442265644669533 0.0653812065720558 0.0229507144540548 -0.0104430420324206 -0.145806282758713 -0.0699614882469177 -0.0800542011857033 0.0351678244769573 -0.0291507337242365 -0.100006893277168 -0.130942374467850 0.00523296045139432 0.0697014704346657 0.0253130104392767 0.101234190165997 0.0234744530171156 0.115557081997395 -0.0328439399600029 -0.0363769941031933 0.0501770712435246 -0.0231266915798187 -0.136886835098267 -0.0596667639911175 0.0435329936444759 0.0257623232901096 -0.0737684294581413 -0.104319512844086 -0.0190272536128759 0.101588010787964 0.0350004881620407 0.0628367587924004 0.0260482300072908 0.101693995296955 0.0473521165549755 0.0718451216816902 -0.0525927059352398 0.00816796813160181 0.0181156340986490 0.0397720076143742 0.0168854799121618 -0.0640992522239685 -0.0541866086423397 -0.0435805581510067 -0.0502024814486504 -0.0659844949841499 -0.0759089738130570 -0.0593432262539864 0.0169647578150034 -0.0283404774963856 -0.0419644042849541 -0.0479785837233067 -0.0114201456308365 -0.0484385043382645 -0.0600019022822380 -0.0771428942680359 -0.0705838352441788 -0.0585000738501549 0.0172141604125500 -0.100599966943264 0.0302993617951870 0.0729936882853508 -0.0283186957240105 -0.0306788198649883 -0.0333408974111080 0.0422569774091244 0.121685281395912 0.00101491832174361 -0.110837839543819 0.0246050991117954 0.0459351725876331 0.0374202169477940 0.0662164017558098 0.0770525261759758 -0.0388242416083813 -0.00501558370888233 -0.0463665276765823 -0.0501384437084198 -0.0267395582050085 -0.105577036738396 0.161994367837906 0.0286588743329048 -0.0747577250003815 4.60799783468246e-05 0.112262383103371 -0.0277176033705473 -0.0330380909144878 -0.0841841623187065 -0.110999189317226 -0.0136497709900141 -0.0542369335889816 0.0168221164494753 -0.0149067137390375 -0.0204871334135532 0.0125776110216975 -0.0545061379671097 0.113169714808464 -0.0141427740454674 -0.0220138169825077 0.00240557780489326 -0.00198129960335791 -0.0460180714726448 0.00329398945905268 -0.0622820444405079 0.0462026298046112 0.0652444064617157 0.0732086449861527 -0.0112397456541657 0.00490385061129928 -0.0141672650352120 -0.132750049233437 -0.000333116506226361 0.00426662387326360 -0.0355110242962837 -0.0743889138102531 -0.100511334836483 -0.0383681915700436 0.0744905918836594 0.0871567130088806 0.0310402456671000 0.000610278046224266 -0.00309683033265173 0.0645132064819336 0.000733443244826049 0.00409295270219445 -0.0376407951116562 -0.0266808271408081 -0.0743491053581238 -6.18994599790312e-05 -0.0822269022464752 0.0164820961654186 -0.0486812926828861 -0.0824598968029022 0.0947039797902107 0.0287806820124388 -0.0117614082992077 0.0209719706326723 0.0580572746694088 -0.0177204515784979 -0.0181063190102577 -0.0234277360141277 0.000237537213251926 0.0338182300329208 0.113926395773888 0.0707768723368645 0.0717966780066490 0.0480511039495468 0.0545995645225048 -0.0106933386996388 0.0939915925264359 0.125629663467407 0.0236979108303785 -0.0313581675291061 -0.0494380034506321 0.0853022709488869 0.101076446473598 -0.0685060471296310 -0.0788400024175644 -0.0195561591535807 0.0506017059087753 0.0262170657515526 -0.118608638644218 -0.0450138896703720 -0.142874211072922 0.00758054619655013 0.00211910158395767 0.00590751785784960 0.0271908678114414 0.0641129761934280 0.0499188117682934 -0.00160392501857132 -0.0397576354444027 -0.0551690384745598 0.0111806560307741 0.122952803969383 0.0224179867655039 -0.0297053437680006 -0.0292453691363335 0.0263329446315765 -0.0468969121575356 -0.0615279413759708 -0.0191898513585329 -0.00395037513226271 -0.0284180138260126 -0.0474865548312664 0.0579088479280472 0.0420808494091034 -0.0428479090332985 -0.0566820763051510 0.146390959620476 0.169150725007057 0.0942913740873337 -0.0713892057538033 -0.0513303130865097 0.0191005021333694 0.0144362887367606 0.0537415556609631 -0.00646995054557920 0.0919944494962692 0.0188373643904924 0.0509303845465183 -0.0530363135039806 -0.0499241761863232 0.0463711060583591 -0.0107391988858581 -0.0134024601429701 0.0447732396423817 -0.0986126437783241 0.0309265591204166 0.0418479107320309 0.00419284310191870 -0.0541023239493370 -0.0455702356994152 -0.126024439930916 -0.0534903630614281 -0.0916462093591690 -0.0119077032431960 0.0202938243746758 0.0152706187218428 -0.00140705495141447 0.0125862248241901 0.0511079579591751 0.0702970623970032 -0.0196473337709904 -0.0157658588141203 0.0144453905522823 0.0894012749195099 0.0672636106610298 -0.112512245774269 0.0531362704932690 0.0287202317267656 0.104806996881962 -0.0551031865179539 -0.0802059844136238 0.00536184757947922 -0.125873520970345 0.0133149893954396 0.0279346071183682 -0.0392839424312115 0.0180460326373577 -0.0107183419167995 0.0128971561789513 0.0221054907888174 -0.00905878096818924 0 0 0 0 0 0 0 0 0 0 0 0 0 0 0 0 0 0 0 0 0 0 0 0 0 0 0 0 0 0 0 0 0 0 0 0 0 0 0 0 0 0 0 0 0 0 0 0 0 0 0 0 0 0 0 0 0 0 0 0 0 0 0 0 0 0 0 0 0 0 0 0 0 0 0 0 0 0 0 0 0 0 0 0 0 0 0 0 0 0 0 0 0 0 0 0 0 0 0 0 0 0 0 0 0 0 0 0 0 0 0 0 0 0 0 0 0 0 0 0 0 0 0 0 0 0 0 0 0 0 0 0 0 0 0 0 0 0 0 0 0 0 0 0 0 0 0 0 0 0 0 0 0 0 0 0 0 0 0 0 0 0 0 0 0 0 0 0 0 0 0 0 0 0 0 0 0 0 0 0 0 0 0 0 0 0 0 0 0 0 0 0 0 0 0 0 0 0 0 0 0 0 0 0 0 0 0 0 0 0 0 0 0 0 0 0 0 0 0 0 0 0 0 0 0 0 0 0 0 0 0 0 0 0 0 0 0 0 0 0 0 0 0 0 0 0 0 0 0 0 0 0 0 0 0 0 0 0 0 0 0 0 0 0 0 0 0 0 0 0 0 0 0 0 0 0 0 0 0 0 0 0 0 0 0 0 0 0 0 0 0 0 0 0 0 0 0 0 0 0 0 0 0 0 0 0 0 0 0 0 0 0 0 0 0 0 0 0 0 0 0 0 0 0 0 0 0 0 0 0 0 0 0 0 0 0 0 0 0 0 0 0 0 0 0 0 0 0 0 0 0 0 0 0 0 0 0 0 0 0 0 0 0 0 0 0 0 0 0 0 0 0 0 0 0 0 0 0 0 0 0 0 0 0 0 0 0 0 0 0 0 0 0 0 0 0 0 0 0 0 0 0 0 0 0 0 0 0 0 0 0 0 0 0 0 0 0 0 0 0 0 0 0 0 0 0 0 0 0 0 0 0 0 0 0 0 0 0 0 0 0 0 0 0 0 0 0 0 0 0 0 0 0 0 0 0 0 0 0 0 0 0 0 0 0 0 0 0 0 0 0 0 0 0 0 0 0 0 0 0 0 0 0 0 0 0 0 0 0 0 0 0 0 0 0 0 0 0 0 0 0 0 0 0 0 0 0 0 0 0 0 0