-0.0337882526218891 -0.0269154086709023 -0.0108431493863463 0.00581582542508841 -0.0260322224348784 -0.0133582865819335 0.00581583892926574 -0.00621825130656362 0.0148503761738539 -0.00776993529871106 -0.00725788809359074 -0.00340267666615546 -0.0148440441116691 -0.000663704529870302 -0.00793781038373709 0.00858170352876186 -0.00752614717930555 0.0131895784288645 0.0217364653944969 0.0176229272037745 0.0112904068082571 0.0100344689562917 0.0242148377001286 0.00615219259634614 0.0249750986695290 0.0254240632057190 0.0363202728331089 0.0207154899835587 0.00442365417256951 -0.00699356338009238 0.00552394473925233 0.00693305116146803 0.0122738070785999 0.0311392340809107 0.0399406366050243 0.0312632806599140 0.0377469919621944 0.0466992147266865 0.0470725595951080 0.0470242351293564 0.0241553522646427 0.0422427207231522 0.0250316783785820 0.0412957333028317 0.0158948712050915 0.00864187162369490 0.0350160934031010 0.0139371976256371 0.0224838387221098 -0.0134856756776571 0.0431878492236137 0.0112955560907722 0.0101027777418494 -0.0179933663457632 -0.00332549028098583 -0.0142341181635857 -0.0441843569278717 -0.0253707207739353 -0.0157760083675385 -0.0141589967533946 -0.000958176562562585 -0.0264712907373905 -0.0247031804174185 -0.0425695255398750 -0.0512075498700142 -0.0392132438719273 -0.0438678711652756 -0.0302529465407133 -0.0372191928327084 -0.0532163307070732 -0.0725855976343155 -0.0680627971887589 -0.0636544302105904 -0.0495687127113342 -0.0740364566445351 -0.0685920119285584 -0.0522237718105316 -0.0176459420472384 -0.00830172654241324 0.00243408023379743 -0.00681911362335086 0.0239063333719969 -0.000749421305954456 0.00675267353653908 -0.00672280881553888 -0.00798223353922367 0.0205131638795137 0.0353237353265286 0.0538567602634430 0.0277978368103504 0.0183624494820833 0.0320906154811382 -0.00403711944818497 0.0258396640419960 0.0422711633145809 0.0313505269587040 0.0262420196086168 0.0540707074105740 0.0693975910544395 0.0786512345075607 0.0588235631585121 0.0356118939816952 0.0446020476520062 0.0304152909666300 0.0439327098429203 0.0356435477733612 0.0221555158495903 0.0324221290647984 -0.00887014716863632 0.000527413503732532 -0.0330645442008972 -0.0400786548852921 -0.0371094606816769 -0.0168381668627262 -0.0216162744909525 -0.0161314755678177 -0.0175587367266417 -0.0245592650026083 -0.0126050943508744 -0.0493234954774380 -0.0422898605465889 -0.00615067174658179 -0.0159717164933682 -0.0164211485534906 -0.0458649396896362 -0.0190415419638157 -0.0359341576695442 -0.0378092378377914 -0.0150209628045559 -0.0354249961674213 -0.0462052263319492 -0.0455072149634361 -0.0208943765610456 0.00841496977955103 0.0439618788659573 0.0309101156890392 0.0145010892301798 -0.000430806539952755 -0.0282514337450266 -0.00648165261372924 -0.0336681529879570 0.00455853529274464 0.0262539088726044 0.0330738052725792 0.0588936768472195 0.0365928523242474 0.0161541271954775 0.0199293401092291 -0.0439843349158764 -0.0174810290336609 -0.00527880480512977 -0.00456947693601251 0.0282911602407694 0.0400345288217068 0.0234642513096333 -0.0137642789632082 -0.0298769809305668 -0.0590857975184917 -0.0253514144569635 -0.0351854860782623 -0.0200667865574360 0.0144734540954232 0.0108214654028416 0.0324092842638493 -0.00651990203186870 -0.00346226524561644 -0.0200169477611780 -0.0274131763726473 -0.00706783216446638 -0.00416163727641106 0.0219422616064549 0.0250247940421104 0.0222644601017237 0.0217911861836910 -0.0253924764692783 -0.0188968069851398 -0.0363740622997284 -0.0192375052720308 -0.00169869582168758 0.0101285576820374 -0.00765227526426315 0.00624005077406764 0.00204646075144410 0.000156845911988057 -0.0271486323326826 -0.0421162173151970 -0.0305291712284088 -0.0177794415503740 0.0157237593084574 0.0209201443940401 0.0135735357180238 0.0418882668018341 0.0414759032428265 0.0126956235617399 0.00509259430691600 0.0151719627901912 0.0169801004230976 0.0444565601646900 0.0385124385356903 0.0299040079116821 0.0225479453802109 0.0409399531781673 0.00210077222436667 0.0118137905374169 0.00678680557757616 0.0197282675653696 0.0199602581560612 0.0296479742974043 0.0251293200999498 0.0369727946817875 0.0119054801762104 0.0254014879465103 -0.00180560234002769 0.0154180601239204 0.0164385624229908 0.0425119884312153 0.0178534295409918 0.00795634929090738 -0.000965532555710524 0.00436848541721702 -0.0662931427359581 -0.0580055750906467 -0.0514674782752991 -0.0619812980294228 -0.0330947674810886 -0.00304375751875341 0.00856505241245031 0.0333103500306606 0.0349034667015076 -0.0117730097845197 -0.0399051755666733 -0.0359167009592056 -0.00798036716878414 0.000317832455039024 0.00400886870920658 0.0278737936168909 -0.00222713989205658 -0.00964376702904701 0.00742280483245850 -0.0225448179990053 0.00174755137413740 -0.0193513296544552 0.0380568616092205 0.0303191188722849 0.0377513878047466 0.0529311895370483 0.0335629582405090 0.0277505870908499 -0.00280488142743707 0.0118028046563268 -0.0246181674301624 0.0140706691890955 0.0106201367452741 0.00733021693304181 0.0352465957403183 0.00683022057637572 0.0138189764693379 -0.00152868998702616 -0.0185808911919594 -0.00673551578074694 -0.0301362127065659 -0.00988308154046536 0.0124483117833734 0.0102442493662238 0.0116209583356977 0.0202402714639902 -0.0152443470433354 0.00925619620829821 -0.0322156064212322 -0.0416548773646355 -0.0101238228380680 0.0206934809684753 0.0160544756799936 0.0171876717358828 0.0148645834997296 0.0143466042354703 0.00636338582262397 -0.0324113368988037 -0.0251589920371771 -0.0173557791858912 -0.00208769948221743 -0.00122683169320226 0.0111280996352434 0.00931692495942116 0.0281720981001854 -0.00313088973052800 0.0199007485061884 -0.0201825331896544 0.0170209966599941 0.0287701766937971 0.0214100666344166 0.0384657904505730 0.0521876402199268 0.0348607078194618 0.0112224007025361 0.0216948296874762 0.0136679168790579 0.0125797474756837 0.0201314445585012 0.0362361855804920 0.0225312300026417 0.0216393377631903 -0.00636074040085077 -0.00899235997349024 -0.0204445142298937 -0.0501622185111046 -0.0192473437637091 -0.00843868963420391 -0.0194053314626217 -0.0260825939476490 -0.00122432305943221 0.00243578106164932 0.00110354204662144 -0.0198222715407610 -0.0287199746817350 -0.0425790399312973 -0.0143133113160729 -0.0113034872338176 -0.00853902660310268 0.00317188701592386 -0.0224584229290485 -0.0467524863779545 -0.0379386171698570 -0.0103343687951565 -0.00616343179717660 0.00286778248846531 -0.00663380511105061 0.0116465417668223 0.0404601283371449 0.0164230167865753 -0.0165109299123287 -0.0226850099861622 -0.00958893727511168 -0.0269634872674942 0.0161444675177336 0.0203774664551020 0.0528272800147533 0.0239883530884981 0.0305965822190046 -0.00500681949779391 -0.0129442987963557 -0.00354917859658599 0.00716833304613829 0.0317685455083847 0.0132514713332057 0.0255604684352875 0.0469978637993336 0.0417005345225334 0.0548879913985729 0.0195595100522041 -0.0123047912493348 0.00602002954110503 -0.0203646179288626 -0.00378102995455265 -0.00501908967271447 -0.0192433614283800 0.0159952547401190 0.0171373989433050 -0.0185283645987511 0.00382870878092945 -0.0150674721226096 -0.0223021227866411 0.00157380301970989 -0.0144104817882180 -0.00195584958419204 0.00298707163892686 0.00194301875308156 -0.00503652915358543 -0.00500760553404689 -0.00836540665477514 -0.0193652901798487 0.0246787797659636 0.00832117442041636 -0.00875958800315857 0.0279909037053585 -0.00737282866612077 0.0168663207441568 0.0224709585309029 -0.0152114499360323 -0.000625710934400559 0.00136230769567192 -0.000539018365088850 0.00852300226688385 0.0196579601615667 -0.0185268446803093 0.00124689005315304 -0.00560936564579606 -0.0162328835576773 0.00568772619590163 0.0149766365066171 -0.00589710567146540 -0.0197762455791235 -0.0287868585437536 -0.0221544411033392 -0.0264241900295019 -0.0493058376014233 -0.0155425202101469 -0.0231657419353724 -0.0603172630071640 -0.0641522556543350 -0.0498781464993954 -0.0575134605169296 -0.0485733337700367 -0.0367205962538719 -0.0475839152932167 -0.0168280117213726 0.0221246667206287 0.0168645624071360 0.00774448597803712 0.00219109025783837 0.00713544059544802 -0.00756958127021790 -0.00210003438405693 -0.00216267467476428 0.00369379692710936 -0.00295010139234364 -0.00403431337326765 -0.0101641211658716 0.0211449321359396 0.0100144566968083 0.0112728159874678 0.0119524002075195 0.0463751591742039 0.0428070127964020 0.0455271489918232 0.0417573638260365 0.0694840624928474 0.0198033601045609 0.00910548865795136 0.00677426345646381 0.0232231952250004 0.0364531911909580 -0.00488122226670384 -0.000675495655741543 -0.0123597513884306 -0.0287926662713289 -0.0162838678807020 -0.0521368645131588 -0.0394223816692829 -0.0202745664864779 -0.0515628755092621 -0.0301465503871441 0.0160173736512661 -0.00307186041027308 -0.0176396053284407 -0.0399221517145634 -0.0165208373218775 0.00291561847552657 -0.0131770297884941 0.000874310790095478 0.0452475771307945 0.0144219901412725 0.00187072542030364 0.0217722021043301 -0.000826490111649036 -0.00341144087724388 -0.00678931036964059 -0.00411024875938892 0.00663757743313909 0.00895759556442499 0.0163721665740013 0.0258453525602818 0.0319107137620449 0.0255768708884716 0.0107218241319060 -0.00361847598105669 0.00840625911951065 0.0255935546010733 0.0439708903431892 -0.00106434687040746 0.0163240898400545 -0.00788804795593023 -0.0239527840167284 -0.0423792079091072 -0.0733906477689743 -0.0661721229553223 -0.0427924320101738 -0.0300643146038055 -0.0426212735474110 -0.0270903371274471 -0.0186120271682739 0.00834598299115896 -0.0296087376773357 -0.0364046059548855 -0.0289058312773705 -0.0314593724906445 -0.0257751978933811 -0.0133133456110954 -0.0123749980702996 -0.0106147257611156 -0.00354292173869908 -0.0151792261749506 0.0200889967381954 0.00479948893189430 -0.00356711400672793 0.0118882060050964 0.0359065011143684 0.0341805480420589 0.0431844182312489 0.0170862432569265 0.00265886331908405 0.0142888603731990 0.00750018097460270 0.0275902859866619 0.0497095175087452 0.0416835732758045 0.0449716672301292 0.0349300131201744 0.00983184948563576 0.00980720669031143 0.00208313786424696 -0.0190037935972214 -0.0295699220150709 -0.0235396772623062 0.000144362173159607 0.0334678478538990 0.00891104992479086 -0.00660292850807309 0.00786483474075794 -0.0349474959075451 0.00627138791605830 -0.00653732288628817 0.0307571757584810 0.0267594866454601 0.0259236376732588 0.0297230351716280 0.0258502252399921 0.0266659073531628 0.0255491677671671 0.0270150769501925 0.00954356230795384 0.0325301066040993 0.0153056690469384 0.0145306251943111 -0.00347192073240876 0.0179038699716330 -0.00900572352111340 -0.00167596153914928 0.00899980403482914 -0.0358008705079556 -0.0204184036701918 -0.0114831142127514 0.0144933257251978 0.0123227145522833 0.0270707849413157 0.0124637279659510 -0.00907697901129723 -0.0152162117883563 -0.0490314103662968 -0.0339209102094173 -0.0598714798688889 0.000180744027602486 0.00750869000330567 0.0408664308488369 0.00709630595520139 0.0248133558779955 -0.00779076991602778 -0.0279305409640074 0.00475569302216172 0.00403720838949084 0.0278185456991196 0.0304880365729332 0.0350871644914150 0.0517167411744595 0.0458289422094822 0.000441210693679750 0.0257780384272337 -0.00626598438248038 -0.0147114675492048 0.00163253152277321 0.0213221702724695 -0.00328923924826086 0.0345986112952232 0.0256132744252682 0.0189399365335703 0.0332235395908356 -0.00322977593168616 -0.0297277346253395 -0.00825603399425745 -0.00449689244851470 0.0186234749853611 0.0177904590964317 0.0184407178312540 -0.00368902203626931 -0.0199951212853193 -0.0454015098512173 -0.0474266149103642 -0.0413124635815620 -0.0323188267648220 -0.0305616408586502 -0.0333422236144543 -0.0550791732966900 -0.0580397471785545 -0.0634387135505676 -0.0544021949172020 -0.0438382215797901 -0.0207311958074570 0.000927362532820553 0.0327772982418537 0.00356200523674488 0.0168890245258808 0.00393811892718077 0.00571538927033544 -0.0184159856289625 -0.000650319270789623 0.00625483226031065 0.00957173295319080 0.0257582347840071 0.0183302853256464 0.0215356666594744 0.00725656980648637 0.0150762703269720 -0.0134660303592682 0.0133683448657393 0.0264794025570154 0.0133230937644839 0.0263464543968439 0.0114100249484181 0.0535670556128025 0.0348805263638496 0.0187699962407351 0.00723605416715145 0.0178694576025009 -0.0156313423067331 -0.00140393839683384 0.0485633276402950 0.00966627057641745 -0.00721879629418254 -0.0138201368972659 -0.0267302803695202 -0.0335915796458721 -0.0588003955781460 -0.0303077157586813 -0.0556927174329758 -0.00628297775983810 0.00164086173754185 -0.00427546957507730 -0.00828221160918474 -0.00393082248046994 -0.0388450212776661 -0.0158682819455862 0.00352765922434628 0.0405551642179489 0.0186590533703566 0.0346287265419960 -0.00325966719537973 0.0194365214556456 0.0386711731553078 -0.0136732095852494 -0.0112682702019811 -0.0130609320476651 0.00283089210279286 -0.0130269443616271 -0.0227735172957182 0.0154629889875650 0.00942834652960300 -0.00366420624777675 -0.00993873551487923 -0.00655254768207669 0.00218129041604698 -0.00776496808975935 0.0121652549132705 0.0223519708961248 0.00733811734244227 0.0123947178944945 0.00767309311777353 -0.0142710311338305 -0.00355471111834049 0.00768167618662119 0.0192219913005829 0.0253585446625948 0.0417938828468323 0.0285311099141836 0.0329254418611527 0.0133442422375083 0.0121715851128101 0.0295601002871990 0.0368763655424118 0.0435995496809483 0.0195682942867279 0.0310911443084478 0.0296097379177809 0.0420453920960426 0.0544370114803314 0.0198159385472536 0.00342167611233890 -0.0118944132700562 -0.0260467883199453 0.00315001280978322 0.00337209133431315 -0.000475779874250293 0.0202365256845951 -0.0171368662267923 0.00334201427176595 -0.0231103282421827 -0.0333448760211468 -0.0105790421366692 -0.0177462678402662 -0.00109082565177232 -0.0116274664178491 0.0105565870180726 0.0149649456143379 0.00190046906936914 -0.0403403118252754 -0.0512950867414475 -0.0600151568651199 -0.0421183891594410 -0.00166246131993830 -0.0287372004240751 -0.0157040301710367 -0.0133611466735601 -0.0112873287871480 -0.0113845458254218 -0.0336482413113117 -0.0301685277372599 -0.0164819154888392 0.0263895932585001 -0.0137253440916538 -0.00979105290025473 0.0290050394833088 0.0338642857968807 0.0250329896807671 0.00905127450823784 -0.0171012263745070 -0.00690843304619193 0.0215105973184109 0.0218275301158428 0.0298658553510904 0.000117073985165916 0.0150874443352222 0.00122260861098766 0.0136856893077493 -0.00257259560748935 -0.000266920338617638 0.0231139883399010 0.0216717366129160 0.0430076196789742 0.0352552644908428 0.00768580753356218 0.0139990001916885 0.0135654462501407 -0.0185998026281595 -0.0131200533360243 0.00777597026899457 -0.00367468432523310 -0.00575667759403586 -0.00282363034784794 -0.000433983979746699 -0.0168488398194313 -0.0332309380173683 -0.0408885255455971 -0.0355459712445736 -0.0110928397625685 0.0221006255596876 0.0177524909377098 0.00335752661339939 -0.00602085469290614 -0.0137005103752017 -0.0180541984736919 0.00732248043641448 0.0150618823245168 0.00312417396344245 -0.00819179136306047 0.00221775611862540 0.0263610668480396 0.0124439280480146 -0.0333969853818417 -0.0101086944341660 0.0275248344987631 0.0247496552765369 0.0224867239594460 0.0141888456419110 0.00868966151028872 0.0318011417984962 -0.0171956140547991 -0.0232425015419722 -0.0313726589083672 -0.0109279341995716 -0.00560284405946732 -0.0389831699430943 0.00528415711596608 -0.0469198971986771 -0.0474649369716644 -0.0675923600792885 -0.0434507317841053 -0.0265706926584244 -0.0183652639389038 -0.00932428520172834 -0.00381920789368451 0.00483407592400909 -0.00436735432595015 -0.0209821183234453 -0.00545730162411928 0.0232554972171783 -0.00665105879306793 -0.00695839291438460 -0.0151911908760667 0.00521149532869458 0.0156185273081064 0.0247244909405708 0.0193141512572765 0.0389886610209942 0.0436177104711533 0.0375625416636467 0.0115579040721059 -0.0112239038571715 0.0327507220208645 0.0144030749797821 0.0291159395128489 -0.00417316239327192 0.00690837297588587 0.0163419768214226 0.0199404861778021 -0.00552714150398970 -0.0110602304339409 0.0108745815232396 0.00784351024776697 -0.00385565776377916 -0.00126579799689353 -0.0238925963640213 -0.0377735234797001 -0.0305826310068369 -0.0153225176036358 -0.0211952347308397 -0.00919443555176258 -0.0219956319779158 -0.0154307223856449 -0.0571930818259716 -0.0797334834933281 -0.0718809887766838 -0.0141766741871834 -0.0383244268596172 -0.0233193598687649 0.0116235995665193 0.0125462990254164 -0.00315287080593407 -0.000140978372655809 -0.0212523806840181 -0.00203444017097354 0.0170677267014980 0.0208469294011593 0.0148563301190734 0.0223800148814917 0.0202504396438599 0.00124823534861207 0.0104935970157385 -0.00388118694536388 -0.00157360918819904 -0.0150856766849756 0.0102049233391881 0.00516293663531542 0.000422553712269291 0.00226266193203628 0.0270672403275967 0.0155241051688790 0.0167086645960808 0.0269902590662241 -0.00279830419458449 0.0207503214478493 0.0151954982429743 0.0190991293638945 0.00700635043904185 0.0260995253920555 0.0251149553805590 -0.0154192484915257 -0.0381835959851742 -0.0640967115759850 -0.0381385274231434 -0.0461223013699055 -0.0159281976521015 -0.0247220937162638 -0.0409631952643395 -0.0367174185812473 -0.0435842610895634 -0.0126159349456429 -0.0236448477953672 -0.00919046066701412 -0.000120337135740556 0.00494414661079645 0.00526940124109387 0.00947898160666227 0.0111212981864810 0.0246663466095924 0.0281513724476099 0.0114460289478302 -0.00336085958406329 -0.0165580268949270 0.0179258100688458 0.0163307283073664 -0.00149456900544465 0.0192995052784681 0.0289441253989935 0.0345632657408714 0.0217404663562775 0.0176272988319397 0.0242448076605797 0.0319916680455208 0.0221340954303741 0.0144153023138642 0.0166350230574608 0.0250346381217241 0.0158822350203991 0.0244766268879175 0.0471793189644814 0.0461976751685143 0.0402991138398647 0.0195570588111877 0.0308879148215055 0.0108689023181796 0.0399666056036949 0.0154195511713624 0.00371142942458391 0.00214857142418623 -0.00830477569252253 0.00598431844264269 0.00797640345990658 0.0160706583410501 0.0130889592692256 0.0220314003527164 -0.0245532114058733 -0.0138363949954510 -0.0276143811643124 -0.0308005418628454 0.00702442694455385 -0.00931159034371376 0.00755283841863275 0.00588414445519447 -0.00955167692154646 -0.0378698594868183 -0.0599856451153755 -0.0484427921473980 -0.0518161542713642 -0.00647927960380912 -0.00231010885909200 0.00427088979631662 -0.00416198605671525 -0.0401820093393326 -0.0293049365282059 -0.0261957179754972 -0.00245587551034987 0.00398067664355040 0.00195721047930419 0.000253115897066891 0.0298599842935801 0.00842695403844118 0.0117612127214670 0.0129854222759604 0.0280758738517761 0.0206425152719021 0.0351353324949741 0.0247149616479874 0.0457285866141319 0.0393004827201366 0.0158384349197149 0.0268706232309341 0.0119244903326035 0.0303161684423685 0.0303587168455124 0.0404246784746647 0.0214885268360376 0.00671421736478806 0.0290158595889807 0.0210855659097433 0.00364884920418263 -0.00516312243416905 -0.0117638679221272 -0.0359183996915817 -0.0402303524315357 -0.0306883025914431 -0.0279751103371382 -0.0346076861023903 -0.0388606414198875 -0.0413842089474201 -0.0536673851311207 -0.0631205141544342 -0.0674785077571869 -0.0551899373531342 -0.0205210950225592 -0.00499310810118914 0.0433746539056301 0.0149555914103985 -0.0145693421363831 -0.0184043049812317 -0.0187856294214726 -0.00288856681436300 0.000739186594728380 0.0107250455766916 0.000396946066757664 -0.00939388014376164 -0.0124494004994631 -0.00498619442805648 -0.00411799969151616 0.0187309794127941 0.0205625966191292 0.0277051385492086 0.0264310240745544 0.0152499219402671 0.0146553674712777 0.0182572603225708 0.0129495263099670 0.0273404605686665 0.0155775016173720 0.0109047098085284 -0.00543206604197621 -0.00845009926706553 -0.0138663910329342 0.000160902956849895 -0.0102020334452391 -0.00350058125331998 0.0213091429322958 -0.0204083528369665 -0.0503750927746296 -0.0699273496866226 -0.0591566935181618 -0.00867733545601368 0.0112871769815683 0.0255341175943613 0.00667974818497896 -0.0183099210262299 -0.00990307889878750 0.00427811034023762 -0.00604066858068109 0.0150201236829162 0.0227861758321524
0.0324807614088059 0.0370159223675728 0.0301916711032391 0.0167219527065754 0.0357252508401871 0.0357374772429466 0.0356911234557629 0.0193885099142790 0.0215082876384258 0.00674867630004883 -0.00491184089332819 0.0130589753389359 -0.0195588078349829 -0.00454165274277329 -0.0253811962902546 -0.00303285149857402 -0.0307374987751246 -0.0229480154812336 -0.0401085428893566 -0.0448123514652252 -0.0445188097655773 -0.0467425063252449 -0.0178491193801165 -0.00642502354457974 0.0163288861513138 -0.00494142482057214 -0.0259049665182829 -0.0385488793253899 -0.0589633546769619 -0.0626451000571251 -0.0229594577103853 -0.0139221539720893 0.0175008755177259 0.00941595714539290 0.0160440821200609 0.0229675322771072 -0.00631537148728967 -0.0166680477559567 -0.0238327775150538 0.00778834242373705 0.0182497873902321 0.0398451425135136 0.0387659296393395 0.0210762713104486 0.0256597623229027 0.0141491945832968 0.0180223006755114 0.00344818341545761 0.0127220870926976 0.00111259194090962 0.0195525381714106 0.0259875413030386 0.0544774048030376 0.0153670599684119 0.0182880256325007 0.0278361141681671 0.0150870382785797 0.0235836133360863 0.00470597483217716 0.0203096363693476 0.00365558755584061 0.0245472490787506 0.0251639541238546 0.0356844216585159 -0.0201897863298655 0.0291848089545965 0.0172044672071934 0.0111256167292595 0.0458555780351162 0.0175743456929922 0.0244990158826113 0.00118239468429238 0.0199317689985037 0.0281545780599117 0.0124263083562255 0.0145929958671331 -0.00725343637168407 0.00751203158870339 -0.0207425504922867 -0.0296928025782108 -0.0280632767826319 -0.0378585569560528 -0.0411744639277458 -0.0373984314501286 -0.0260854940861464 -0.0386237427592278 -0.0191722158342600 -0.0140639403834939 0.00808672513812780 -0.0227983742952347 0.00702204601839185 0.00130098324734718 -0.00753681780770421 0.00847553461790085 -0.0255919396877289 0.00510389730334282 0.0103905983269215 0.0171697996556759 0.00164575688540936 -0.0180838424712420 0.00696604419499636 -0.0230723619461060 -0.00550764333456755 -0.0280867982655764 -0.00654767220839858 0.0425845980644226 0.0345185510814190 0.0408347733318806 0.0275809708982706 0.0272231400012970 -0.000550360884517431 -0.0134245064109564 0.0278221238404512 0.00334309879690409 0.0387099012732506 0.0605227127671242 0.0363152399659157 0.0298560652881861 0.0246296115219593 0.0259419530630112 0.0421078875660896 0.0139433080330491 0.0181953068822622 0.0136605417355895 0.0437398478388786 0.0222861617803574 0.0122155435383320 0.0330636352300644 0.00613485602661967 -0.0226020589470863 -0.0582115761935711 -0.0545830093324184 -0.0283367633819580 0.0203989669680595 0.0223665684461594 0.0331416800618172 0.0343444012105465 0.0267937872558832 -0.00135141180362552 -0.0386392287909985 -0.0423822663724422 -0.0353256687521935 -0.0355506800115109 0.0227534249424934 0.0529208704829216 0.0535228773951530 0.0309148915112019 0.0338568761944771 -0.0308796837925911 -0.000174015440279618 -0.0199378710240126 -0.00846846774220467 0.0177621524780989 0.0380266718566418 0.0425928682088852 0.0247682668268681 0.0136313540861011 -0.0201264657080174 -0.0184250753372908 -0.0376179777085781 -0.0119794234633446 -0.00328926602378488 0.0659604594111443 0.0467557050287724 0.0123635968193412 0.0137804374098778 -0.0358043499290943 -0.0462170131504536 -0.0289847236126661 -0.00633217720314860 0.0266156587749720 0.0400996990501881 0.0174243040382862 0.0351869314908981 -0.00147926725912839 -0.0298683568835259 -0.0564567744731903 -0.0576416254043579 -0.0472535155713558 -0.0123338690027595 0.0335076898336411 0.0431499332189560 0.0449567027390003 -0.00453163543716073 -0.0135466381907463 -0.0728035271167755 -0.0615110248327255 -0.0213583707809448 0.00291561661288142 -0.00294024660252035 0.0314097441732883 0.0101307425647974 0.00883203372359276 -0.0336690656840801 -0.0333657413721085 -0.0612599886953831 -0.0577981956303120 -0.0250510629266500 0.0226292032748461 0.0664654970169067 0.0659370049834251 0.0221654251217842 -0.00208320794627070 -0.0207720026373863 -0.0340062342584133 -0.00415441533550620 0.0333307497203350 0.0431324206292629 0.0221182890236378 0.0167692508548498 0.0102786570787430 -0.0132300043478608 -0.0571718513965607 -0.0524740479886532 -0.0458791777491570 -0.0244667287915945 -0.0113654732704163 0.0573880672454834 0.0805732235312462 0.0231037456542254 0.0528516024351120 -0.0150772938504815 -0.0276524741202593 -0.0322542972862721 -0.000158164679305628 -0.0150296958163381 0.0274456497281790 0.0361375547945499 0.0251011401414871 0.00778546743094921 -0.00666794786229730 -0.0595802478492260 -0.0411588884890080 -0.00879816897213459 0.0257262215018272 0.0410554297268391 0.0622436627745628 0.0302881412208080 0.0209051668643951 -0.0181956980377436 -0.0114565044641495 -0.0133572546765208 -0.0183019768446684 0.00111244036816061 0.0369014963507652 0.0138108134269714 0.000883507949765772 0.00714589050039649 -0.0421436056494713 -0.0757311657071114 -0.0766982212662697 -0.0588266998529434 -0.0207563359290361 0.0245776828378439 0.0434609167277813 0.0240180194377899 0.0390107110142708 0.0286029782146215 0.0138228246942163 0.00806287955492735 0.000415789603721350 -0.0264597367495298 -0.0160660445690155 -0.000724604178685695 -0.00450640358030796 0.0191682558506727 0.0232926029711962 -0.0114485044032335 0.0104620745405555 -0.0359290987253189 -0.0576314628124237 -0.0534825809299946 -0.0486781485378742 -0.0246475934982300 -0.0129671031609178 -0.0283621232956648 -0.0140577647835016 -0.0153380148112774 -0.0132042551413178 -0.00904438085854054 -0.00335218780674040 0.0115713030099869 0.0168328061699867 0.0214626416563988 0.0383105352520943 0.0202262289822102 0.00341224018484354 -0.00166527437977493 0.0282538551837206 0.0187051948159933 0.0310909859836102 0.0316391065716744 0.00917853042483330 0.0239028576761484 -0.00113796745426953 -0.0246203932911158 -0.00325527973473072 -0.0214051138609648 0.0265269409865141 0.0104589574038982 0.0419530645012856 0.0361386202275753 0.0339360423386097 0.0140330074355006 0.00523912860080600 -0.0288676936179400 -0.00808426830917597 -0.0111601687967777 -0.0137735800817609 0.00207877648063004 0.0297432579100132 0.0196903198957443 0.00721717299893498 -0.0307677704840899 -0.0590336807072163 -0.0688203200697899 -0.0386766791343689 0.00607112376019359 0.00124008383136243 0.0165830552577972 0.0458677187561989 0.0644849389791489 0.0285154674202204 -0.0154695371165872 0.00887472927570343 0.0156039325520396 0.00758768338710070 0.00787561200559139 0.0199419576674700 0.0306702870875597 0.0118427481502295 0.0288370493799448 0.00180498394183815 -0.0288436952978373 -0.0309470128268003 -0.0295373629778624 -0.00783608295023441 0.0181451886892319 0.0222902130335569 0.0129927899688482 -0.00673589901998639 0.00684099365025759 -0.0180940218269825 0.00170109921600670 0.0234785862267017 0.0285177063196898 0.0246875733137131 -0.000477814173791558 0.00648302258923650 0.00692227017134428 0.000227775584789924 -0.0183618888258934 -0.0336800925433636 -0.0379106737673283 -0.0119722671806812 0.00661378772929311 0.0104200495406985 -0.0284555945545435 -0.00807817745953798 -0.0227527432143688 -0.0751103907823563 -0.0233318973332644 0.00965915713459253 0.0164251998066902 0.0532014816999435 0.0376197285950184 0.0180502645671368 0.0115073211491108 -0.00198887637816370 -0.00315034645609558 -0.0120411757379770 0.00280867749825120 0.0299586933106184 0.0480452477931976 0.0605784952640533 0.0321728400886059 0.0184212941676378 0.00362829235382378 0.00158640940207988 -0.0589489638805389 -0.0290318205952644 -0.0182485897094011 0.0340933427214623 0.0354295410215855 0.0117678521201015 0.00831599347293377 0.0418565273284912 0.0146906590089202 0.0139002427458763 0.00474615441635251 -0.0551319494843483 -0.0181514713913202 -0.0299748610705137 -0.0487444363534451 -0.0385366082191467 -0.0442419461905956 -0.0102116260677576 0.000827740819659084 -0.0195378419011831 -0.0122735034674406 -0.0200700927525759 -0.0304653961211443 -0.0123530831187963 -0.00232086540199816 0.0322122797369957 0.0298300478607416 0.0204601790755987 0.0222979616373777 0.00941921770572662 -0.00644554104655981 0.0126663446426392 -0.0139512009918690 -0.0112177627161145 -0.0170127470046282 -0.0164489001035690 0.0268684253096581 0.0253338441252708 0.0445483513176441 0.0121822999790311 -0.0213738121092320 0.00669176084920764 -0.0133100310340524 0.00220016739331186 0.0180790722370148 0.00676083052530885 0.0279175899922848 0.00185407698154449 0.00403782445937395 -0.00297669041901827 -0.0143806245177984 -0.00787411071360111 -0.0160882044583559 0.00962943863123655 -0.0166040826588869 0.0290659666061401 0.00773836392909288 -4.78375295642763e-05 -0.0347514487802982 -0.0601464062929153 -0.0325751118361950 -0.0175274293869734 -0.00637015327811241 -0.0306968204677105 -0.0407803766429424 0.00150458258576691 -0.0110026570037007 0.0100522963330150 0.0148607427254319 0.0128135532140732 -0.00177815451752394 0.0306002423167229 0.0314917489886284 0.0195733942091465 0.0293308608233929 0.0457484982907772 0.0282538980245590 0.0103566665202379 0.0164052862673998 0.0116757722571492 0.0212954618036747 0.0286353901028633 -0.0167681071907282 -0.0134211927652359 -0.0303977485746145 -0.0145610598847270 -0.0391926281154156 -0.0366838313639164 -0.00832206849008799 0.0122076002880931 0.0494295097887516 0.0556571036577225 0.0295023396611214 0.0288555938750505 0.000166569050634280 -0.00616680085659027 -0.0376116521656513 -0.00852629728615284 -0.0115320235490799 -0.00953540857881308 -0.0286037288606167 -0.0239432025700808 -0.0359960533678532 -0.0486400201916695 -0.0536997877061367 -0.0349041521549225 -0.0392526015639305 -0.0274243094027042 -0.0139721781015396 0.0214064363390207 0.0225019473582506 0.0307811573147774 0.00872363243252039 0.0183338560163975 -0.000523423368576914 -0.00374004011973739 -0.0110297417268157 -0.00754874106496573 0.0331619083881378 0.0127194151282310 -0.00601862603798509 0.00302639394067228 0.0138738537207246 -0.0133288577198982 -0.0379393473267555 -0.0269863586872816 -0.0165570601820946 0.00352105614729226 -0.00324137136340141 0.0321296416223049 0.0271198526024818 0.0274644922465086 0.00208131200633943 -0.0209824219346046 -0.0100143365561962 0.00266968552023172 0.0221441369503737 0.0646973922848702 0.0514676719903946 0.0432165451347828 0.00863224547356367 -0.0148535268381238 -0.0486733429133892 -0.0483934246003628 -0.0343373306095600 0.00744238914921880 0.0200255066156387 0.00489232037216425 0.0202493555843830 0.0206256881356239 0.0181632190942764 -0.000216772576095536 -0.0308170653879643 -0.0149477617815137 -0.0103264069184661 -0.00104825198650360 0.0284163206815720 0.0345652475953102 0.0237408690154552 -0.00528913363814354 -0.0182055011391640 -0.0356463678181171 -0.0668441429734230 -0.0610622912645340 -0.0186657682061195 -0.0160734746605158 -0.0399565063416958 -0.00791366770863533 -0.0233973562717438 -0.0394277013838291 -0.0128170987591147 -0.0110954744741321 -0.0120046604424715 0.0194653067737818 0.0298329778015614 0.0316229425370693 0.0323961339890957 0.000644091633148491 -0.00901162996888161 -0.0119407745078206 -0.00192722689826041 -0.0108596906065941 0.00606759404763579 0.0254541859030724 0.0275437980890274 1.46868787851417e-05 -0.0148909520357847 -0.0339841991662979 -0.0165132824331522 -0.00612983154132962 5.11181169713382e-05 0.0296651069074869 0.0291010588407516 0.0637715831398964 0.0307637583464384 0.0249422304332256 -0.00246557919308543 -0.0209703445434570 -0.0175335984677076 -0.0311547610908747 -0.0178978517651558 -0.00608385493978858 0.0436928905546665 0.0183556005358696 0.0164281427860260 -0.0226878169924021 -0.0542475469410419 -0.0661698430776596 -0.0470571070909500 -0.0228654369711876 -0.00333473365753889 0.0430099554359913 0.0437247194349766 0.0367523878812790 0.00985245592892170 -0.0225884336978197 -0.0413501895964146 -0.0169855765998364 0.00123476178850979 0.0275734551250935 0.00561663927510381 0.00852412264794111 -0.00335002271458507 0.00224554282613099 -0.0157127398997545 -0.0120722698047757 0.00810201093554497 -0.00848970469087362 0.0272168293595314 0.00891011487692595 0.0196552034467459 0.0303198955953121 0.0152899976819754 0.00661337608471513 -0.0105311498045921 -0.00985165964812040 -0.0225023925304413 -0.0104592861607671 0.0134002463892102 0.0186462420970202 0.0100370598956943 0.00614058179780841 0.00452065467834473 -0.0296649076044559 -0.0314541272819042 -0.00112652604002506 0.00961378309875727 0.0106455702334642 0.0252156704664230 0.0172373410314322 0.00820999778807163 -0.0287996977567673 -0.0542669482529163 -0.0472245253622532 -0.0189524013549089 0.00227621546946466 0.0369344577193260 0.0134445931762457 0.0126446392387152 -0.00135982804931700 -0.0321432277560234 -0.0172031633555889 -0.0168964043259621 -0.0127668567001820 0.0214384142309427 0.0261047799140215 0.0417462252080441 0.0432099252939224 0.0214460771530867 0.0146500831469893 -0.0352062620222569 -0.0227244067937136 -0.0149852745234966 0.0140391914173961 0.00744350394234061 0.000894656986929476 0.000563011504709721 -0.00265261693857610 -0.0653582587838173 -0.0657161772251129 -0.101065874099731 -0.0474686138331890 -0.0356460511684418 -0.0190616417676210 0.00569175835698843 0.0145367449149489 -0.00621361425146461 -0.00169904902577400 0.00801722705364227 0.0164974573999643 0.0186112709343433 0.0161042436957359 0.0122070992365479 0.0192510429769754 0.0433528944849968 0.0217897444963455 0.0153279807418585 -0.0105104735121131 -0.0385681428015232 -0.0532827638089657 -0.0400856025516987 -0.0234793592244387 0.0128198396414518 0.0257235467433929 0.0333571098744869 0.0469039939343929 0.0235238838940859 0.00754702044650912 0.00907513592392206 0.0355896614491940 0.00888896267861128 0.0210773348808289 0.0336090847849846 0.00922016799449921 -0.00827676337212324 -0.00957196298986673 -0.0197477675974369 -0.0167647618800402 -0.0528718791902065 -0.0256729349493980 -0.0154634723439813 -0.00722218630835414 0.0234915111213923 0.0155349569395185 -0.00948628503829241 -0.0208514686673880 0.000158161114086397 -0.0140935378149152 0.00613654218614101 0.0226452369242907 0.00516931712627411 0.0371457673609257 0.0159928370267153 0.0212198477238417 -0.0299225617200136 -0.0278080012649298 -0.0521451011300087 -0.0278610475361347 -0.00743250129744411 -0.000498055480420589 0.00101123598869890 0.00736133102327585 -0.0220114309340715 -0.0127840302884579 -0.0207968410104513 0.00145561108365655 0.00556933367624879 -0.00183398078661412 0.00108172534964979 0.00476660765707493 0.0137602007016540 0.00151834194548428 0.00283333659172058 -0.0370155125856400 -0.0234809014946222 -0.0423654429614544 -0.00151027168612927 0.0275794751942158 0.00482668774202466 0.0127008836716414 0.000993183813989162 -0.0184970106929541 -0.0635656192898750 -0.0550902374088764 -0.0145046170800924 0.0124657219275832 0.0197159294039011 0.00923167821019888 0.0245713833719492 0.0129927825182676 0.00571996113285422 -0.00619852729141712 0.00233396957628429 -0.00817167852073908 0.00373812206089497 0.0273168534040451 0.0285064708441496 0.0256028156727552 0.0325869917869568 0.0231852717697620 0.00412382045760751 0.0210455507040024 0.0494942218065262 0.0476732216775417 0.0381344482302666 0.0191659443080425 -0.000540028093382716 0.0127363298088312 -0.0214803516864777 -0.0277172215282917 -0.00808284711092711 -0.0112070292234421 0.00241743866354227 0.00422421796247363 -0.00531764980405569 0.00271697365678847 -0.000819134700577706 0.0192035641521215 -0.00221109576523304 -0.00588180683553219 -0.0256983786821365 -0.00451212469488382 0.00347074074670672 -0.0285176970064640 -0.0396919287741184 -0.0278013553470373 -0.0440820343792439 -0.0281867198646069 -0.0269701369106770 -0.0233476385474205 -0.00376677629537880 -0.0247671846300364 -0.0121049787849188 -0.0130058089271188 -0.00619885046035051 0.0311316605657339 0.0426997244358063 0.0168273411691189 -0.00446378206834197 0.00393831124529243 -0.00263091991655529 0.00260183308273554 0.00641995109617710 0.00110737571958452 0.0152634093537927 0.0147822191938758 -0.00246981321834028 0.0180819910019636 0.0245497841387987 0.0319436676800251 0.0415469482541084 0.0126365656033158 0.00208427035249770 0.0160234849900007 0.0228231046348810 0.00525736762210727 0.0189277790486813 0.0181701648980379 0.0282331909984350 -0.0222779810428619 -0.00962359830737114 -0.0389861986041069 -0.0164391398429871 -0.0449574738740921 -0.0254615098237991 -0.0149432746693492 0.00490307761356235 0.0308107938617468 0.0331826582551003 0.0304511282593012 -0.0100317290052772 -0.00831005629152060 0.00755329104140401 0.0154727799817920 -0.00285474886186421 0.0219574067741632 0.00816195830702782 -0.00645829411223531 -0.0127933993935585 -0.00818617828190327 -0.00687616830691695 -0.0128623042255640 0.00393686071038246 -0.0242193117737770 0.00178825017064810 -0.00903497729450464 0.00196068338118494 0.00878132693469524 0.0202608965337276 0.0203398577868938 -0.0161053538322449 0.0140567049384117 -0.0109090022742748 -0.00305578345432878 0.0130678154528141 -0.0183268804103136 -0.00227972841821611 -0.00473279133439064 -0.0211070477962494 -0.0344595834612846 -0.0176411587744951 0.0143190771341324 0.0406425073742867 0.00941308028995991 -0.0146411741152406 -0.0154124693945050 -0.00390527513809502 -0.00942031573504210 0.0127335563302040 0.00122328859288245 0.00882052630186081 0.00938813202083111 0.0318859592080116 -0.00801193062216044 -0.0430946797132492 -0.0714526772499085 -0.0429607667028904 -0.0558733642101288 -0.0621105730533600 -0.0352638289332390 -0.0261864010244608 0.00174337823409587 0.00775550166144967 0.0118393646553159 -0.000114813214167953 0.0250912439078093 0.0161465033888817 0.000161511765327305 -0.0104071693494916 0.00927685573697090 -4.53356733487453e-05 0.0264443773776293 0.0294583477079868 0.00680612446740270 0.000812911021057516 0.00598476547747850 -0.00927384011447430 0.0339869707822800 0.0443794056773186 0.0188916176557541 0.0153804039582610 0.00674522062763572 0.0194416381418705 0.0113846510648727 0.0289239380508661 0.00956415012478828 0.00655337283387780 0.0219572968780994 -0.00303929788060486 0.00340730021707714 0.000275098806014285 -0.00697058858349919 -0.00971426162868738 -0.0139323743060231 -0.00810813531279564 0.0115067316219211 0.0299282241612673 0.0465813428163528 0.0613341182470322 0.0244248509407043 0.0316294766962528 -0.0126729663461447 -0.0377075001597405 -0.0234154835343361 -0.0300833210349083 -0.0262336004525423 -0.0122663695365191 0.000432727189036086 -0.0225454885512590 -0.0331432558596134 -0.0441257730126381 -0.0546149350702763 -0.0339782796800137 -0.0243501868098974 0.0102967107668519 0.0191546790301800 0.0229146834462881 0.000561888155061752 0.00697460770606995 -0.0140856746584177 0.0216954983770847 -0.00243874709121883 -0.00431882264092565 0.0214996449649334 0.00737260701134801 -0.0102978311479092 -0.00528615340590477 -0.00133968412410468 -0.00587196461856365 0.0162462256848812 0.0212936364114285 -0.00157669372856617 0.00953322649002075 0.0341156758368015 0.0406738668680191 0.0414531193673611 0.0283376537263393 -0.00204311660490930 0.000258988933637738 -0.0128934662789106 -0.00780648132786155 -0.0115612093359232 -0.00681303814053536 0.0142148919403553 0.0204003471881151 0.00331416865810752 -0.00245968345552683 -0.0273847319185734 -0.0276248268783093 -0.0514986552298069 -0.0215562190860510 0.0112391039729118 0.0291740447282791 0.0328182168304920 0.0174074098467827 -0.00958096701651812 -0.0274866688996553 -0.0537692569196224 -0.0444614477455616 -0.00916945282369852 0.0257951263338327 0.0128294257447124 0.0413644015789032 0.0176033694297075 0.00124650751240551 0.0134615600109100 0.0387551076710224 0.0296411886811256 0.0256023425608873 0.00707233743742108 0.0292462855577469 -0.00709126098081470 -0.00556661281734705 -0.0155519191175699 -0.00710908183827996 0.00198588776402175 -0.0150418169796467 0.00464725401252508 6.27523550065234e-05 0.0128140356391668 0.0125309657305479 0.0275872405618429 0.0279755797237158 -0.00411191862076521 -0.0228514559566975 -0.0218382123857737 0.00404709624126554 0.00798188149929047 0.00932908616960049 0.0371094346046448 0.0114862639456987 0.00354076898656786 -0.0320400707423687 -0.0716870427131653 -0.0725295022130013 -0.0721173584461212 -0.0539820082485676 -0.0124620348215103 -0.0175012294203043 -0.0230104103684425 -0.0343590676784515 -0.00691350363194943 -9.03204709175043e-05 -0.0270762722939253 0.0273766200989485
0.0365703627467155 0.0454448126256466 0.0193507149815559 -0.0135868275538087 0.00328005664050579 -0.0103853438049555 -0.0310029424726963 -0.0160013772547245 -0.00304959691129625 -0.0132307140156627 -0.0344342477619648 -0.0342504233121872 -0.0132485069334507 -0.00533258263021708 -0.0190722532570362 -0.00748697714880109 -0.0206077061593533 0.0274716615676880 -0.00693301530554891 -0.0115211261436343 -0.00809380225837231 0.00989785511046648 0.0262941867113113 0.000450584775535390 0.00764719909057021 0.00350262247957289 0.0178995169699192 0.00186008878517896 -0.00918595399707556 0.0140609182417393 0.0137245319783688 -0.0116614941507578 0.00566525571048260 -0.00420175865292549 -0.0181045439094305 -0.0106140784919262 -0.0184731800109148 0.0238677132874727 -0.00605623889714479 0.0232686642557383 0.0272266026586294 -0.0140280844643712 0.00741712981835008 -0.00186996499542147 0.0252947751432657 -0.00186118832789361 0.0203717909753323 0.0104169687256217 -0.0101313125342131 -0.0165280215442181 -0.0391583144664764 -0.0295634418725967 -0.0433169826865196 -0.0662613883614540 -0.0617270804941654 -0.0420030206441879 -0.0705875977873802 -0.00660883076488972 -0.00636978307738900 0.0389745794236660 0.0248440522700548 0.0227374359965324 0.0163402520120144 0.000298536557238549 0.00862084887921810 -0.00382918957620859 0.00449219020083547 0.0169079825282097 0.0305473040789366 0.0126132620498538 0.0221997611224651 0.00867983978241682 -0.0216211490333080 -0.0237156245857477 -0.0404629334807396 -0.0185858588665724 -0.00513779371976852 0.0159697681665421 0.00848472770303488 0.0251268241554499 0.0412693507969379 0.0260547157377005 0.0404318012297154 -0.00533060636371374 0.0187033861875534 0.00740926200523973 0.0136658344417810 0.0339974053204060 0.00785300135612488 -0.0111818183213472 -0.0225979816168547 -0.0472065433859825 -0.0348465517163277 -0.0519794113934040 -0.0616581253707409 -0.0521421767771244 -0.0318655446171761 -0.0129605457186699 0.0121560385450721 -0.00719363009557128 0.00633106892928481 0.00110082188621163 -0.00716317677870393 -0.0123008554801345 -0.00717128440737724 0.00180511956568807 0.0331967957317829 0.0300233233720064 0.0370887108147144 0.0167442057281733 0.0159216541796923 0.00441368808969855 0.000677615229506046 -0.0287043955177069 -0.00706389965489507 0.00242962129414082 -0.00116505054756999 -0.00962422788143158 0.00392313953489065 0.00920845288783312 0.0214318241924047 0.00613022549077869 -0.0151611566543579 0.0182026289403439 0.0214520562440157 0.0269594639539719 0.0318401195108891 0.0221006013453007 -0.0319099985063076 -0.00168391130864620 -0.0160714406520128 -0.00501884892582893 0.00450081145390868 0.00985020771622658 0.0325669348239899 0.00224287644959986 0.00808103103190661 -0.0181656610220671 -0.00680175097659230 -0.0436901226639748 -0.0126626323908567 -0.000266632327111438 0.0255238972604275 0.0472189374268055 0.0465796627104282 0.0194226205348969 0.000504570605698973 -0.00193234556354582 -0.0123941898345947 -0.0124397501349449 -0.00432128133252263 -0.000948315777350217 0.0204531941562891 0.00637455377727747 0.0160518269985914 -0.00739243067800999 -0.00541169475764036 -0.0227997563779354 -0.00164869881700724 0.0111455349251628 -0.0211616866290569 0.0193595513701439 0.0111394943669438 -0.0170834288001061 0.0209180675446987 -0.0123709561303258 -0.0404837951064110 -0.0225727017968893 -0.00283845537342131 0.0115922642871737 0.0535409674048424 0.0720844939351082 0.0392205864191055 0.0237482376396656 0.0176921095699072 0.0111486548557878 -0.00989781506359577 0.00776800420135260 0.00379411620087922 0.0324707850813866 0.0172876957803965 0.0260746646672487 -0.00971232634037733 -0.0250580143183470 -0.0493639782071114 -0.0204059444367886 0.00556172244250774 -0.00992629025131464 0.0117997080087662 0.0141398934647441 0.00919517502188683 0.0166099574416876 0.0321086421608925 -0.00263807573355734 0.00371222896501422 -0.00355535093694925 -0.00760513264685869 0.00955137796700001 -0.00584040954709053 0.0367532335221767 -0.0318137966096401 -0.0397551506757736 -0.0349902361631393 -0.0503822490572929 -0.0503991134464741 -0.00606585619971156 0.0144908176735044 0.0209899432957172 0.0275625158101320 0.0327531471848488 0.0301920566707850 0.0146299675107002 0.0150789320468903 0.00382757140323520 0.00528243836015463 0.0298368018120527 0.0270900353789330 0.0258060395717621 0.0157556179910898 -0.0219997204840183 -0.0333326831459999 -0.0465255267918110 -0.0325795412063599 -0.00474213762208819 0.00581387709826231 0.0204947777092457 0.0259403102099895 0.0446577891707420 0.0441851317882538 0.00514903431758285 0.0193006806075573 0.00167460110969841 -0.00292873568832874 0.0480201095342636 0.0429412275552750 0.0412004105746746 0.00628816336393356 -0.00616088788956404 -0.0125929610803723 -0.0400635190308094 -0.0318448506295681 -0.00553189311176539 -0.0360431857407093 -0.0567845627665520 -0.0249055102467537 -0.0118646686896682 0.00346500636078417 -0.0111096231266856 0.0153215629979968 0.00903672352433205 0.0194705780595541 0.0110761122778058 0.0184572283178568 0.00741370813921094 0.0227418858557940 -0.00429489370435476 0.0389497503638268 0.0299595855176449 0.00681321881711483 -0.0197599511593580 0.0307263210415840 -0.00531730055809021 -0.0209542661905289 -0.0500100590288639 -0.0479704923927784 -0.0275834631174803 -0.0277173984795809 -0.0593941099941731 -0.0351342260837555 -0.0272125992923975 -0.00356633053161204 0.00882729329168797 0.0252299662679434 0.0314154475927353 0.0572078004479408 0.0829058513045311 0.0329003259539604 0.0245527084916830 0.0207001529633999 0.000154200592078269 0.0111510520800948 -0.00134089135099202 -0.0115611348301172 -0.0212943926453590 -0.0434300042688847 -0.0394645407795906 -0.0434589982032776 -0.0373118557035923 -0.0835092067718506 -0.0183810945600271 -0.00490983901545405 0.00304782949388027 0.0192013010382652 0.0127273965626955 0.00498564401641488 0.0244124736636877 0.00341565068811178 0.0283010751008987 0.0294994581490755 0.0370116159319878 -0.00616750912740827 -0.00989326927810907 -0.0261347256600857 -0.0198573805391789 -0.0165578499436378 -0.0577677637338638 -0.0472526550292969 -0.0432466417551041 -0.0303296279162169 -0.00444627972319722 0.00203164317645133 -0.00355727644637227 0.00446014013141394 0.0114314313977957 0.0240224618464708 0.0246812850236893 0.0421374775469303 0.0709521174430847 0.0605528131127358 0.0242531951516867 0.0355345197021961 0.0365226082503796 0.0149901611730456 0.000246624520514160 -0.0424524955451489 -0.0411437600851059 -0.0418875478208065 -0.0364237688481808 -0.0315136350691319 -0.0208150409162045 -0.0343043245375156 -0.0348083004355431 -0.0448336042463779 -0.0260892156511545 -0.00845230557024479 0.0229364056140184 0.0167548693716526 -0.0148353930562735 0.0201778225600719 0.0140309520065784 0.0235853437334299 0.0157686360180378 -0.00522861164063215 0.0148769998922944 0.000930350448470563 0.0112411081790924 0.00410768715664744 -0.00364822219125927 -0.0216072499752045 -0.0503755062818527 -0.0181053280830383 -0.0320849567651749 -0.0144965844228864 -0.00409763865172863 -0.000747264362871647 0.00640294142067432 0.0142200328409672 0.0113586019724607 0.00823196396231651 0.0275830533355474 0.0305556729435921 0.0177085492759943 0.0232295077294111 0.00839348603039980 0.0199617035686970 0.0365297272801399 -0.0271812286227942 -0.0300808884203434 -0.0713638663291931 -0.0646947473287582 -0.0550570040941238 -0.0464826971292496 -0.00834938231855631 -0.0326351113617420 -0.0139661133289337 -0.0139529686421156 -0.0156587567180395 -0.0213507693260908 0.00188534008339047 0.0296627264469862 0.00669807801023126 0.0319296047091484 0.0443106740713120 0.0319871492683888 0.0186744146049023 0.00958670768886805 -0.000776001892518252 0.0102187348529696 0.00165608979295939 -0.00732270395383239 -0.0217842049896717 0.00147177954204381 0.00369501323439181 0.00589858926832676 0.0335725434124470 0.0387609489262104 0.0173776652663946 0.0190775394439697 0.0339526385068893 0.0172804240137339 0.0116932159289718 0.0256362576037645 0.0228840429335833 0.00503880670294166 0.0115948747843504 0.0244073811918497 0.0115602305158973 0.0180959217250347 0.00595028791576624 -0.0164032001048327 -0.0559449531137943 -0.0197480190545321 -0.0419571548700333 -0.0115775670856237 -0.000664125662297010 -0.00807465054094791 -0.0397195555269718 -0.0263027995824814 -0.00948744267225266 0.0103342207148671 0.00945129524916410 0.0275137238204479 0.0116888806223869 0.0173351466655731 0.0103287417441607 0.0354184545576572 0.0192778054624796 0.0238852202892303 0.0180376768112183 0.00406683795154095 -0.0407228581607342 -0.0188972521573305 0.00231994176283479 -0.00251897959969938 0.00422708364203572 -0.0226834230124950 -0.0214104577898979 -0.0205962620675564 0.000332644034642726 0.0107095306739211 0.00258645461872220 -0.00152181205339730 0.00157817534636706 0.0327233225107193 0.0372825302183628 0.0255168788135052 0.0266632940620184 0.0316353254020214 0.0104169854894280 0.0152860842645168 0.0192570537328720 -0.0259959064424038 -0.0349466167390347 -0.0148554928600788 -0.0382496640086174 -0.0638388991355896 -0.0274207293987274 -0.0384107045829296 -0.0206788964569569 -0.0176008958369494 -0.0174436923116446 0.00665775127708912 0.0199175067245960 0.0323503986001015 0.0443235896527767 0.0408486090600491 0.0403856933116913 0.0235724709928036 0.0218475665897131 0.00854588206857443 -0.0114657888188958 -0.0319803059101105 -0.0460364297032356 -0.0461791940033436 -0.0347054749727249 -0.0629108622670174 -0.0655437782406807 -0.0137905851006508 0.0117408232763410 0.0269897244870663 0.00276667298749089 0.00285235792398453 0.0278254225850105 0.0200273692607880 0.0119209745898843 0.00625183712691069 0.00181189610157162 0.00395917892456055 0.00719851255416870 0.0152208060026169 0.00424053147435188 -0.0159826502203941 -0.0389403700828552 -0.0497381985187531 -0.0494223088026047 -0.0718235224485397 -0.0380844138562679 -0.0425612367689610 -0.000669589207973331 -0.0235759243369102 0.00828856509178877 -0.0137785449624062 0.00882781296968460 0.00462257349863648 0.00955284945666790 0.0194311253726482 0.0158435050398111 0.0152258779853582 0.0113222533836961 0.0349786132574081 0.00183920795097947 0.0210240576416254 -0.0283036958426237 -0.0359440781176090 -0.0248220786452293 -0.00678634038195014 0.00461194897070527 0.0137804811820388 -0.0142830722033978 -0.0267663989216089 -0.00408943742513657 0.00935112405568361 0.00247947452589870 0.0274044014513493 0.0365530550479889 0.0392636470496655 0.0352718755602837 0.0172829553484917 0.000889997521881014 0.00515650864690542 -0.0189475547522306 -0.0445607751607895 -0.0736898705363274 -0.0235666222870350 -0.0407248809933662 -0.0493411086499691 -0.0420505553483963 -0.0182872731238604 -0.0224542710930109 -0.0171722639352083 0.000475134671432897 0.0125746484845877 0.0108984885737300 0.0420811846852303 0.0552535131573677 0.0542988628149033 0.0404010340571404 0.0255051031708717 0.00458763074129820 0.0117030804976821 -0.0252400599420071 -0.00533071672543883 -0.000675994495395571 0.00712657021358609 0.00275456672534347 -0.0230868551880121 -0.0400629267096520 -0.0293601434677839 -0.0241290312260389 -0.00857449322938919 -0.0218584183603525 0.00394211802631617 0.0397874750196934 0.0398758798837662 0.0398256368935108 0.0295601207762957 0.0396981276571751 0.0224906802177429 0.0206187423318625 0.0174467284232378 -0.00259972456842661 -0.00429192138835788 -0.0241441428661346 -0.0291521809995174 -0.0444047637283802 -0.0461035892367363 -0.0328759141266346 -0.0138866389170289 -0.0219351444393396 0.00757652753964067 0.0207497719675303 0.0135169550776482 0.0280337613075972 0.0127475829795003 0.0209610853344202 -0.00315830856561661 0.00743105076253414 0.0227733477950096 0.0100982552394271 0.0351327694952488 0.0386670045554638 0.0282707083970308 -0.00961930956691504 -0.0220749620348215 -0.0398941151797771 -0.0361792333424091 -0.0318056829273701 0.00696239061653614 0.00238566845655441 0.0140836294740438 0.0203756019473076 0.0168633125722408 0.0215208865702152 0.0131028713658452 -0.0110257184132934 0.00514923036098480 0.0107607766985893 0.0260380227118731 0.0113819446414709 0.0136267170310020 0.0216048490256071 -0.00893752928823233 0.0168445184826851 -0.00551197398453951 -0.00748837972059846 0.0182410888373852 -0.00435471395030618 -0.0100522600114346 -0.0110527332872152 -0.0208281148225069 -0.0194588862359524 -0.0409929864108563 -0.0186248868703842 -0.00894346553832293 -0.0359294749796391 0.00387500319629908 0.00999499484896660 0.00495069054886699 0.00943958479911089 0.0133190983906388 0.0231150873005390 0.0184798687696457 0.00125052791554481 0.0156370420008898 0.0241311844438314 0.0334805436432362 0.0332241915166378 0.0170571580529213 0.000624680251348764 -0.0227210372686386 0.0343421325087547 0.0453112609684467 0.0179036818444729 0.0250591523945332 0.00305273965932429 -0.0154469395056367 0.0194229073822498 -0.0194141343235970 -0.0555160678923130 -0.0648373067378998 -0.0900975093245506 -0.0648695304989815 -0.0599987618625164 -0.0443342141807079 -0.00750655261799693 -0.0214674547314644 -0.0139698181301355 0.00888839643448591 0.00979312602430582 0.0152400573715568 0.0239150635898113 0.0319298617541790 0.0560997277498245 0.0393958054482937 0.0297920331358910 0.0162168741226196 -0.00810166634619236 -0.0615747421979904 -0.0598455145955086 -0.0679565891623497 -0.0129936328157783 -0.0419824756681919 -0.0355727858841419 -0.0328244902193546 -0.0515979416668415 -0.000902549072634429 -0.00276904692873359 0.00178958487231284 0.00435644714161754 0.00713478215038776 0.0180829931050539 0.0156552493572235 0.0362669564783573 0.00956504233181477 0.00582041777670383 0.00585093023255467 -0.00905249360948801 -0.0512093231081963 -0.0213990584015846 -0.0496327020227909 -0.0345519557595253 -0.0415854454040527 -0.0672284364700317 -0.0510883778333664 -0.0273322146385908 -0.0283979531377554 0.0239452626556158 0.00975336413830519 0.0126961600035429 0.0343582294881344 0.0359073393046856 0.0291764978319407 0.0277257654815912 -0.0111648337915540 0.00615688087418675 0.0174818448722363 0.00944349169731140 0.0151471011340618 0.00408915756270289 -0.00246629794128239 -0.000820184708572924 -0.0368407592177391 -0.0318711809813976 -0.0341448523104191 -0.0364963151514530 -0.0120169343426824 -0.0113718835636973 0.0200872346758842 0.00757250608876348 0.0169102437794209 0.0184090118855238 0.00850731227546930 0.00625309301540256 0.00130608491599560 0.00215325132012367 0.00107590050902218 0.0296604000031948 -0.0106004923582077 0.000450478226412088 0.0136733781546354 -0.0122774168848991 -0.00523342238739133 0.0170048624277115 -0.0209608078002930 -0.00653370749205351 0.0151495635509491 0.000555762730073184 0.0198882184922695 0.00837363675236702 -0.0336119867861271 -0.0170853938907385 0.00399682298302650 -0.0123971924185753 0.0141218863427639 0.00660154502838850 -0.00126193428877741 0.00427031517028809 0.0463451892137528 0.0343044437468052 0.0219123847782612 0.0302794761955738 0.00103047059383243 0.0165635347366333 0.0211309362202883 0.0117487069219351 -0.00419870065525174 -0.0251486860215664 -0.0405817814171314 -0.0366717278957367 -0.0287399776279926 -0.0260541904717684 -0.00817905832082033 -0.00618138676509261 0.00436580739915371 0.00763800088316202 0.0411149561405182 0.0155463507398963 0.0143890175968409 0.0239379443228245 0.0117067694664001 0.0206119176000357 0.0276506673544645 0.0223235283046961 -0.00158520566765219 -0.00652847485616803 0.0174746681004763 0.0228668153285980 0.0126524725928903 0.00658742571249604 -0.00483571365475655 -0.0117333512753248 0.0196452438831329 0.00841847434639931 0.0247608553618193 0.0231966767460108 0.0263249073177576 0.0401295870542526 0.00821940880268812 -0.0123558528721333 -0.0241114888340235 -0.0126349385827780 0.000962852733209729 0.0226743761450052 0.0210799239575863 0.0325684994459152 0.0318976417183876 0.0370548330247402 0.0175024885684252 -0.000570860051084310 0.00664074951782823 -0.0211163349449635 0.00663986289873719 -0.00402530515566468 0.00287720374763012 0.0175075214356184 -0.00373902404680848 -0.00364656047895551 -0.0283646062016487 -0.0153432190418243 -0.0441244132816792 -0.0269378833472729 -0.00203898944891989 -0.0155808096751571 0.0189964342862368 0.00114043080247939 0.0259630959481001 0.0491781942546368 -0.0223648138344288 0.00710612162947655 0.0390222854912281 0.0104455621913075 0.0159761812537909 0.0351609811186791 0.0382536277174950 0.0370022095739841 0.0301991328597069 0.0214743129909039 -0.0118842516094446 0.00835405662655830 -0.0310561507940292 -0.0701909512281418 -0.00999273825436831 0.0228667091578245 0.0441011041402817 0.0324440486729145 0.0289871636778116 0.0443173088133335 0.0112714665010571 0.0125206662341952 -0.0115826148539782 0.0127180414274335 0.0232086088508368 0.0202769357711077 0.00361277116462588 0.00584418559446931 -0.0518689528107643 -0.0719981938600540 -0.0748258680105209 -0.0580620951950550 -0.0659789741039276 -0.0576851144433022 -0.0565788634121418 -0.0422323048114777 -0.0546921975910664 -0.00723889889195561 0.0235990975052118 0.00344954337924719 0.0247434992343187 0.0172390677034855 0.00932576134800911 0.0212691724300385 0.0265548843890429 0.0417647063732147 0.00695969117805362 0.00976447574794292 -0.0225353389978409 -0.0164029877632856 -0.0204085186123848 -0.0164246112108231 -0.0147563181817532 -0.0163498558104038 -0.0107037397101522 -0.0124462060630322 0.00404561869800091 0.0163250677287579 0.00377970212139189 0.0182524044066668 0.0221958681941032 0.0331009328365326 0.0282452832907438 0.0292524825781584 0.0412605702877045 0.0190589241683483 0.00917603168636560 0.000589666538871825 -0.0250643938779831 -0.0340249091386795 -0.0322704836726189 -0.0170474946498871 -0.00629473803564906 -0.0359025597572327 -0.0212926100939512 -0.0143699310719967 0.0195897985249758 0.0116953691467643 0.0226835031062365 0.00983462203294039 0.00834899954497814 -0.000921407830901444 -0.0483927689492703 -0.0669591277837753 -0.0788782835006714 -0.0450581274926662 -0.0556762777268887 -0.0352083481848240 -0.00334624596871436 0.00607229769229889 0.0140922991558909 0.0432015508413315 0.0376271344721317 0.0305251702666283 0.0241337902843952 0.0287516638636589 0.0190424825996161 0.00983926467597485 0.0124642653390765 -0.00254384824074805 0.0151119166985154 -0.0162790399044752 -0.0313371159136295 -0.0231767576187849 -0.0217496044933796 -0.0150193078443408 0.0242278594523668 0.0540441870689392 0.0329040586948395 0.0100652137771249 0.0178110226988792 0.0134869115427136 0.0142744705080986 0.00827514380216599 0.0156752392649651 0.0139869237318635 0.00500225042924285 0.0256699100136757 0.00982690975070000 0.0220742207020521 -0.0203136391937733 -0.000685026869177818 -0.0134110134094954 0.0146073065698147 -0.00577248912304640 0.00607570074498653 -0.00708994688466191 0.0131170591339469 -0.0126353744417429 -0.00457304483279586 -0.00584556069225073 -0.00633458606898785 -0.0216809101402760 -0.00569770671427250 0.0263011064380407 0.00267521990463138 0.0101173892617226 0.0103038828819990 0.0140943061560392 0.0142819089815021 0.0163455568253994 0.0205322895199060 0.0374915488064289 0.00555625045672059 0.0190348494797945 0.0155291985720396 0.00436703907325864 0.00444164732471108 -0.00276278774254024 -0.0147399213165045 -0.0196048878133297 0.000925458269193769 0.00621510250493884 0.0207547321915627 0.0299972929060459 0.0183279924094677 0.0145304966717958 -0.00362328696064651 -0.00434023980051279 0.00965270306915045 0.0176886618137360 0.0334050133824348 0.0300315506756306 0.0259504429996014 0.0381512269377708 0.0219205226749182 0.0159602630883455 -0.0199180599302053 -0.0569812953472137 -0.0543203651905060 -0.0406945347785950 -0.00941884424537420 -0.0212302561849356 -0.0312589816749096 -0.0195037182420492 -0.0359658189117909 -0.0138004096224904 0.0174066629260778 0.00160059321206063 0.00872540846467018 0.0336684398353100 -0.0178091004490852 0.00138300133403391 -0.00306597864255309 0.0100818313658237 0.0146613642573357 0.000887384521774948 -0.00987754575908184 0.0146735478192568 -0.0258119460195303 -0.0158818587660790 -0.0392416305840015 -0.0509947612881660 -0.0438211895525456 -0.0387319885194302 -0.0239473711699247 -0.0125436736270785 -0.00535903126001358 0.0306283067911863 0.0461767762899399 0.0247480887919664 -0.00382583844475448 0.00421969685703516 0.0275576636195183 0.0122642563655972 0.000284842215478420 -0.00141542661003768
0.0326104573905468 0.0156098762527108 0.0372577942907810 0.00716992188245058 -0.0120576135814190 0.0276478938758373 0.0201188717037439 0.0387639887630940 -7.71571794757620e-05 -0.0628373771905899 -0.0391418710350990 -0.0433523692190647 -0.0757011026144028 -0.0809862315654755 -0.0506042316555977 -0.0249369945377111 -0.0128215113654733 -0.00828143302351236 -0.0137347374111414 -0.00296153058297932 0.0343384295701981 -0.00634049857035279 -0.0245945062488318 0.00849649962037802 -0.00333963776938617 0.0179710797965527 0.00128423061687499 0.0206947531551123 -0.00205826293677092 -0.0129490513354540 -0.0188205875456333 -0.0373186767101288 -0.00718678440898657 -0.0200202558189631 -0.0270353145897388 -0.0292944926768541 -0.0222591049969196 -0.0328149460256100 -0.0196750201284885 0.00778612960129976 -0.0160279776901007 -0.0106930593028665 0.00613653985783458 -0.00198324047960341 0.0102902399376035 -0.00322883948683739 -0.00359822274185717 -0.0113954795524478 -0.0133711323142052 0.0145408418029547 -0.00379396206699312 0.0195889286696911 -0.00897880643606186 0.00299984985031188 0.00416950229555368 -0.0212878361344337 0.0168864876031876 0.0217108447104692 0.0611967854201794 0.0334424115717411 0.0488006174564362 0.0530414618551731 0.0377677232027054 0.0199765413999558 0.0254929345101118 0.0383642837405205 0.0313374139368534 0.0276388823986053 0.0490604452788830 0.0437404327094555 0.0298276636749506 0.0176870524883270 0.0238301772624254 0.0455794222652912 0.0332896672189236 -0.000999277224764228 0.00712436391040683 0.0189595390111208 -0.0248073320835829 -0.0201005395501852 -0.0194751862436533 -0.0538150407373905 -0.0210262127220631 -0.0396941900253296 -0.0360657311975956 -0.00435739289969206 -0.0112001253291965 0.00210834201425314 -0.00306141725741327 -0.0138136539608240 -0.0179428905248642 -0.00337789929471910 -0.0258502159267664 -0.0185639336705208 -0.0231701713055372 -0.0514894090592861 -0.0451600253582001 -0.0543902106583118 -0.0301432982087135 -0.0505428984761238 -0.0507663860917091 -0.0575256049633026 -0.0454651415348053 0.00306630088016391 0.00717500410974026 0.00435453467071056 0.0378624722361565 0.0172913298010826 0.00247815530747175 0.0465961433947086 0.0688214153051376 0.0329023413360119 0.0432566516101360 0.0190537851303816 0.0473204441368580 0.0299320220947266 0.0155402282252908 -0.00834968034178019 0.0231899674981833 -0.0150998849421740 -0.0367051847279072 -0.0390369147062302 -0.0205090269446373 0.0155411614105105 0.0368105955421925 0.0281761251389980 0.0372021235525608 0.0249823201447725 0.0151196531951427 0.0152765959501266 0.00155758135952055 0.00351311103440821 -0.00112087244633585 0.00120008399244398 0.0121766971424222 0.0299470443278551 0.0165794417262077 0.0183196347206831 -0.00473811104893684 -0.00897526927292347 -0.0372821576893330 -0.0132901547476649 -0.0153289036825299 -0.0127182779833674 -0.00670230807736516 0.0132812270894647 0.0106009216979146 -0.00726254750043154 -0.000127929699374363 0.0107162781059742 -0.00789194926619530 0.0226605776697397 0.0111569808796048 0.0110397581011057 0.0116490963846445 -0.00408655311912298 -0.0117290988564491 -0.0291493888944387 -0.0402419380843639 -0.0259714536368847 0.00262070121243596 -0.0303984303027391 -0.00921155046671629 0.00215211044996977 0.0348526462912560 0.0331386066973209 0.0363532193005085 0.000998928793706000 0.00893803685903549 0.0156357903033495 0.0147901205345988 0.0242848861962557 0.0379722006618977 0.0382051877677441 0.0354713276028633 0.00787997990846634 0.00100560276769102 -0.0174676738679409 0.0106352111324668 0.0156851932406425 0.0101660825312138 -0.00517452228814364 0.0169846154749393 -0.00407263590022922 0.000164522178238258 0.00543428584933281 -0.0278664547950029 0.00199016300030053 -0.0234520453959703 -0.0154341654852033 -0.00848060473799706 -0.00258323526941240 -0.00400836765766144 0.00750475004315376 -0.0318790227174759 -0.0386288277804852 -0.0510972328484058 -0.0250848773866892 -0.0362525060772896 -0.0371949039399624 -0.0138125568628311 0.0247278828173876 -0.0112163955345750 -0.00138948322273791 -0.0572463646531105 -0.0356921181082726 0.00629406701773405 0.0382851846516132 0.0563698410987854 0.0606626197695732 0.0354529134929180 0.0477277971804142 0.0164635684341192 0.0136800827458501 -0.0221874956041574 0.0208157021552324 0.0115615474060178 0.0210173726081848 0.0555256567895412 0.0561196915805340 0.0388755388557911 0.00986046530306339 -0.00851795729249716 -0.0124693792313337 -0.0108329886570573 0.0301819797605276 0.0394745357334614 0.0523059368133545 0.0336346402764320 -0.000388796557672322 -0.0212289299815893 -0.0322611965239048 -0.0296800192445517 -0.0202118866145611 -0.0191442426294088 0.0131065454334021 -0.00455701071768999 -0.00483988691121340 0.000835845305118710 -0.0105602117255330 -0.0139432800933719 -0.0144876455888152 -0.0235977955162525 0.00114293931983411 0.0137146590277553 -0.00513607310131192 0.0234783422201872 -0.00913212820887566 -0.0271001551300287 -0.0205210428684950 -0.0577533841133118 -0.0370067581534386 0.00642412528395653 -0.00483034644275904 0.0108240926638246 0.00418208958581090 0.0184571128338575 0.00209175981581211 0.0162718407809734 0.0211467873305082 0.00965952314436436 -0.00756185734644532 0.0338059403002262 0.0105180656537414 0.0359978191554546 0.0160546135157347 0.00740933930501342 -0.0193466339260340 -0.0179924853146076 -0.0309029445052147 -0.0214311927556992 -0.0116063877940178 -0.00823004916310310 -0.00672042230144143 0.0250059440732002 0.000590141920838505 0.0235999841243029 -0.00912186224013567 -0.0312030073255301 0.0187362134456635 -0.00935282092541456 0.0183824859559536 0.0430078469216824 0.0354230031371117 0.0513713434338570 0.0280476696789265 -0.00200869026593864 0.00481386948376894 -0.0172940753400326 -0.0202692821621895 -0.0400505177676678 -0.00818783696740866 -0.0221873167902231 -0.00637176958844066 0.00540969707071781 -0.000735342036932707 0.0126089593395591 0.0221874788403511 0.00949001777917147 -0.00204559857957065 0.00561633985489607 0.0151318125426769 0.0114581808447838 0.0109096206724644 0.0232306551188231 0.00622041383758187 0.0164804328233004 0.00217739795334637 -0.00224720337428153 -0.0109104700386524 0.0216767359524965 -0.00213826866820455 0.00954020116478205 0.0122815500944853 -0.00278182537294924 0.0232489835470915 0.00295073166489601 0.0467320568859577 0.0299606136977673 0.0303714629262686 0.0483055636286736 0.0134980827569962 0.0365895628929138 0.0193387009203434 0.00781928282231093 0.0239971838891506 0.0199155807495117 -0.00187601684592664 -0.00728899613022804 -0.0533459186553955 -0.0517901480197907 -0.0343999452888966 -0.0428685098886490 -0.0662466064095497 -0.0663812607526779 -0.0230594072490931 -0.0184665620326996 0.00790318101644516 0.00765862548723817 0.0241119898855686 0.0242591556161642 -0.00115226826164871 0.0142664127051830 0.00227443454787135 0.000859348510857672 -0.0186731405556202 0.00310219451785088 0.0369796454906464 0.0428385660052300 0.0152305001392961 0.00254519819281995 -0.0441414974629879 -0.0223340373486280 -0.0353416092693806 -0.0215484257787466 0.00403924239799380 0.0188663601875305 -0.000275305035756901 0.0266721360385418 0.0263182502239943 0.00609068525955081 0.0248306747525930 0.0150395138189197 0.0297348089516163 0.0602850280702114 0.0352739542722702 0.0378147661685944 0.0290125496685505 0.0155995618551970 0.00787005573511124 -0.000898874190170318 -0.0381646342575550 -0.0389352999627590 -0.0294925924390554 -0.0394641868770123 -0.0139650600031018 -0.00395392812788487 0.00716130295768380 -0.0205799788236618 -0.0145812379196286 -0.0116633856669068 0.0279753599315882 0.0288215801119804 0.0409571975469589 0.0171429980546236 0.00495701795443893 0.00195832201279700 -0.00951886549592018 0.0407438389956951 0.0220381561666727 0.0279148761183023 0.0398827046155930 0.0107992365956306 0.0132781155407429 0.00596592295914888 0.0318197607994080 0.0176631603389978 0.0161988213658333 0.0201453827321529 0.0456307046115398 0.0374945811927319 0.0166663415730000 0.0278412457555532 0.0160909797996283 0.00756831560283899 0.00931160245090723 0.000152765671373345 -0.0393556654453278 0.00659557292237878 -0.0403468944132328 -0.0442758277058601 -0.0569250993430615 -0.0725011155009270 -0.0627800077199936 -0.0735287368297577 -0.0375755913555622 -0.0381948202848434 -0.0337472185492516 -0.0470633432269096 -0.0123493978753686 -0.0113480398431420 0.00378019409254193 0.0145880542695522 0.0181646831333637 0.0179901085793972 0.0105908550322056 0.0151278348639607 -0.00829465501010418 -0.0131806572899222 -0.0124079193919897 -0.0250493548810482 -0.0138241453096271 -0.00982610322535038 -0.0242873802781105 -0.0365003831684589 0.0350220240652561 0.00886198692023754 0.0367025434970856 0.00976536609232426 0.0256224181503057 0.0145453466102481 0.00528099527582526 0.0339231342077255 0.0178749803453684 0.0201970916241407 0.0129442233592272 0.00193833862431347 -0.0106926904991269 0.00145615194924176 -0.00251492578536272 0.0189917422831059 -0.0135464500635862 0.00134346727281809 -0.0299708321690559 -0.0207602102309465 -0.0207346398383379 -0.0271801594644785 -0.0475400649011135 -0.0215406622737646 -0.0137878768146038 -0.0222812108695507 -0.00718086818233132 -0.0133687574416399 -0.00896580051630735 0.0197594966739416 0.0226529650390148 0.00430869171395898 -0.000385744177037850 -0.00695577077567577 0.00583686865866184 0.00131043640431017 -0.0188261810690165 0.00410096487030387 0.0407028459012508 0.0326540321111679 0.0353593230247498 0.0139493225142360 0.0167866554111242 0.0308651160448790 0.0187624711543322 0.0185031071305275 -0.000938586948905140 0.0105156423524022 0.000794840278103948 0.00108800316229463 0.00522500695660710 0.00369052262976766 0.0117857139557600 0.00244598300196230 0.0303021036088467 0.0270242821425200 -0.00664964923635125 0.0206990707665682 -0.0256926361471415 -0.0409816615283489 -0.0109078111127019 -0.0488647893071175 -0.0392286553978920 -0.0515385456383228 -0.0553228855133057 -0.0601352378726006 -0.0546672679483891 -0.0173559281975031 -0.0275945756584406 -0.0202135164290667 -0.0307004041969776 -0.0151298753917217 -0.00791992340236902 -0.0153514556586742 0.0147764403373003 0.0512020625174046 0.0378135368227959 -0.00519695645198226 -0.0435206964612007 -0.0304501913487911 -0.0349149070680141 -0.0180749464780092 -0.00918452534824610 -0.00990111008286476 -0.000321450177580118 0.0236955676227808 0.00643635354936123 -0.00668590934947133 0.00720030348747969 -0.0138636371120811 -0.0144488336518407 0.0150818843394518 0.00342379906214774 -0.0292147006839514 -0.0223765056580305 -0.0360798127949238 -0.0209441408514977 -0.0347456596791744 -0.0167047642171383 0.0246699601411819 0.0277411509305239 0.0371610075235367 0.0393135175108910 0.0191355701535940 -0.00535348383709788 -0.0157821141183376 -0.00846973620355129 -0.00861155427992344 0.0336253531277180 0.0295525398105383 0.0336695015430450 0.0111428145319223 0.0298041533678770 0.0135394548997283 0.0149132376536727 0.0239654444158077 0.0194334909319878 0.00455264048650861 0.0126608526334167 0.0414067842066288 0.0443403273820877 0.0236563645303249 0.0176482256501913 -0.00948671158403158 -0.0409472361207008 -0.0632855370640755 -0.0511977151036263 -0.0346869379281998 -0.0311672296375036 -0.00399008207023144 0.0126417819410563 -0.0404023230075836 -0.0170385837554932 -0.0264544505625963 -0.0217681899666786 -0.0117062712088227 0.0142876990139484 0.0138429058715701 0.0320103988051415 0.0467283464968205 0.0167755279690027 -0.00484791770577431 -0.0170936621725559 -0.0317344143986702 -0.0105188973248005 -0.00733163813129067 -0.00471442937850952 -0.00464089820161462 -0.0136895654723048 -0.0137908924371004 0.00206160685047507 0.00295783882029355 0.0241749715059996 0.0388800352811813 0.0181432198733091 0.0287825819104910 0.0414133220911026 0.0550459399819374 0.0327868051826954 0.0232100710272789 0.0181117579340935 0.0201141610741615 0.00346033158712089 -0.0112976133823395 -0.0257475897669792 -0.00399266043677926 -0.0460262484848499 -0.0300903581082821 -0.0635652095079422 -0.0696296691894531 -0.0687224194407463 -0.0539924465119839 -0.0172655247151852 -0.00150903954636306 0.0411473922431469 0.0433724038302898 0.0117049878463149 0.0309432204812765 -0.0134036252275109 -0.00756762409582734 -0.0216410793364048 -0.0114395935088396 0.00662882206961513 -0.00107114156708121 -0.0102883018553257 -0.0487677678465843 -0.0368398353457451 -0.0469711534678936 -0.0293232090771198 -0.0270961876958609 0.0121548883616924 0.0225304588675499 0.0458630248904228 0.0427496619522572 0.0386790074408054 0.0263597555458546 0.0563809983432293 0.0418490841984749 0.0559150353074074 0.0360489487648010 0.0233709178864956 0.0280571151524782 0.0251266360282898 -0.0153449568897486 0.0198976173996925 0.0288810525089502 0.00640543689951301 0.00337888742797077 0.00915273744612932 0.0253387913107872 0.0144865429028869 0.00546242808923125 0.0148293711245060 0.0153741082176566 -0.0103192236274481 -0.0124475536867976 0.00881691090762615 -0.00974784698337317 0.00744768278673291 0.0146822724491358 0.0176931861788034 0.0373077690601349 0.0153553094714880 0.00776339415460825 0.0103232460096478 0.0169418435543776 -0.0251838602125645 0.00276707368902862 0.0195878800004721 0.0131762055680156 0.0294220726937056 0.0139440856873989 0.000837682280689478 0.0190346911549568 0.00163427321240306 0.00782661698758602 0.00943693425506353 0.0208931509405375 0.0188449714332819 0.0287208277732134 0.0101339137181640 -0.00810319650918245 -0.0415145941078663 -0.0479793585836887 -0.0524310618638992 -0.0160075034946203 -0.0179605856537819 0.00364985410124064 -0.0159035045653582 -0.00681332824751735 -0.00945849251002073 0.0157416705042124 0.0107664857059717 0.0166450571268797 0.0408271737396717 0.0243854243308306 0.0327085256576538 0.0254417937248945 -0.00711477501317859 0.000718038587365300 -0.0149283278733492 -0.0300720054656267 -0.00183815311174840 0.0222152415663004 0.00947956927120686 0.00724881514906883 0.0312525145709515 0.00499073322862387 0.00438847066834569 0.0166758392006159 0.0330392122268677 0.0240339171141386 0.0285126827657223 0.0326280705630779 0.0303013268858194 0.0387632586061955 0.0268156118690968 0.0142235858365893 -0.0127417854964733 -0.0415852665901184 -0.0537289343774319 -0.0748312100768089 -0.0417597368359566 -0.0687281489372253 -0.0437677279114723 -0.0593691356480122 -0.0518657229840755 -0.0369448550045490 -0.0404595732688904 -0.0128777474164963 -0.00650154147297144 0.00759276747703552 0.0175116006284952 0.0225653275847435 0.00368971261195838 0.00202365312725306 0.00813681539148092 0.0220053009688854 0.00378474546596408 -0.0282308720052242 -0.0256550665944815 -0.0233513489365578 -0.0277642775326967 -0.0181219708174467 -0.0460964255034924 -0.0311783067882061 -0.0257453229278326 -0.0173874218016863 0.00918454397469759 0.00766693102195859 0.0408844165503979 0.0127010094001889 0.0210413131862879 0.0438709370791912 0.0503743253648281 0.0378913506865501 0.0135284857824445 0.00790668930858374 -0.00545150088146329 0.0172466989606619 0.00712681794539094 0.0157828032970428 0.00645881053060293 -0.0292053427547216 -0.0552205778658390 -0.0545768737792969 -0.0234299618750811 -0.0126230595633388 0.0270086769014597 0.0196613818407059 0.0456909127533436 0.0284970290958881 0.0276464391499758 -0.0560283698141575 -0.0194350779056549 0.000634421769063920 0.0113015454262495 0.0107988398522139 0.0146512622013688 -0.00208934186957777 0.000547487637959421 0.0155875235795975 0.0244180560112000 0.0137617774307728 0.0317492149770260 0.0359804667532444 0.0233048573136330 0.0309784598648548 0.0332537442445755 0.0114397145807743 -0.000277902814559639 -0.0107006216421723 -0.00891003198921681 -0.00759967742487788 -0.0174096059054136 -0.0217659417539835 -0.00623336667194963 -0.0412202067673206 -0.0106980334967375 0.00615382567048073 -0.0254329424351454 0.00822271034121513 0.00971256569027901 0.0211998205631971 0.0146611258387566 0.00393224833533168 -0.0208114646375179 -0.0192384887486696 -0.0457003042101860 -0.0750391259789467 -0.0801690816879273 -0.0957037955522537 -0.0837654247879982 -0.0646876320242882 -0.0718215107917786 -0.0599304959177971 -0.0408989377319813 0.00301089603453875 0.0422225520014763 0.0285440366715193 0.00654544122517109 0.0104864435270429 -0.0124405855312943 0.00889082532376051 0.0247839372605085 0.0374229177832603 0.0399085022509098 0.0271016862243414 0.0217304471880198 0.0201820265501738 0.0160318277776241 0.0148229822516441 0.00716534815728664 0.0181155409663916 0.0241408944129944 0.0214929971843958 -0.00112941197585315 0.0321177653968334 0.0193535182625055 0.0344584845006466 0.0124461222440004 -0.00625113770365715 0.00768864434212446 -0.000627739413175732 -0.00423507671803236 -0.00905469618737698 -0.0109245367348194 -0.0307007674127817 -0.0420665107667446 -0.0393771678209305 -0.0578955523669720 -0.0657730102539063 -0.0616853684186935 -0.0443772673606873 -0.0326803699135780 -0.00927297398447990 0.0128754042088985 -0.0126268370077014 0.0189904589205980 -0.00131118216086179 -0.00585822341963649 0.0271000806242228 -0.0121925026178360 0.0115480544045568 -0.00919705349951983 0.00867740903049707 0.00553374039009213 0.0347713083028793 0.0364763550460339 0.0103146713227034 0.0300083253532648 0.0208192393183708 0.0387226603925228 0.0363097190856934 0.0147634474560618 0.0363698229193687 0.0194554347544909 0.00875430088490248 0.0100846476852894 0.0201359633356333 0.0166206732392311 -0.0120666334405541 -0.0103086484596133 0.00317753176204860 -0.0150751341134310 -0.0119499852880836 0.00455559371039271 -0.0169993881136179 -0.0447042062878609 -0.0278676711022854 -0.0128591433167458 0.0105021735653281 0.0193364843726158 0.0183041151612997 0.0316622927784920 -0.0124299330636859 -0.0248837806284428 -0.0200852192938328 -0.0605349913239479 -0.0628322884440422 -0.0835576727986336 -0.00126894470304251 0.00776909478008747 -0.0153652504086494 0.0152863776311278 -0.00559006072580814 -0.0144088258966804 -0.00617477344349027 -0.0446409918367863 -0.0601021163165569 -0.0605367720127106 -0.0350421406328678 -0.0538634732365608 -0.0305401701480150 -0.0377081744372845 -0.0432658381760120 -0.0501543097198010 -0.0112565616145730 0.00393827399238944 -0.00606715586036444 0.00449762865900993 0.0216142181307077 0.0207600202411413 0.0192716848105192 0.0120441112667322 0.00363376876339316 0.0262144505977631 0.00727457040920854 0.0134263057261705 -0.00825893785804510 0.0231548640877008 0.0318824946880341 0.0131386667490006 0.00681057479232550 0.0100440494716167 0.00622507650405169 -0.00165104831103235 0.0131814554333687 0.0233426392078400 0.00819171033799648 0.0128416875377297 0.0114854443818331 0.00488163903355598 0.0267968587577343 -0.00444300100207329 0.000319958897307515 -0.0224778018891811 -0.0284503996372223 -0.0430374592542648 -0.0530215501785278 -0.0652269423007965 -0.114014185965061 -0.105771869421005 -0.0734357684850693 -0.0875059738755226 -0.0631714314222336 -0.0459737516939640 0.000253531441558152 0.0290529578924179 0.0411722548305988 0.0444879457354546 0.0151818040758371 0.0233599524945021 0.00734673673287034 0.000619178288616240 0.00953194126486778 0.00677353609353304 0.0150959016755223 -0.0245757866650820 -0.00532095180824399 -0.00593279628083110 -0.0196280926465988 0.0230083055794239 0.0281502306461334 0.0484210513532162 0.0322709381580353 0.0244931690394878 0.0201786421239376 0.0368204005062580 0.0235259197652340 0.0242648497223854 0.0419190786778927 0.0171417854726315 0.00736196059733629 -0.00773123931139708 -0.000776166678406298 0.00912951584905386 -0.000274553545750678 0.0109108788892627 -0.0231802910566330 -0.0380762033164501 -0.0625961273908615 -0.0514400750398636 -0.0289241317659616 -0.0177386607974768 0.00110221130307764 0.0260656233876944 0.0224392935633659 -0.00106372393202037 -0.0101303923875093 -0.00969441421329975 0.0267239660024643 0.0201608724892139 0.0125705609098077 0.0181224197149277 0.0281923115253449 -0.00333830178715289 -0.0103407576680183 -0.0184307117015123 0.00402610376477242 0.0298008099198341 0.0183996502310038 0.00741468509659171 0.00498807104304433 -0.0104258963838220 0.0172222759574652 0.0187111012637615 0.0171990320086479 0.0139954769983888 0.00274653336964548 0.00861083995550871 0.0173931512981653 0.00711412681266666 0.00253727543167770 -0.00817282777279615 0.00609174044802785 0.0143865905702114 -0.00660867476835847 0.00962755456566811
