0.00976587086915970 0.0503990314900875 0.0419771261513233 0.0534937195479870 0.0200004354119301 0.0553187169134617 0.0467682890594006 0.0463398694992065 0.0596103593707085 0.0506706312298775 0.0464272014796734 0.0267232079058886 0.0194700099527836 0.0153932375833392 -0.0105652930215001 -0.00427262624725699 -0.0206931401044130 -0.0317916497588158 -0.0605886988341808 -0.0340015105903149 -0.0119861951097846 -0.0227052103728056 0.00330790993757546 -0.00775874778628349 -0.0184073932468891 -0.0202193576842546 -0.00656290305778384 -0.0160897858440876 0.000796104897744954 -0.0150169767439365 -0.0151879126206040 -0.0159136950969696 -0.0497569143772125 -0.0553857535123825 -0.0522752776741982 -0.0547330342233181 -0.0681867152452469 -0.0393630079925060 -0.0105607556179166 -0.0104069113731384 0.0158274695277214 0.0249718502163887 0.00911634415388107 0.0209375713020563 0.0266640465706587 0.0529650636017323 0.0689895600080490 0.0582268498837948 0.0424171648919582 0.0588999912142754 0.0324854888021946 0.0125164687633514 0.0217784680426121 0.00104178267065436 -0.0123023306950927 -0.00871483143419027 -0.00566645292565227 -0.0260365717113018 0.00193070655222982 -0.000661256257444620 0.00903026945888996 0.00867088884115219 -0.0142001509666443 0.00676899868994951 0.0187022779136896 0.0399969927966595 0.0213102959096432 0.0228605829179287 -0.0102020232006907 -0.0299994535744190 -0.0444103814661503 -0.0372043848037720 -0.0396043695509434 -0.0560006983578205 -0.0396614037454128 -0.0339544713497162 -0.0306913293898106 -0.0281077455729246 -0.0510754473507404 -0.0352847389876843 -0.0253781955689192 -0.0323415435850620 -0.0107162399217486 -0.00772152468562126 -0.0149125522002578 -0.0173979364335537 0.00322464969940484 0.0389732010662556 0.0461396910250187 0.00567496707662940 -0.00811981968581677 -0.00800498481839895 0.0105134397745132 0.0235406458377838 0.0186225436627865 0.00410596560686827 -0.0212090723216534 -0.0163354016840458 -0.0239324215799570 -0.0100454185158014 -0.00866125803440809 -0.00537846144288778 -0.00396809587255120 0.0109053151682019 -0.000638086639810354 0.0191174913197756 0.00740324519574642 -0.00575113855302334 0.0135454423725605 0.0215791109949350 0.0393867380917072 0.0289813261479139 0.0213937237858772 0.0357177816331387 0.0210514962673187 0.0338838659226894 0.00882416125386953 -0.0106050996109843 -0.0130225438624620 -0.00405669631436467 -0.0135011989623308 -0.0215460937470198 -0.0307184588164091 -0.0253525953739882 -0.0232582446187735 -0.0278264619410038 -0.0140658020973206 -0.0313946269452572 0.0106201991438866 0.00195495504885912 -0.00888396799564362 -0.0138861080631614 0.00366234732791781 -0.00252033094875515 -0.0205033365637064 -0.00248553394339979 0.0141697684302926 -0.00129807624034584 -0.00986431725323200 -0.0158946681767702 -0.00953249353915453 -0.0270795300602913 -0.0116812167689204 -0.0329998321831226 -0.0315795652568340 0.00462928880006075 0.0368667952716351 0.0537216886878014 0.0321002490818501 0.00532011920586228 0.0498478002846241 0.0288263373076916 0.0523411855101585 0.0359975472092629 0.0437452904880047 0.0309911388903856 0.0520902499556541 0.0456529892981052 -0.00186071521602571 -0.00742564024403691 -0.00376304797828198 0.0127685945481062 -0.0202215220779181 -0.0181164685636759 -0.0128338271752000 0.00517473602667451 0.0466697812080383 0.0406767427921295 0.0318755321204662 0.0238412171602249 0.00866751838475466 -0.00148860760964453 0.00978494714945555 0.0182213541120291 0.0287929531186819 0.00891160126775503 -0.0143420090898871 -0.0436883009970188 -0.0365041531622410 -0.0669326633214951 -0.0599370449781418 -0.0760939121246338 -0.0888720527291298 -0.0496240183711052 -0.0397745743393898 -0.0683948993682861 -0.0654362738132477 -0.0481395795941353 -0.0680341124534607 -0.0456877909600735 -0.0286140814423561 -0.0163303893059492 -0.0366141758859158 0.0158020108938217 -0.00158835516776890 0.000212647952139378 -0.00791827123612166 -0.0135547984391451 -0.00637794379144907 -0.0454729311168194 -0.00688648456707597 -0.0145004428923130 -0.0262219905853272 -0.00558456964790821 -0.0430187992751598 0.00766131235286593 0.00834826938807964 0.00573123013600707 -0.0188666228204966 0.0110534513369203 0.0275095645338297 0.0482746697962284 0.0521914139389992 0.0562176480889320 0.0635864287614822 0.0312145929783583 0.0103323785588145 0.0452343299984932 0.0387733355164528 0.0233367066830397 0.00186942040454596 0.000889654038473964 -0.000330422510160133 -0.0101391859352589 -0.0317232571542263 -0.0298707000911236 -0.0297849979251623 -0.0584959499537945 -0.0453310757875443 -0.0425454229116440 -0.0200535841286182 -0.0327792242169380 0.00100839079823345 0.00342348916456103 -0.00965321809053421 -0.00136285403277725 -0.000536098086740822 0.0296212583780289 0.0325697213411331 0.0291821546852589 0.0149480318650603 0.00154879130423069 -0.0144376223906875 -0.00383036886341870 -0.0115834157913923 -0.0292323324829340 -0.0373082719743252 -0.0204537156969309 -0.0379947721958160 -0.0569199211895466 -0.0365236289799213 0.0131275691092014 -0.00646066106855869 -0.0241110008209944 -0.0126845408231020 -0.00351747288368642 0.0176178570836782 0.0118297031149268 0.0164992138743401 -0.0162808895111084 0.0112531799823046 -0.0207033976912498 -0.0124254021793604 0.0173995997756720 -0.00139955582562834 0.0203045923262835 -0.0131264394149184 -0.0235018376260996 -0.0272816233336926 -0.0452004037797451 -0.0510377995669842 -0.0292024575173855 -0.0308506190776825 -0.00381245324388146 0.0145335225388408 0.00949285551905632 0.0134704187512398 0.0162091553211212 0.0326337665319443 0.0367772169411182 0.0337102115154266 0.0216876883059740 0.0372357852756977 0.0575929246842861 0.0391994118690491 0.00106332823634148 0.00869035441428423 -0.00175004149787128 -0.0177103541791439 -0.00374304293654859 -0.00841336045414209 0.0297165233641863 0.0156737621873617 0.0315364599227905 0.0418464578688145 0.0299914088100195 0.00164216686971486 -0.0168080739676952 0.0112900501117110 -0.0286392439156771 0.00263040768913925 -0.0391977056860924 -0.0177471078932285 -0.0137507561594248 -0.00500098336488009 -0.0153553681448102 -0.0138024715706706 -0.0379009693861008 -0.0470644347369671 -0.0451706536114216 -0.0418147183954716 -0.0336428321897984 -0.0172230452299118 0.00595499901100993 0.000405747356126085 -0.00599117111414671 0.0218575038015842 0.0112372171133757 -0.00341789098456502 0.0213496014475822 0.0214814692735672 0.0102976327762008 -0.0213090553879738 -0.0137588893994689 -0.000843859801534563 -0.0458215028047562 -0.0184867791831493 -0.0354263409972191 0.0102832615375519 0.0119776586070657 -0.00267317472025752 0.0537416636943817 0.0333652384579182 0.0338540486991406 0.0415054373443127 0.00782285630702972 0.0191477108746767 0.0257092714309692 0.0283691082149744 0.0104881506413221 0.0153307374566793 0.00641628494486213 0.00191092828754336 -0.00917170755565167 -0.0200068727135658 -0.0350132770836353 -0.0294134933501482 -0.0404695644974709 -0.0219279285520315 -0.00550227425992489 0.0163833741098642 -0.000481790688354522 0.0150593398138881 0.00550513248890638 0.00952280499041081 -0.0189731195569038 0.000841615488752723 -0.0394762791693211 -0.0226841140538454 -0.0150156803429127 -0.0205746684223413 0.0135290212929249 0.00258293817751110 0.00285518611781299 0.0243645627051592 0.0397716946899891 0.0390062890946865 0.0137786772102118 0.0354519672691822 0.0171175673604012 0.0383149497210979 0.0121560664847493 0.00422426871955395 0.0159135777503252 0.00871709082275629 -0.0103166978806257 -0.00156175286974758 -0.0277465265244246 -0.00735018309205771 -0.0160776600241661 -0.00953383371233940 0.0204035118222237 0.0433085300028324 0.00890186149626970 0.0587921515107155 0.0340621396899223 0.0412243977189064 0.0275872685015202 -0.0364463031291962 0.0345834754407406 0.0174980666488409 0.00806052889674902 -0.0154541824012995 -0.0144720915704966 -0.00922042224556208 -0.0145086161792278 -0.0426244661211968 -0.0489454790949822 -0.0294464621692896 -0.0186912771314383 -0.0649341270327568 -0.0184687953442335 0.000128551808302291 -0.0145836137235165 -0.0321650020778179 -0.0299646966159344 -0.0256417691707611 -0.0521260276436806 -0.0761503726243973 -0.0660255029797554 -0.0647639930248261 -0.0362639054656029 -0.0657667890191078 -0.0373697280883789 -0.0373468957841396 -0.0569534935057163 -0.0826065614819527 -0.0695570036768913 -0.0412522070109844 -0.0220271460711956 -0.00896478537470102 0.00550445122644305 0.0264321640133858 0.0395922288298607 0.0302488673478365 0.0452736578881741 0.0318227261304855 0.0397782064974308 0.0511805564165115 0.0534503124654293 0.0323752351105213 0.0640656277537346 0.0351469628512859 0.0339324735105038 0.0762583240866661 0.0495504513382912 0.0593769475817680 0.0563313588500023 0.0909694060683250 0.103830091655254 0.109618090093136 0.0430186875164509 0.0298938713967800 0.0380009524524212 0.0388424284756184 0.0337860174477100 0.0161635205149651 0.0192842241376638 0.0164665803313255 -0.0157517343759537 -0.0236736517399550 -0.0669157728552818 -0.0222681760787964 -0.0441853702068329 -0.0193044021725655 -0.0496688224375248 -0.0337597802281380 -0.0238391719758511 -0.0257363934069872 -0.0502817146480084 -0.0725432336330414 -0.0462060682475567 -0.0375178791582584 -0.0468655563890934 -0.0363450273871422 -0.0416907928884029 -0.0222828797996044 -0.0164158698171377 -0.0137970633804798 -0.0224245917052031 -0.0106993708759546 -0.0178188905119896 -0.0253291465342045 0.00345725566148758 -0.0252826102077961 0.0336760058999062 -0.0113041466102004 0.00785132870078087 -0.00604479061439633 0.00439728284254670 -0.0173160433769226 0.0418056696653366 0.0216708388179541 0.0377455800771713 0.0435637831687927 -0.00316516635939479 -0.00807932298630476 0.0188265834003687 0.00743811530992389 0.0155308647081256 0.0197943020612001 0.00412750290706754 0.0398508124053478 0.00827119126915932 0.0244439207017422 0.0171259734779596 0.00390148442238569 0.0252754967659712 0.0226793549954891 0.0534043125808239 0.0637215450406075 0.0593243241310120 0.0248291846364737 0.0358412824571133 0.0132895093411207 0.0512742549180985 0.0598984174430370 0.0252446290105581 0.0515065304934979 0.0383717082440853 0.0511874258518219 0.0677557811141014 0.0136553440243006 -0.0105197671800852 -0.0189413446933031 -0.0141627965494990 -0.0185037888586521 -0.00745420996099711 -0.00273336772806942 0.0220171567052603 0.0527663119137287 0.0521968081593514 0.0615177005529404 0.0584311820566654 0.0554053746163845 0.0726046785712242 0.0398039221763611 0.0429224297404289 0.0522717013955116 0.0534029118716717 0.0652317255735397 0.0518860407173634 0.0269573703408241 0.00316779850982130 0.000455061293905601 0.00439646048471332 0.0277857631444931 0.0539905130863190 0.0218050088733435 0.0217533130198717 0.00582495145499706 -0.00575171969830990 0.0113030066713691 -0.0254983641207218 -0.0123835559934378 0.0152754271402955 -0.0299668014049530 0.0120328776538372 -0.0179336778819561 -0.0429399050772190 -0.0459165088832378 -0.0578493699431419 -0.0875477865338326 -0.0669848769903183 -0.0402017906308174 -0.0345873050391674 0.0107456361874938 -0.000676608819048852 -0.0114083644002676 -0.0274203438311815 -0.0281906593590975 -0.0144282514229417 0.0141635145992041 0.000553543039131910 -0.00355327455326915 0.0268979035317898 0.0509582906961441 0.0430187396705151 0.0569628737866879 0.0248027537018061 0.0398423150181770 0.0304594356566668 -0.00290207192301750 0.0179760642349720 0.0737212449312210 0.0420823879539967 0.0454156361520290 0.0218967087566853 -0.0113643947988749 -0.0307600591331720 -0.0204650722444057 -0.0161548554897308 -0.0331833213567734 -0.0198924392461777 -0.00423932867124677 0.0101736094802618 0.00645179767161608 -0.0152806742116809 0.00186166900675744 -0.0356695875525475 -0.0180737022310495 -0.0322581119835377 -0.0185820981860161 0.0158338025212288 0.0432416833937168 0.0297017581760883 -0.0251574777066708 -0.0520130768418312 -0.0500160530209541 -0.0158195029944181 -0.00799687579274178 0.00136248709168285 0.00460451003164053 0.0318102240562439 0.0240022372454405 0.0266782194375992 -0.0313386917114258 -0.0110389767214656 -0.00180684961378574 -0.0137018291279674 0.00433241715654731 -0.0219304263591766 -0.00988269597291946 0.00935375411063433 0.00599414343014360 -0.0152904894202948 -0.00798790436238051 0.00599601631984115 -0.00977848656475544 0.000690544256940484 0.000770141021348536 -0.00912963412702084 0.00899637304246426 -0.000182056261110120 -0.0111404703930020 -0.0157288815826178 -0.0228489842265844 -0.0434245727956295 -0.00263461004942656 0.00427317619323731 -0.00382386753335595 0.0175102259963751 -0.0274362172931433 -0.0245656594634056 -0.0270360056310892 -0.0255863312631845 -0.00568342814221978 -0.0288427975028753 -0.00394555507227778 -0.0140165602788329 0.0331830717623234 -0.00633303122594953 0.0180458426475525 0.00725405197590590 0.0256143324077129 0.0176951214671135 0.0452042631804943 0.0294100586324930 0.0260685048997402 0.0204259734600782 0.0108403023332357 0.0139490645378828 -0.0210486724972725 -0.0457584038376808 -0.0431145988404751 -0.0173942912369967 -0.00684073567390442 0.00902665685862303 0.0167405121028423 -0.00582721270620823 0.0259433127939701 0.00582276936620474 0.00731561612337828 -0.0148545112460852 0.000221630369196646 0.0390399768948555 0.0101624187082052 0.0274592414498329 0.00999816320836544 -0.00824565906077623 -0.0145037518814206 -0.0198684632778168 -0.0105738714337349 0.00462987646460533 0.00533766951411963 0.0293960645794868 0.0464561544358730 0.0562369748950005 0.0480551421642304 0.0320817865431309 0.0603343546390533 0.0208506062626839 0.0270088408142328 0.0441228337585926 0.0305372904986143 0.0184289626777172 0.0122955357655883 -0.0143663762137294 -0.0152353132143617 -0.00786157697439194 -0.0265977494418621 -0.00196184637024999 0.0247564353048801 0.0114876683801413 0.00477099558338523 -0.00154718244448304 -0.0215587243437767 -0.0291559472680092 -0.0144788762554526 -0.0282388739287853 -0.0212647691369057 -0.0349808745086193 -0.0514776892960072 -0.0459680929780006 -0.0585490390658379 -0.0456464067101479 -0.0452415421605110 -0.0475624017417431 -0.0457879565656185 -0.0401989817619324 -0.0193292461335659 -0.0147562809288502 -0.0125035084784031 -0.0113053312525153 0.00564970169216394 -0.0234354250133038 -0.00349818984977901 0.0178645234555006 0.0285706818103790 0.0428179726004601 0.0415270663797855 0.0371909029781818 0.0264398530125618 0.00585506251081824 0.00469761248677969 0.00161077175289392 -0.0132657149806619 -0.0250499173998833 -0.0145828081294894 -0.0188494883477688 0.0172849632799625 -0.00311031681485474 0.00131967326160520 0.0333664566278458 0.0395510457456112 0.0450710803270340 0.00773491151630878 0.0180084630846977 -0.0179490055888891 -0.000976064649876207 -0.0213395692408085 0.00993780326098204 -0.0361786186695099 -0.0544123612344265 -0.0443962961435318 -0.0263457577675581 -0.0228176210075617 -0.0167441815137863 -0.00922322273254395 -0.0235681384801865 0.00178894097916782 0.0162753090262413 0.0153756877407432 0.0116012636572123 0.00100946775637567 -0.0300314687192440 -0.00643959129229188 -0.0167693868279457 0.0252338275313377 0.0172346513718367 -0.00955210719257593 -0.0253038071095943 -0.0415459014475346 -0.0234371572732925 -0.0479632876813412 -0.0130481515079737 -0.00103364011738449 -0.00962277781218290 0.0308356005698442 0.0279427152127028 0.0386573746800423 0.0379276946187019 0.0383241176605225 0.0429100878536701 0.0349001511931419 -0.00732801901176572 -0.0292294137179852 -0.0583652667701244 -0.0391181595623493 -0.0238026157021523 0.0113362120464444 0.0162027627229691 0.0232371110469103 0.0132344299927354 0.00295624998398125 0.00947706308215857 -0.00372355571016669 0.00470276689156890 0.0460854880511761 0.0153853483498096 0.0378478020429611 0.0605724155902863 0.0475994348526001 0.0161489397287369 0.00248106638900936 -0.00334167317487299 -0.0352393053472042 -0.0285984221845865 0.00573131302371621 -0.0114288702607155 0.00629165861755610 0.0295601766556501 -0.00113429687917233 -0.0170388836413622 -0.00496089877560735 -0.0219258572906256 -0.00372052472084761 -0.00113328790757805 0.0344687812030315 0.0137241343036294 0.0563400089740753 0.0476804189383984 0.00461814831942320 0.0260331407189369 0.00750341266393662 -0.0145160760730505 -0.00615599239245057 0.0250218063592911 0.00730565376579762 -0.0287885647267103 -0.00473347445949912 -0.0340070202946663 -0.0582861565053463 -0.0419588983058929 -0.0556689426302910 -0.0136143155395985 0.00517483707517386 -0.00760180037468672 0.0104863299056888 0.0187842305749655 0.0406072586774826 0.0310590136796236 0.0301775652915239 0.0240195579826832 0.00996188074350357 0.0377123132348061 0.0364347808063030 0.0518672131001949 -0.00310717639513314 -0.00307914940640330 0.00522862887009978 -0.0287750829011202 -0.0611459240317345 -0.0405080318450928 -0.0186882559210062 -0.0222662128508091 -0.0120891733095050 0.0235703270882368 0.0286918934434652 0.00356446532532573 0.0292990487068892 -0.00145346263889223 0.0259216409176588 0.0319591537117958 0.0214612688869238 0.0415560007095337 0.0605467520654202 0.0539631992578507 0.0126781268045306 -0.0176419112831354 -0.0341299772262573 -0.0338706709444523 -0.0477242209017277 -0.0632862448692322 -0.0318868942558765 -0.0464106760919094 0.000446353282313794 0.00105175515636802 -0.0398757643997669 0.00264803459867835 0.00503581482917070 0.0144770145416260 0.0220648217946291 0.0576496981084347 0.0573898665606976 0.0435340926051140 0.00507918931543827 0.00511146243661642 -0.0103724887594581 -0.0153598934412003 -0.0332513600587845 -0.0164321362972260 0.00224887114018202 0.0185190085321665 0.0164827276021242 -0.0185837782919407 -0.0309637915343046 -0.0339939631521702 0.00883529521524906 0.0174104887992144 -0.0146364653483033 0.000545474002137780 0.0401358604431152 0.0333033390343189 0.0373161733150482 0.0438637584447861 -0.000349947134964168 0.0377167165279388 0.0188986938446760 0.0395803004503250 0.0370503924787045 0.0492338649928570 0.00580824306234717 0.0405622348189354 0.0230516232550144 0.0545464567840099 0.0549546889960766 0.0139923533424735 0.0320817567408085 0.0185104701668024 -0.00618767924606800 -0.0215261764824390 -0.00177253130823374 -0.00757075287401676 0.0171658396720886 0.0170175433158875 0.0277026332914829 0.0119028482586145 -0.0145064340904355 0.0259812083095312 -0.00288923690095544 -0.0139158042147756 -0.00578663451597095 0.00184604129754007 0.00448329094797373 0.000289111980237067 0.000589145580306649 0.000479870388517156 -0.00469083711504936 -0.0433268025517464 -0.00498797511681914 -0.0258434638381004 -0.00364369456656277 0.00117423478513956 0.0245612375438213 0.0343596301972866 -0.00179063330870122 0.00289188674651086 0.00266752811148763 -0.0285699535161257 -0.0115046668797731 0.000297706661513075 -0.0228497963398695 -0.0171743668615818 -0.0144125018268824 -0.0153431557118893 -0.0393470972776413 -0.0246917624026537 -0.0489747226238251 -0.0268424507230520 -0.0264863204210997 -0.00130986899603158 0.00691781379282475 0.00801488105207682 0.000184748321771622 -0.0178902558982372 -0.0212167743593454 -0.0392680987715721 -0.0291467644274235 -0.0372198298573494 0.00309746176935732 -0.00884864013642073 -0.0210950989276171 -0.0153990536928177 -0.00820024218410254 -0.0439669415354729 -0.0370880030095577 -0.0423613339662552 -0.0233442485332489 -0.0300706550478935 -0.0390659458935261 0.00753416214138269 0.0166888907551765 0.0266702510416508 0.0130274789407849 0.0285102967172861 0.0495291240513325 0.0318576656281948 0.0548769384622574 0.0658267810940743 0.0260485578328371 0.00564427301287651 0.0271998178213835 -0.00123271706979722 -0.0263247713446617 -0.0271981302648783 -0.0393952541053295 -0.0318895466625690 -0.0149096054956317 -0.0111024789512157 -0.0283716153353453 0.0186331812292337 -0.00255486159585416 0.00800123251974583 -0.00159205379895866 0.0127889346331358 -0.0306003559380770 0.0100240837782621 0.00105666671879590 -0.00713309971615672 -0.00358005124144256 0.00577488914132118 -0.0333943776786327 -0.0306475926190615 -0.0574855841696262 -0.0382707677781582 -0.0625207275152206 -0.0575458332896233 -0.00573690608143807 -0.00172354653477669 -0.0159572549164295 -0.0229691434651613 -0.0285736136138439 -0.00669824285432696 0.00331537565216422 0.00692522944882512 0.0213655624538660 -0.0328125804662705 0.00491004856303334 -0.0213772859424353 0.00837992504239082 -0.00308464304544032 0.0112399393692613 0.0233733858913183
-0.0167841035872698 0.00519571034237742 0.0503960587084293 0.0312105845659971 0.0255519561469555 -0.0127453841269016 -0.0160223525017500 -0.0276295021176338 0.00352595909498632 0.0342204384505749 0.0353142544627190 0.0468624867498875 0.0180000532418489 -0.0368882156908512 -0.0373760834336281 -0.0310537032783031 -0.0413421168923378 -0.0116386674344540 -0.0201791375875473 0.0170970298349857 0.0698862001299858 0.0282998476177454 0.0173824299126863 -0.00659721996635199 -0.00241765915416181 0.0124386921525002 0.0323657542467117 0.0554648973047733 0.0510499775409699 0.0599755309522152 0.0192324370145798 0.0102223632857203 -0.0198740568011999 -0.00500851497054100 -0.0250462274998426 -0.0154825253412128 -0.0269656702876091 -0.0187320951372385 0.0179995093494654 -0.0143994688987732 0.00430368538945913 0.00155010784510523 -0.0199902467429638 -0.0358261950314045 -0.0291963201016188 -0.0209992937743664 0.00339702540077269 0.0212538260966539 0.0164491310715675 -0.0319209285080433 -0.00223877280950546 -0.0301548857241869 -0.0584754012525082 -0.0545059219002724 -0.0581863112747669 -0.0528654083609581 0.000727787788491696 0.00404614815488458 -0.00179719529114664 -0.000550427997950465 -0.00324468221515417 -0.0254279486835003 -0.0297787655144930 -0.00108272919896990 0.0266754943877459 0.0376147665083408 0.0505223274230957 0.0531383194029331 0.0106270322576165 0.00528045883402228 -0.00441734353080392 -0.0234004054218531 -0.0199127085506916 0.0222798381000757 0.0346953943371773 0.0647652074694634 0.0254731737077236 0.0120868366211653 -0.0278424099087715 0.00298316334374249 -0.0124573390930891 0.0117287924513221 -0.0107814231887460 -0.00467233033850789 -0.000993047258816660 0.0256697051227093 -0.0302772652357817 0.00868151895701885 -0.00860815215855837 -0.0232559759169817 -0.0112009374424815 -0.0221956390887499 0.00624436791986227 0.00277738971635699 0.0322397314012051 0.0333209000527859 -0.0186318960040808 -0.0104199321940541 -0.0168163403868675 -0.0298198051750660 -0.0150900268927217 -0.00299796997569501 0.0106952777132392 0.00487340940162540 0.00238398206420243 -0.0328431315720081 -0.0355464555323124 -0.0527493096888065 -0.0416695289313793 -0.0103414151817560 0.0184954963624477 0.0494590774178505 0.0627884715795517 0.0151453521102667 -0.0161462668329477 -0.0165980830788612 0.00420222384855151 0.000938040961045772 0.0119270300492644 -0.00185151572804898 0.0255132168531418 -0.000306027068290859 0.0150669533759356 0.00744126178324223 -0.0102330660447478 -0.0253619235008955 -0.0103048346936703 -0.0189569219946861 0.0361457951366901 -0.00939232204109430 0.0226529669016600 0.0132365329191089 0.00978890620172024 -0.00995958223938942 0.00451086880639195 0.0109965307638049 -0.000642913801129907 -0.0330528318881989 -0.0219703707844019 -0.0192006267607212 0.0278000347316265 -0.0133243659511209 -0.0355690792202950 -0.0185500457882881 -0.000123385470942594 0.0114339450374246 0.0298810657113791 0.0353363715112209 0.0309511106461287 0.0295428615063429 0.00817593745887280 0.0219205413013697 0.00524163851514459 0.0171761028468609 0.00698301661759615 0.0282035805284977 -0.0259649697691202 -0.0434105992317200 -0.00558722438290715 0.00321217789314687 -0.0493987947702408 -0.0613643042743206 -0.0572135299444199 0.0103083727881312 0.0233806557953358 0.0142874838784337 5.58330339117674e-06 -0.00608281278982759 -0.00192219507880509 0.00645712763071060 0.0272794757038355 0.0159626863896847 0.0370899587869644 0.0408474542200565 -0.00527307763695717 -0.00478766579180956 0.0308082140982151 0.0351707972586155 0.00324208429083228 -0.0392748117446899 0.0160503741353750 0.0306148938834667 0.0143485059961677 0.0156586971133947 -0.0133261512964964 0.0292276944965124 0.00469425553455949 -0.00432991143316031 -0.0289570912718773 -0.0203357990831137 0.0142841683700681 0.0362403057515621 0.0367580316960812 0.00357064348645508 0.0221235360950232 0.00211313623003662 -0.00873087532818317 -0.0101669672876596 0.00767284957692027 -0.00302488333545625 0.0220279656350613 0.0215640906244516 0.00830943137407303 0.0111144566908479 0.0102258082479239 -0.00663924310356379 -0.0180577095597982 -0.0315752513706684 -0.0665502995252609 -0.00719553651288152 -0.0136793637648225 -0.0477498807013035 -0.0123033458366990 -0.00433443486690521 0.00672182766720653 -0.0301153603941202 -0.0410429388284683 -0.00878157280385494 0.0303415730595589 0.0158705376088619 -0.0162258148193359 -0.0425031818449497 -0.0157376099377871 -0.00779998954385519 -0.0210327338427305 -0.0233117528259754 0.0251590255647898 0.0361947342753410 0.00610689632594585 -0.0362881533801556 -0.0137552870437503 0.0106865447014570 0.0145500293001533 -0.0214322842657566 -0.00502039259299636 -0.0150364860892296 0.0550771616399288 0.0405350513756275 0.0301752611994743 0.0186742562800646 0.0229155942797661 0.0295973476022482 -0.00421364186331630 0.0181168783456087 -0.00741713494062424 0.00381146953441203 -0.000839990039821714 -0.00734034692868590 -0.0310293938964605 -0.0340607166290283 0.00771426502615213 -0.0319918915629387 -0.0528293922543526 -0.0541966743767262 -0.0256572701036930 0.0189411919564009 0.0669657960534096 0.0425571091473103 0.00647690519690514 -0.0175884440541267 -0.0357139334082603 -0.00260386755689979 -0.0215543210506439 -0.00553108053281903 0.00745938625186682 0.0155950086191297 -0.00271620973944664 0.0227441545575857 0.0124073941260576 -0.0250715631991625 -0.0192138217389584 -0.0427405573427677 0.00452495040372014 0.0167986806482077 0.0515569932758808 0.0324082374572754 0.0254923105239868 0.00723489467054606 -0.0195186827331781 -0.0140966027975082 -0.0397067926824093 -0.0247112698853016 -0.0433689467608929 -0.0182826966047287 -0.0248123425990343 -0.00499219819903374 -0.0165877807885408 -0.0138097815215588 -0.0435754172503948 -0.0133129321038723 -0.0189285185188055 0.00496074976399541 0.0276084840297699 0.0566637516021729 0.0522767491638660 -0.00329985213465989 -0.0304614044725895 -0.0257707610726357 -0.0295437294989824 -0.00736588612198830 0.0147454459220171 0.00909939967095852 0.0542417690157890 0.00652820756658912 0.0162268821150064 -0.0422622747719288 -0.0631302222609520 -0.0535007491707802 -0.0283326394855976 0.0222168769687414 0.0153981596231461 0.0626400262117386 0.0297998264431953 -0.00458693457767367 -0.0113579016178846 -0.0129955168813467 -0.0246618259698153 -0.0127932727336884 -0.00574658019468188 0.0155026558786631 0.00157494633458555 0.00695002963766456 -0.00811373814940453 -0.00760241318494082 -0.0543658286333084 -0.0398394539952278 -0.0352055206894875 -0.0291679967194796 0.0172422435134649 0.0490341410040855 0.0501046478748322 0.0190097521990538 -0.0249122250825167 -0.0550923943519592 -0.0534298978745937 -0.0415843799710274 -0.0323596373200417 0.0224494487047195 0.0133707812055945 -0.0327871479094029 -0.0273504890501499 -0.00506265554577112 -0.0168227609246969 -0.0432446114718914 -0.0174517966806889 0.0122407497838140 0.0193730518221855 0.0326083861291409 0.0543765574693680 0.0256433486938477 -0.0176605619490147 -0.0211636107414961 -0.0469701699912548 -0.0160830784589052 -0.0183183327317238 0.0244292132556438 0.0248296801000834 0.0108343483880162 0.00255966139957309 0.00612232461571693 -0.0256364084780216 -0.0214899089187384 -0.0349052324891090 -0.0466654412448406 -0.0120099158957601 0.0315560959279537 0.0588395446538925 0.0596255809068680 0.00994628760963678 0.0296928733587265 -0.0207814816385508 -0.0287057310342789 -0.0293426197022200 -0.0160478204488754 0.00419584661722183 -0.0184276551008225 -0.0112134460359812 -0.0486717596650124 -0.0441403687000275 -0.0511962100863457 -0.0281163193285465 -0.0353176183998585 -0.00371135259047151 0.0318850241601467 0.00495132571086288 0.00512055633589625 0.000778465415351093 -0.0554396510124207 -0.0103375865146518 -0.00231580110266805 0.0265712346881628 0.0189672876149416 0.00587295135483146 -0.0150547064840794 -0.0108236111700535 -0.0316543728113174 -0.0217722207307816 -0.0226016622036695 -0.000255187711445615 0.0125665627419949 0.0200647823512554 0.0478214509785175 0.0545931383967400 0.0322935245931149 0.0320298373699188 -0.00451121758669615 0.0115984082221985 0.0258268378674984 0.0301725864410400 0.0327760912477970 0.0548031516373158 0.00591857312247157 0.0414420701563358 -0.00654561491683126 -0.0263560414314270 -0.00734384171664715 -0.0281776450574398 -0.0153567101806402 0.0377793274819851 0.0294473003596067 0.0291970800608397 0.0216286815702915 -0.0116467298939824 -0.0413365736603737 -0.0435462519526482 -0.0149550354108214 0.0296914763748646 0.0326238945126534 -0.00444638077169657 -0.00612259795889258 -0.0181278213858604 -0.0361233204603195 -0.0476183481514454 -0.0285652913153172 -0.0354180894792080 -0.00660037947818637 -0.0185088068246841 0.0212037768214941 0.0135037591680884 0.00572622613981366 -0.0166847575455904 -0.0210919957607985 -0.0174352526664734 -0.0325180813670158 0.00355611648410559 -0.00491565279662609 0.0127737699076533 0.0245762951672077 0.0179296489804983 0.0128589756786823 -0.0248939730226994 0.000909416296053678 0.0139259696006775 0.0217306856065989 0.0516295582056046 0.0422844514250755 0.0586924627423286 0.0151637308299541 0.0149581590667367 0.00435842527076602 -0.000642182421870530 0.0301974695175886 0.0374000594019890 0.0688208341598511 0.0634690299630165 0.0274358224123716 0.0209787786006928 0.0138614373281598 -0.00546976691111922 -0.0200290661305189 0.0120911858975887 0.000378945318516344 -0.00609879009425640 0.0705418735742569 0.0232528485357761 0.0190781429409981 -0.00294993445277214 0.00381807889789343 -0.0134477419778705 -0.0136698093265295 -0.0157094784080982 -0.000310410978272557 0.00840586051344872 0.0243848897516727 0.00916033983230591 0.0155342044308782 -0.00256275734864175 0.00764891738072038 -0.0184409804642200 -0.0287638884037733 -0.00972383469343185 -0.00778813706710935 0.0221566148102283 0.00293456460349262 0.00585014838725328 -0.0194804742932320 -0.00467644305899739 -0.0134809734299779 0.00284973019734025 0.0256214179098606 0.0203191749751568 0.0189252346754074 0.0156037956476212 -0.00744313141331077 -0.0118327792733908 -0.0311173144727945 -0.0406802967190743 -0.0198971591889858 0.00779359415173531 0.00689148297533393 0.0179876778274775 0.0308644920587540 -0.0270035918802023 -0.0284165665507317 -0.0226118154823780 -0.0486398078501225 -0.0379140786826611 -0.00913955643773079 0.0295057091861963 0.0606611967086792 0.00449493899941444 -0.0125094661489129 -0.0457672141492367 -0.0347838774323463 -0.0410359278321266 -0.0407593697309494 -0.0274044405668974 -0.0172534100711346 0.0417844764888287 0.00984487868845463 0.0186649430543184 -0.0393252559006214 -0.0304301381111145 -0.0353818424046040 -0.0730426609516144 -0.0105254463851452 0.0382415205240250 0.0601109266281128 0.0374036319553852 0.0181509442627430 -0.00945259816944599 -0.0266727320849895 0.0116284005343914 -0.0227541085332632 -0.0146401850506663 0.00330871483311057 0.0719750449061394 0.0526912026107311 0.0272503606975079 0.0234940424561501 -0.0411727428436279 -0.0357534065842629 -0.0134354569017887 -0.0223483480513096 0.0223512500524521 0.0676707848906517 0.0682904347777367 0.0437273979187012 -0.0146047975867987 -0.0245108958333731 0.00517293717712164 -0.0294845383614302 -0.0300450008362532 -0.00840095523744822 0.0476962886750698 0.0404660068452358 0.0134503990411758 -0.0149412536993623 -0.0512297153472900 -0.0419791899621487 -0.0717627257108688 -0.0526925213634968 -0.0164610370993614 0.0483316853642464 0.0842286348342896 0.0253512319177389 -0.0425451807677746 -0.0407652184367180 -0.0607132874429226 -0.107032157480717 -0.0228891037404537 -0.0150036718696356 0.0143022304400802 0.0431076213717461 0.0214803591370583 0.0109123662114143 -0.0286745522171259 -0.0448983386158943 -0.0265274569392204 -0.0605212934315205 -0.00178232649341226 0.0274403523653746 0.0859976708889008 0.0977886766195297 0.0256328005343676 -0.00793849583715200 -0.0307578984647989 -0.0182987693697214 -0.0262936092913151 -0.00297042471356690 0.0334026776254177 0.0551490969955921 0.0527827627956867 0.00635526981204748 -0.0250201113522053 -0.0410360582172871 -0.0389849171042442 -0.0512943565845490 -0.0408735647797585 0.0153087507933378 0.0786710456013680 0.0583794824779034 0.0292917434126139 -0.0519010946154594 -0.0606433711946011 -0.0346805900335312 -0.0402272045612335 -0.0363389961421490 0.0110346917062998 0.0177808962762356 0.0766534879803658 0.0155744450166821 -0.0182437114417553 -0.0475177466869354 -0.0395525060594082 -0.0208351910114288 0.0182002801448107 0.0336160250008106 0.0531491599977016 0.0856808871030808 0.0458421930670738 -0.0120583465322852 0.00404244149103761 -0.0265406109392643 -0.0372851788997650 -0.0310370307415724 -0.0118475928902626 0.0149586908519268 0.0537700913846493 0.0407811142504215 -0.00750236958265305 0.0139415850862861 0.0117130940780044 0.0213031806051731 0.0119662815704942 -0.00159095448907465 0.00967094395309687 0.0181195009499788 -0.00795267522335053 0.00557185104116797 -0.0172338373959065 -0.00611040368676186 -0.0465990230441093 -0.0237897895276546 0.0108984028920531 0.0338279157876968 0.0185671262443066 -0.0196076519787312 -0.0164434704929590 0.00896262936294079 0.00565703958272934 -0.00675837602466345 -0.0207651741802692 0.0219283252954483 0.0276924874633551 0.0359529852867126 0.0147465830668807 0.0136555433273315 0.0159613844007254 -0.0237383563071489 -0.0442540869116783 -0.0298308655619621 -0.0124685997143388 0.0201948862522841 0.0308613795787096 0.0396823696792126 0.00472058262676001 -0.00574739836156368 -0.0228629726916552 -0.00667047034949064 -0.0218642372637987 -0.00427036033943296 -0.00593426031991839 -0.0176062565296888 0.0108310887590051 -0.0177134405821562 -0.0277344547212124 -0.0200317744165659 -0.0321502052247524 -0.0420976318418980 -0.0170831475406885 -0.0131991505622864 0.0420331731438637 0.0232711751013994 0.0390880480408669 0.0448401793837547 0.0126502662897110 0.0127605926245451 0.00723197078332305 0.00875469855964184 0.0220397785305977 0.0449920818209648 0.0291786380112171 0.0206134561449289 -0.0300832930952311 -0.0201204773038626 -0.0232609566301107 -0.0202692840248346 -0.0231334343552589 0.0144704990088940 0.0434363521635532 0.0328503325581551 0.0341084674000740 0.0311947055160999 0.0189475677907467 0.0116616059094667 0.00387488724663854 -0.0254098698496819 0.0126087926328182 0.0207374170422554 0.0140587938949466 -0.0270362887531519 -0.0526770390570164 -0.0635651424527168 -0.0633332207798958 -0.0337455868721008 0.00313059403561056 -0.0237328745424747 -0.00495139695703983 0.0104378527030349 -0.0161797180771828 -0.00461758067831397 0.0107993660494685 0.0146740945056081 -0.0244753118604422 -0.0296182893216610 -0.00357517064549029 0.0360235944390297 0.0424721278250217 0.0180349815636873 0.0236879363656044 0.00874571688473225 -0.0218738000839949 -0.0436735674738884 -0.0643822103738785 -0.0337569750845432 0.0111328596249223 0.0159420091658831 -0.00414062337949872 -0.00200272002257407 -0.00368181616067886 0.0217907205224037 0.0109549667686224 -0.0279888696968555 -0.0105071440339088 0.0301783885806799 0.0479473359882832 0.0196523442864418 0.00924489274621010 -0.0444874130189419 -0.0138836530968547 -0.0398731566965580 -0.0469575822353363 -0.0288650989532471 0.00995384994894266 0.0330144762992859 0.0402124226093292 -0.00773619487881661 -0.0510265566408634 -0.00280354754067957 0.0238624140620232 0.0352436341345310 0.0270089060068131 0.0165402833372355 0.00745257362723351 -0.00640712166205049 -0.0296607837080956 -0.0536745339632034 -0.0162477418780327 0.0161605980247259 0.0470688417553902 0.0487756170332432 0.00962072703987360 0.0111455805599689 0.00201471336185932 -0.0143772773444653 -0.0226309616118670 -0.0407116487622261 0.0433658100664616 0.0481945835053921 0.0316515974700451 0.0106968805193901 0.00516524072736502 0.0271623916924000 0.0192519314587116 -0.0129807293415070 0.0138317672535777 0.0114679923281074 0.0775097981095314 0.0556135624647141 -0.0141084315255284 -0.0323504470288754 -0.00831910502165556 -0.0327544957399368 -0.0408458821475506 -0.0114137269556522 0.00483734067529440 0.0602031871676445 0.0351647958159447 0.0489711612462997 0.0178324040025473 0.0202046148478985 -0.00158417760394514 -0.0134161440655589 -0.0655359700322151 -0.00803290028125048 0.0523049905896187 0.0680629611015320 0.0438047312200069 -0.00568462768569589 -0.00244044838473201 -0.0255022589117289 -0.0285944417119026 -0.0565343014895916 -0.0146860796958208 0.00529578002169728 0.0235699564218521 0.0268057174980640 -0.0105422511696815 -0.00741579663008452 0.0299087017774582 -0.0167707055807114 -0.0241668596863747 -0.0125646349042654 0.0285575762391090 0.0235145650804043 0.0298846848309040 -0.00890396628528833 -0.0160976462066174 -0.0354191400110722 -0.0361767485737801 -0.0518075674772263 -0.0145642142742872 0.0266231186687946 0.0367363728582859 0.0140700675547123 -0.00127400970086455 0.00285976869054139 0.0393407680094242 -0.00732836825773120 -0.0318147018551827 -0.0395114086568356 -0.000405626225983724 0.0677314400672913 0.0460517033934593 0.0170229729264975 0.0295185688883066 -0.00623982073739171 -0.00332081317901611 -0.0352078787982464 -0.0172323230654001 -0.00690387794747949 0.0298654213547707 -0.00227773701772094 0.00616001058369875 -0.0277091804891825 -0.0112879713997245 0.000987418112345040 -0.0418463572859764 -0.0226261857897043 -0.0434148907661438 0.0138811534270644 0.0190010443329811 0.0341852717101574 -0.0312111228704453 0.0339972749352455 0.0578353591263294 0.0127879837527871 -0.0393394902348518 -0.0167958997189999 0.0691704377532005 0.0422712452709675 0.0436995886266232 0.000715121917892247 -0.00586513197049499 -0.0171434506773949 -0.0281697735190392 -0.0437317751348019 0.00271327886730433 0.0197049118578434 0.0552146881818771 0.0465044938027859 0.00653944024816155 0.0123451584950089 -0.0246676746755838 -0.0498194210231304 -0.00654477719217539 0.0189141537994146 0.00685919960960746 0.0128140803426504 -0.0624508373439312 -0.0399941056966782 -0.0174436662346125 -0.0128189213573933 -0.00331480288878083 0.0255006439983845 0.00676322868093848 0.0407482460141182 -0.00100181333255023 -0.0278044156730175 -0.0402062386274338 -0.0394751206040382 -0.0225221905857325 0.0168536547571421 0.0296020209789276 0.0601456761360168 0.0621731579303741 0.0305535811930895 -0.0187964048236609 -0.0640823245048523 -0.0305965356528759 0.00997251737862825 0.0218689944595099 -0.000998224946670234 0.0144696412608027 0.0178744196891785 0.0220462810248137 -0.0338123068213463 -0.0302139557898045 -0.0497057288885117 -0.00698601268231869 0.0226383600383997 0.0247996617108583 0.0158432703465223 0.0231376104056835 0.0457312762737274 -0.0172691307961941 -0.0258816964924335 -0.0236415229737759 0.00943637080490589 -0.0285203270614147 -0.0419390052556992 -0.0270502176135778 0.0193799808621407 0.0163203701376915 0.0157056432217360 -0.0376581437885761 -0.0302724055945873 -0.0591926574707031 -0.0404161922633648 -0.0687157213687897 -0.00121822534129024 0.0459859743714333 0.0518426559865475 0.00777556141838431 -0.0743712633848190 -0.0161391701549292 0.00945717282593250 0.0479116253554821 0.0486051328480244 0.0137608107179403 0.0136808156967163 0.0302830915898085 -0.0303987748920918 -0.0420111604034901 -0.0539097711443901 -0.0466049015522003 0.00110539468005300 -0.00682059535756707 -0.0139787960797548 0.0188671145588160 0.0140013378113508 -0.00351195060648024 -0.0558459609746933 -0.0720352903008461 -0.00750692328438163 -0.000973813119344413 0.0412430427968502 0.00825044512748718 0.0259498674422503 0.0160583965480328 0.0115111395716667 -0.0347567275166512 -0.0508301891386509 -0.0490032806992531 -0.0377117022871971 -0.0374481454491615 -0.0285722240805626 0.0243324432522059 0.0105467829853296 0.0406267084181309 -0.0151721993461251 -0.0527863912284374 0.00183114409446716 0.0217724256217480 0.0229771584272385 0.00271607306785882 0.0242432355880737 0.00428757397457957 0.0216958299279213 0.00493075139820576 -0.0264978725463152 -0.0403184108436108 -0.00718586612492800 0.0139922369271517 -0.00483663659542799 0.0379730798304081 0.0812423601746559 0.0778134912252426 -0.00496391300112009 -0.0541113950312138 -0.0473225563764572 -0.0203855037689209 0.0306548699736595 0.0162791162729263 0.0211368016898632 0.0273505914956331 0.0266228187829256 0.00122083909809589 -0.0332092829048634 -0.0486637428402901 -0.0445233136415482 -0.0412393584847450 -0.0494159013032913
0.0197643879801035 0.0360415019094944 0.0272874906659126 -0.00303748925216496 0.0361758843064308 0.0194070488214493 0.0136424582451582 0.0171425752341747 -0.000289931078441441 0.0348764695227146 0.0222325902432203 0.00902436114847660 -0.00337563664652407 -0.0377296470105648 -0.0400221981108189 -0.0401666797697544 -0.0133066773414612 0.00334147969260812 -0.00507392641156912 -0.0145079223439097 -0.0224537942558527 -0.00344252213835716 -0.00396645860746503 0.00424953922629356 0.0103451320901513 0.0309220030903816 0.0333046577870846 0.0287959165871143 0.00638483930379152 0.0429788231849670 0.0116923060268164 0.0122610926628113 0.0130840027704835 0.0135839870199561 -0.00815880019217730 -0.0202917233109474 -0.0337883830070496 -0.0311023723334074 -0.00591418799012899 -0.0432567447423935 -0.0605797432363033 -0.0747218281030655 -0.0396758615970612 -0.0186091698706150 0.00670828437432647 0.0365620553493500 0.0349731482565403 0.0286757368594408 0.00457161571830511 -0.0153739508241415 -0.0299726575613022 0.00869490485638380 0.0188062526285648 0.00834543909877539 0.0304273813962936 0.0213650595396757 -0.0125187868252397 -0.0343563631176949 -0.0629945397377014 -0.0739301666617394 -0.0839726254343987 -0.0565305612981319 -0.0255980864167213 0.0243121311068535 0.0250504408031702 0.0688705965876579 0.0453938394784927 0.0337524078786373 0.0489072352647781 0.0394578315317631 0.0504189431667328 0.0457273572683334 0.0372608117759228 0.0552458427846432 0.0240870118141174 0.00849315896630287 -0.0181591734290123 -0.0172264557331800 0.00333164399489760 -0.0428145229816437 -0.0680009499192238 -0.0546287782490253 -0.0444821529090405 -0.0171680636703968 -0.0144235454499722 -0.0284020863473415 -0.0160127840936184 0.00654531503096223 -0.0467809736728668 0.000900821003597230 0.0271723531186581 0.0102841909974813 -0.00897434819489718 -0.00614929944276810 0.00897019635885954 0.00491475546732545 -0.0102290203794837 -0.0195021834224463 0.00223400513641536 -0.0228011496365070 -0.0247091576457024 -0.00593207031488419 -0.0255992878228426 -0.0342944785952568 -0.0211910419166088 -0.0449660643935204 0.00208269804716110 0.0250591300427914 0.0334516838192940 0.0295745208859444 0.0649307593703270 0.0486431010067463 0.0184060111641884 0.0218790117651224 -0.00229903333820403 0.0217458475381136 0.0180858112871647 -0.0230899229645729 -0.0485477745532990 -0.0396060012280941 -0.0474539548158646 -0.0290157292038202 -0.0450278483331203 -0.0696784555912018 -0.0651865005493164 -0.0449118092656136 -0.0228396505117416 -0.00813086051493883 -0.00192412722390145 0.0409490689635277 0.0253777988255024 0.0212823729962111 0.0171696208417416 0.0417980067431927 0.00659017544239759 0.0234842654317617 0.00632580276578665 -0.0103227747604251 -0.0135792586952448 -0.0372036546468735 -0.0364544652402401 -0.0695891305804253 -0.0535472370684147 -0.0396657176315784 -0.0443954914808273 -0.0213856194168329 -0.0344304330646992 -0.0102751217782497 0.0379827767610550 -0.0117462286725640 -0.0177301503717899 0.0237711295485497 0.0244554597884417 0.0507651157677174 0.0316091813147068 -0.00501504773274064 0.0335344225168228 0.0203262027353048 0.00400485051795840 -0.0148416617885232 -0.0157237034291029 -0.0272558163851500 -0.0433770529925823 -0.0224083494395018 -0.0496633276343346 0.000838866282720119 -0.0174659397453070 0.0181961879134178 -0.0104792779311538 -0.00415311008691788 0.00329293869435787 0.0208433214575052 0.0329085066914558 0.0642458274960518 0.0428496487438679 0.0326633565127850 0.0345920585095882 0.00290758837945759 -0.0118748703971505 -0.0292406454682350 -0.0277784634381533 -0.0492887571454048 -0.0818107128143311 -0.0867999121546745 -0.0457791797816753 -0.0336375311017036 -0.0576628744602203 -0.0659333020448685 -0.0566357336938381 -0.0218446720391512 -0.0165760200470686 -0.00866999290883541 -0.0225245766341686 0.0356316976249218 0.0113787762820721 0.0109843555837870 -0.00630064355209470 0.0120448982343078 0.0136806173250079 0.00721977232024074 -0.0238041337579489 0.00355634326115251 -0.0230359472334385 -0.0437352582812309 -0.0398542210459709 -0.0529048331081867 -0.0410649813711643 -0.0466974973678589 -0.0442017242312431 -0.0197685193270445 0.0352619588375092 -0.00967270508408546 0.00898476969450712 0.00979204755276442 0.0414344593882561 0.0679017379879952 0.0627939701080322 0.0484158582985401 0.0348817780613899 0.00586748262867332 0.0195252485573292 0.00649313116446137 -0.00441622594371438 -0.00792947690933943 -0.0433424673974514 -0.0325803309679031 -0.0344339981675148 -0.0380494520068169 -0.0243718456476927 -0.0256364606320858 -0.0267450306564569 -0.0183890033513308 -0.00907792989164591 -0.0251032784581184 0.0109135359525681 0.0332100801169872 0.0461980290710926 0.0283667594194412 0.0312361251562834 0.0700301453471184 0.0501786433160305 0.0272986479103565 0.00961652211844921 0.0269680488854647 -0.0138422334566712 -0.0446803234517574 -0.0455516017973423 -0.0542280785739422 -0.0235914569348097 -0.0253386739641428 -0.0304297935217619 -0.0530857071280479 -0.0308049079030752 -0.0171035528182983 -0.00205408828333020 0.0118075013160706 0.0161236841231585 -0.00320364604704082 0.0232175998389721 -0.0151343774050474 -0.0104612717404962 -0.0178219433873892 -0.0193819720298052 -0.00326133240014315 0.00412064511328936 0.00754434661939740 0.000422645243816078 0.0104671586304903 -0.0273985397070646 -0.0375352278351784 -0.00953290611505508 -0.0270442236214876 -0.0186419319361448 -0.00723261618986726 -0.0371846556663513 0.00635241577401757 0.0317058786749840 -0.00344735779799521 0.0184248909354210 0.0127601586282253 0.0458532944321632 0.0310437418520451 0.00168523285537958 0.0451337210834026 0.0349139720201492 0.0196430776268244 0.0213710442185402 0.0132200643420219 0.0121806189417839 0.0337192974984646 0.0251031387597322 0.0460040308535099 0.0302651673555374 -0.0328367501497269 -0.0322012677788734 -0.0205294061452150 -0.0122955655679107 0.0256360899657011 0.0437649711966515 0.0620135851204395 0.0331137403845787 0.0204224996268749 0.0153859602287412 -0.0103586595505476 -0.0477193258702755 -0.0323803573846817 -0.0690003260970116 0.00494184251874685 0.00474024796858430 0.0442211776971817 0.0283039584755898 0.00832401681691408 -0.0232626050710678 -0.0482526123523712 -0.0618398897349834 -0.0684528052806854 -0.0203162357211113 -0.0191099569201469 0.0211164839565754 0.0373868346214294 0.0304339826107025 0.0109751224517822 -0.00746818119660020 0.0153059791773558 0.0356500335037708 0.0189233105629683 -0.0270891152322292 -0.00265069189481437 -0.00164669740479440 -0.00575675768777728 0.0141939334571362 -0.0102289291098714 0.0100602572783828 -0.0117911752313375 -0.0225844681262970 0.0115213748067617 0.0453445985913277 0.0427072644233704 0.00223910342901945 0.0436263084411621 0.0162659864872694 0.0502473562955856 0.0100850556045771 0.0394623093307018 0.0664337202906609 0.0267317332327366 0.0488356091082096 -0.0124512100592256 -0.0293813608586788 0.00802008714526892 0.0129706766456366 -0.0477667339146137 -0.0133734261617064 -0.0405543744564056 -0.0216267015784979 0.00634409859776497 0.00267147389240563 -0.0445810593664646 -0.0253026913851500 -0.0468924641609192 -0.0209789164364338 -0.00337737938389182 0.0135053694248199 -0.00741569092497230 -0.00303736818023026 0.0115552246570587 0.00393829541280866 -0.0114546446129680 -0.000229945304454304 -0.0181118845939636 -0.000781540293246508 -0.0138164684176445 0.0195018723607063 0.0359363704919815 0.0280097257345915 0.0683876350522041 0.0227884482592344 0.0171346478164196 -0.00356864440254867 0.0183606799691916 0.0274184178560972 0.0265289992094040 0.0347116962075233 0.0287795849144459 0.0326398462057114 0.0186696015298367 0.0291532371193171 0.0178009327501059 0.0253096036612988 0.0307187419384718 0.0289936307817698 0.0341108217835426 -0.0202411934733391 0.00544324191287160 -0.0114398598670959 -0.000641389458905906 0.0349129289388657 0.0207171682268381 0.00140468718018383 0.00313505018129945 0.00868156924843788 0.00724617904052138 0.0657549723982811 0.0247561838477850 0.0217693299055100 -0.00194157240912318 0.0187916681170464 0.0386017151176930 0.0267906747758389 0.0159693900495768 -0.0137531682848930 -0.00469956453889608 -0.0194476582109928 -0.0379281118512154 -0.0135208936408162 0.0149271646514535 -4.85265554743819e-05 0.0319364294409752 0.0124780498445034 -0.0444973893463612 -0.0643548220396042 -0.0445437952876091 -0.0426495410501957 -0.0183631256222725 -0.00995653867721558 0.000727672944776714 0.0397032499313355 0.0482207387685776 0.0278782416135073 -0.00847827363759279 0.000910160073544830 -0.00950274337083101 0.00169058493338525 0.00209107226692140 0.0246945936232805 0.0253138300031424 0.0293608233332634 0.0499732680618763 0.0541195124387741 0.0317468866705895 0.0401868857443333 0.0121392440050840 -0.0179115030914545 0.00439846189692617 -0.00205965759232640 0.0562881417572498 0.0832537040114403 0.0228696353733540 0.0130261015146971 0.00221385527402163 0.0216560401022434 -0.00691405311226845 0.0179922468960285 -0.00404625479131937 0.0179643239825964 0.0228880122303963 3.16205514536705e-05 -0.00765752373263240 0.000940225960221142 -0.0168651416897774 -0.0159674230962992 0.0112013919278979 -0.0143063878640533 -0.0381143242120743 -0.0186409950256348 0.00967726111412048 -0.00466471398249269 -0.0253851488232613 -0.00327743822708726 -0.0140373371541500 0.0122083388268948 0.0294090062379837 0.00550007075071335 -0.00339581607840955 -0.0415304936468601 -0.0167940165847540 -0.0139266988262534 -0.00931247696280479 -0.0149564072489738 0.0282393563538790 0.0487393923103809 0.0347279869019985 0.0162427667528391 0.000258840678725392 0.0146474707871676 0.0186120700091124 -0.00969862751662731 -0.0128181846812367 0.0296726096421480 0.0405868366360664 0.0245156716555357 0.0288239344954491 0.0435053035616875 0.00306146848015487 -0.0238078813999891 0.00517958542332053 -0.00499799381941557 -0.0195439066737890 0.0153680406510830 0.0299124792218208 0.0395893305540085 0.0195071324706078 0.0442331954836845 -0.00454638758674264 -0.00929039437323809 -0.0205733515322208 0.00118841766379774 -0.00953816156834364 0.0173823051154614 0.0325728505849838 0.0152236549183726 0.0262703653424978 -0.0260186865925789 -0.0320236980915070 -0.0327551923692226 -0.0343717969954014 -0.0319906435906887 -0.0121534047648311 -0.0142201278358698 -0.0499276630580425 0.0257107075303793 0.00803560297936201 -0.0234058648347855 -0.0218571219593287 0.00420627277344465 0.00460569700226188 0.0463820174336433 0.0524620860815048 0.0262018609791994 0.0247908923774958 0.00998885929584503 -0.000499966728966683 -0.0152133265510201 -0.0384014397859573 0.0199596714228392 0.0271337125450373 0.0376325175166130 0.0169531852006912 0.00378984166309238 0.00259821652434766 0.0392483063042164 0.0296124443411827 0.0354568473994732 0.0151170240715146 0.0199388228356838 0.0430224053561688 0.0295972414314747 0.0700462311506271 0.00825569406151772 -0.00762226060032845 -0.00687433267012239 -0.0133186914026737 -0.00535971997305751 0.0427559241652489 0.0298334509134293 -0.00667677540332079 0.000572423217818141 -0.0488867983222008 -0.0576422847807407 -0.0312653221189976 -0.0497258231043816 -0.0602992102503777 0.00756461545825005 0.00914044585078955 0.0234603583812714 0.0154062146320939 0.00735984044149518 -0.0116169825196266 -0.0344915241003037 0.00687161041423678 -0.0148263750597835 0.00487386109307408 0.0422605983912945 0.0494045689702034 0.0531466640532017 0.0103990593925118 -0.0650443434715271 -0.0389088541269302 -0.0426888242363930 -0.0237022079527378 0.00542132323607802 0.0514939725399017 0.0243039857596159 0.0206038821488619 0.0118250586092472 0.0203297659754753 0.0340033099055290 0.0137250022962689 -0.00813156180083752 -0.00712177064269781 0.0195011422038078 0.0256584435701370 0.0252485405653715 0.0145949618890882 0.00354749499820173 -0.000805165560450405 -0.0187769290059805 -0.0208783280104399 -0.00792489666491747 0.0233038831502199 0.0548657067120075 0.0120974779129028 -0.0380036346614361 -0.0342724695801735 -0.0206636078655720 0.000372271955711767 0.0384190492331982 -0.0105395112186670 -0.00293965428136289 0.0230496115982533 0.0145349940285087 0.0118151502683759 -0.00643137563019991 -0.0223598070442677 -0.0449770838022232 -0.0500338971614838 -0.00804473180323839 0.0183130763471127 0.0212245546281338 0.0132952881976962 -0.0109639531001449 -0.0675194784998894 -0.0501025542616844 -0.0385515615344048 -0.00262323347851634 0.0258508156985044 0.0306343752890825 0.0558465495705605 0.0204417444765568 0.0431427545845509 0.0320728905498982 -0.0296504404395819 -0.0503668934106827 -0.0418066754937172 -0.0211759861558676 -0.00860354211181402 0.0188674423843622 0.0193352457135916 0.0332456119358540 -0.00226352084428072 -0.00860486645251513 -0.0522364899516106 -0.0410252511501312 -0.0100273769348860 -0.00448911497369409 0.0129299098625779 0.0398314893245697 0.00737962545827031 0.00396637432277203 -1.29914337776427e-06 -0.00860579218715429 0.00466656591743231 0.00422487361356616 0.0240218583494425 0.0411238372325897 0.0383230634033680 0.0376563854515553 0.0117982933297753 -0.0117998160421848 -0.0110596613958478 -0.0523068793118000 -0.0376703888177872 -0.0347508229315281 -0.0375939644873142 -0.0202007479965687 -0.0372531935572624 0.00360579951666296 0.00853366497904062 0.0307273734360933 0.0158364903181791 -0.0244552902877331 -0.00292814173735678 0.0182664953172207 0.0374130420386791 0.0383084826171398 0.0260556414723396 -0.00672316877171397 0.00675142556428909 -0.0146097550168633 0.00845880713313818 -0.0276563484221697 -0.00578385917469859 -0.0380893051624298 -0.0266027599573135 -0.0210074447095394 -0.0289590638130903 -0.00178690056782216 0.00302095524966717 -0.0197535902261734 -0.0195254851132631 0.0106666376814246 0.0325089171528816 0.0282616019248962 0.0702419504523277 0.0239666607230902 0.00964129529893398 0.00932865031063557 -0.0147387692704797 0.0145911378785968 0.0265932120382786 0.0335391238331795 0.00128815695643425 -0.0218713674694300 -0.0494069531559944 -0.0266021415591240 -0.0379158891737461 -0.0107477521523833 -0.0180019363760948 -0.0143390903249383 0.0273408666253090 0.0404614023864269 -0.00593802845105529 -0.0422318987548351 -0.0484715886414051 -0.0521089658141136 -0.0330521874129772 -0.0104051791131496 -0.00969048216938973 0.0324093848466873 0.0118310470134020 0.00706210732460022 0.00806437246501446 -0.0257508363574743 -0.00863286759704351 -0.00522260600700975 -0.0220790747553110 0.00336398067884147 -0.0248439610004425 0.00393607467412949 -0.0217733476310968 0.0230725221335888 0.0158457364886999 0.00239245453849435 -0.0366822779178619 -0.0562402866780758 -0.0189521219581366 0.0346787683665752 0.0477484799921513 0.0587741695344448 0.0623929686844349 0.0504499301314354 0.0379529856145382 0.0264991186559200 0.0229170415550470 0.0487964563071728 0.0229103676974773 -0.00315344799309969 -0.00476466072723270 -0.0104463873431087 -0.0364828519523144 -0.0143179716542363 -0.0177638698369265 0.0144318016245961 0.0137876272201538 0.0262232571840286 0.0208892002701759 0.0532576367259026 0.0144577156752348 0.0304275490343571 -0.00134621420875192 -0.00107015552930534 0.00360530219040811 0.00464426353573799 -0.00283917947672308 0.0128064528107643 -0.000920051534194499 -0.0540693439543247 -0.0397645160555840 0.0404492504894733 0.0502656549215317 0.0354026481509209 0.0555810332298279 0.0496806427836418 0.0243097674101591 -0.00302053429186344 -0.0530076809227467 -0.0423259772360325 -0.0241180900484324 -0.0111944051459432 -0.0160360634326935 -0.0411177612841129 -0.0759261921048164 -0.0542304553091526 -0.0372428819537163 -0.0449785962700844 -0.0275349840521812 -0.00446021696552634 -0.0156073579564691 0.0306873749941587 0.0382253341376781 0.0274203810840845 0.0461318045854569 0.0102633116766810 0.00681760581210256 -0.00907319039106369 -0.0324445366859436 -0.0357168428599834 -0.0296055171638727 -0.0397830493748188 -0.0123456669971347 -0.0339171215891838 -0.0325144566595554 -0.0180945098400116 -0.0181658789515495 -0.0153908291831613 -0.00616841670125723 0.0250514801591635 0.00782052706927061 0.0264530815184116 0.0313498638570309 0.0251849368214607 0.0268127173185349 0.0237490329891443 0.0272617451846600 0.0494793914258480 0.0422574914991856 0.0289906393736601 -0.00805399566888809 0.0127899190410972 -0.00109378201887012 -0.0423779301345348 -0.0363473109900951 -0.0422963313758373 -0.00963334925472736 -0.0179811064153910 0.0161218922585249 -0.00519034173339605 -0.00843401066958904 0.00962904281914234 0.00298595591448247 0.00163900945335627 0.00207575759850442 0.0142883416265249 0.0228516589850187 0.0215140637010336 0.0245872940868139 0.0173237733542919 -0.0130011867731810 -0.0166842062026262 -0.0276253540068865 -0.0106301717460155 -0.0238088276237249 0.00838180724531412 0.0324295461177826 0.0104869604110718 0.00723285367712379 -0.0292927883565426 -0.0263784397393465 -0.0384350568056107 -0.0331094302237034 -0.0181195791810751 0.0181892830878496 0.0431631170213223 0.0284186918288469 0.0433580689132214 0.0364402234554291 0.0197286847978830 0.0178320016711950 0.0210961494594812 0.0315248221158981 0.000276135106105357 0.0120937703177333 0.0289075393229723 0.0178376883268356 -0.0481371954083443 -0.0363356582820416 -0.0474577806890011 -0.0318739451467991 -0.0518681257963181 -0.0463999919593334 -0.0521475933492184 -0.0144103011116385 -0.00624376023188233 0.0156861916184425 -0.0102449869737029 0.00472062779590488 -0.000606736168265343 -0.0102496296167374 0.0372138433158398 0.0341973342001438 0.00300089316442609 -0.0202191006392241 0.00290518719702959 -0.0459890812635422 -0.0456539765000343 -0.0603899993002415 -0.0258816834539175 -0.0209080539643765 -0.00565736088901758 0.0368661805987358 0.0313699431717396 0.00448807002976537 0.0200997553765774 0.00565946241840720 0.0161109939217567 -0.00575900077819824 0.0457997173070908 0.0284085497260094 0.00255116703920066 -0.0198461972177029 -0.0526045896112919 -0.0384463295340538 -0.00375976692885160 -0.0167054012417793 0.0177338197827339 0.0369356386363506 0.0207814145833254 -0.0301094725728035 -0.0270482897758484 -0.0596062541007996 -0.0337837934494019 -0.00281677115708590 0.0436321683228016 0.0598508566617966 0.0611559748649597 0.0354685075581074 0.0100873503834009 -0.00191229197662324 -0.00210250681266189 -0.0211706571280956 -0.0323587097227573 -0.0178186688572168 -0.0305135995149612 -0.0118585117161274 -0.0298821832984686 0.0156672801822424 -0.0179434400051832 -0.0117625063285232 -0.0146974492818117 0.00667703477665782 -0.0156656634062529 0.0194581784307957 -0.00889308564364910 0.0128274839371443 0.0165823139250278 0.00214407755993307 -0.0297225173562765 0.0262082871049643 0.00786203052848578 0.00299862120300531 -0.00432065222412348 0.0378464013338089 0.00891713704913855 -0.0130130909383297 -0.0124554885551333 -0.0128992740064859 -0.0476240478456020 0.00640670629218221 0.00511135859414935 0.00163160078227520 -0.000945784559007734 -0.00221665366552770 -0.0297860261052847 -0.0565546788275242 -0.0256328862160444 -0.00173046533018351 0.0329175814986229 0.0613359287381172 0.0240600630640984 0.0443608909845352 0.0213162023574114 0.0321531444787979 -0.00796111673116684 -0.0497151091694832 -0.0787202119827271 -0.0512214861810207 -0.0434000678360462 -0.0435374230146408 0.0243565477430820 -0.00334771792404354 -0.0320153981447220 -0.0232188962399960 -0.0613353662192822 -0.0549335889518261 -0.0520410984754562 -0.00497929658740759 0.0130548411980271 0.0323355793952942 0.0327236168086529 0.0451460294425488 0.0419708602130413 -0.00123425072524697 0.00842049997299910 0.0215825624763966 -0.0199151076376438 -0.00874234363436699 0.0210800021886826 -0.00181396235711873 0.0211180318146944 -0.00690809451043606 -0.00177121534943581 -0.0271074902266264 -0.0103813009336591 -0.0544817522168160 -0.0286222063004971 0.000282229011645541 -0.00521178450435400 0.0221809763461351 0.0212217047810555 -0.00845022127032280 0.0116424690932035 0.0235408954322338 0.0213558152318001 0.00556203024461865 0.0206980127841234 -0.00727265188470483 0.0298547204583883 -0.0484621450304985 -0.0741283223032951 -0.0481569431722164 -0.0755117610096932 -0.0534055083990097 -0.0691647380590439 -0.0710972771048546 -0.0501582734286785 -0.0182508993893862 -0.0289288163185120 -0.0261226370930672 -0.00974427442997694 0.00749084679409862 0.0291285682469606 0.0121868466958404 0.0229133684188128 0.0300081707537174
-0.0859377905726433 -0.0960569605231285 -0.0904689282178879 -0.0432409569621086 -0.0159197356551886 -0.00983017496764660 -0.0122339259833097 -0.00486649805679917 -0.0316820479929447 -0.0312856584787369 -0.0187039189040661 0.00517102936282754 -0.00790100451558828 -0.0342592149972916 -0.0239289551973343 -0.00860820151865482 -0.0254626534879208 -0.0522243268787861 -0.0265822820365429 -0.0372959300875664 -0.0349800735712051 0.00248403148725629 -0.0104175228625536 0.0156251527369022 0.00675907544791698 0.00169410882517695 0.0268920604139566 0.0739946514368057 0.0463588610291481 0.0838282927870750 0.0566927008330822 0.0545105747878552 0.0790747702121735 0.0199537985026836 0.0428342632949352 0.00312106451019645 -0.0176503211259842 -0.0508613176643848 -0.0326873958110809 -0.0415942780673504 -0.0365927889943123 -0.0369122922420502 -0.0203449651598930 -0.00180718232877553 -0.00521150277927518 0.00199504708871245 0.00921939592808485 -0.0115886097773910 -0.0168036650866270 -0.0136830387637019 0.00110049429349601 -0.0176750645041466 -0.0163707565516233 -0.0132099762558937 -0.0294229201972485 -0.0349480360746384 -0.0128903286531568 -0.0345064103603363 -0.0184060744941235 0.0184450484812260 -0.00157426274381578 -0.00877866987138987 -0.0177489332854748 -0.0299175214022398 -0.0198670942336321 0.0201637726277113 0.0372613482177258 0.0241669807583094 0.0361559838056564 0.0330452769994736 0.0401202626526356 0.0441159084439278 0.0445044264197350 0.0328189469873905 0.0245211701840162 0.00748359551653266 -0.0234385114163160 -0.0652893781661987 -0.0299515798687935 -0.0133398063480854 -0.0354550406336784 -0.0202985983341932 -0.0301173962652683 -0.0244639553129673 -0.0233317408710718 0.00175009283702821 -0.0290080364793539 -0.0332660749554634 -0.00329715292900801 -0.00546817062422633 -0.00196031108498573 -0.0256256107240915 -0.0224890951067209 -0.00701115326955915 -0.0137397302314639 -0.0237214863300324 -0.00475737825036049 0.00971288513392210 0.0196767617017031 0.0276937130838633 0.00197112397290766 0.0102534759789705 0.0292319171130657 0.0209104828536510 0.00310003431513906 0.00487609626725316 -0.0327404849231243 -0.0209183432161808 -0.0135158235207200 -0.00792149174958468 0.000614589953329414 0.0464797914028168 0.0154532948508859 0.0331210009753704 0.0376429110765457 0.0320826061069965 0.0254571363329887 0.0564977712929249 0.0352963171899319 0.0209007766097784 0.0152148474007845 0.0253959130495787 0.00637477822601795 -0.0122299399226904 -0.0390424914658070 -0.0452041216194630 -0.0513795316219330 -0.0740524232387543 -0.0161605235189199 0.00372213544324040 0.0167678389698267 0.0367593951523304 0.0488051585853100 -0.00257253949530423 0.0144799035042524 0.00712134782224894 0.00768297258764505 0.0552509538829327 0.0141770504415035 -0.00894936360418797 0.00691464543342590 -0.00589048676192761 -0.0189670082181692 -0.0133139891549945 0.0138924755156040 -0.0353373326361179 -0.00496478565037251 -0.00421219924464822 0.0255355816334486 0.00744057632982731 0.0291266907006502 -0.00277914572507143 -0.0311327278614044 0.0227371994405985 0.0132652698084712 0.0206364151090384 0.0287361517548561 0.0120648434385657 0.00486760772764683 0.0170128177851439 -0.0163367446511984 -0.00712154339998961 -0.0124816484749317 -0.0360684096813202 -0.0317364484071732 -0.0252320021390915 -0.0100902188569307 -0.0119715640321374 -0.0448880456387997 -0.0221569929271936 -0.0248206593096256 -1.90029149962356e-05 -0.00695215072482824 0.000523548922501504 0.0219844412058592 0.0244087465107441 0.0302232615649700 0.0469967313110828 0.0474657155573368 0.00650990381836891 0.000195640051970258 0.00716838752850890 -0.00829294882714748 -0.0127172172069550 -0.00870552659034729 -0.0269405469298363 -0.0284503698348999 -0.0233237203210592 -0.0275398958474398 -0.00848915521055460 -0.0267114266753197 0.0214361287653446 0.0190146472305059 0.0227623563259840 0.0120903309434652 0.0326599664986134 0.00307242060080171 0.0224099550396204 0.0128555977717042 0.0345924943685532 0.0254776943475008 -0.0132512683048844 0.0339930467307568 0.0154342036694288 0.00477155763655901 -0.00763111095875502 -0.000473378546303138 0.00845326296985149 0.0121177891269326 0.0110891256481409 -0.00240607559680939 -0.0308215245604515 -0.00408702762797475 0.0161590166389942 0.0133482906967402 0.0304612591862679 0.0301742162555456 0.00954766478389502 -0.00343655212782323 0.0318135470151901 0.0548663623631001 0.0442483946681023 0.0535666495561600 0.0152956787496805 -0.0255869217216969 -0.0177988205105066 -0.0281463097780943 -0.0172064509242773 -0.00840279366821051 -0.0140396701171994 -0.0406572371721268 -0.0321378372609615 -0.00208579818718135 -0.00266662752255797 0.0164697617292404 -0.00752804009243846 -0.0284569058567286 -0.0426537208259106 -0.0287270024418831 -0.00338895665481687 0.0101150069385767 0.0105226216837764 0.0287443902343512 0.00982373021543026 0.0143892094492912 0.00419831834733486 -0.0235224198549986 -0.00683844136074185 -0.00651215435937047 -0.0449685379862785 -0.0425900630652905 -0.0561715811491013 -0.0242252815514803 -0.0234196726232767 0.00153768004383892 -0.0206570122390986 -0.00598050793632865 0.0309149380773306 0.0319941788911819 0.0420059673488140 0.0373102799057961 0.0282614827156067 0.0169892571866512 0.0156762655824423 -0.00643312372267246 0.00868621468544006 -0.0374875739216805 -0.0365094989538193 0.00708657363429666 -0.0599646046757698 -0.0187769979238510 -0.0627377852797508 -0.0568174682557583 -0.0760384649038315 -0.102995008230209 -0.0832346454262734 -0.0650352910161018 -0.0351134650409222 0.0128094330430031 -0.000961765530519188 -0.0244074836373329 -0.00587850203737617 0.000825859024189413 -0.00347207649610937 -0.00152929394971579 -0.00777697889134288 0.0135793369263411 -0.00832154601812363 -0.0125924041494727 0.0291452892124653 -0.0262316837906837 -0.00970506388694048 0.0141519661992788 -0.00161498063243926 0.00542269740253687 0.0325534828007221 0.0450752936303616 0.0517381653189659 0.0317239351570606 0.0347489826381207 0.0424708537757397 0.0387001633644104 0.0277473591268063 0.0472873374819756 0.0101491520181298 -0.0196130555123091 -0.0318629145622253 -0.00324183003976941 -0.00890677701681852 -0.0211983900517225 -0.0240610595792532 -0.0210159532725811 -0.0259007774293423 0.00531804189085960 0.00282995286397636 -0.00794119853526354 -0.0103397984057665 0.00155977671965957 -0.0115354042500258 -0.00378797436133027 -0.00833743065595627 -0.0324207544326782 -0.00829558260738850 -0.0166146997362375 -0.0274017117917538 -0.0377614796161652 0.0119951358065009 -0.00530288461595774 -0.0187606364488602 0.0189857445657253 0.0366306751966476 0.0374729074537754 0.0335609652101994 0.0646608024835587 0.00880438834428787 -0.0237616840749979 0.000289841525955126 -0.00969151034951210 0.0270550400018692 0.0392779111862183 0.0289841685444117 0.0145829226821661 0.00994594767689705 -0.00714198499917984 -0.00964802689850330 0.0112613392993808 0.00890735629945993 0.00388813903555274 0.0219633001834154 0.0178128313273191 0.0306413341313601 0.0299055129289627 -0.00692677265033126 -0.0111839082092047 -0.0323262363672257 -0.00562900165095925 -0.0209737755358219 -0.0231883674860001 -0.0456599555909634 -0.0330970250070095 -0.0504144541919231 -0.0330895856022835 -0.0411329567432404 -0.0282610394060612 -0.00344805908389390 0.00781812239438295 -0.0127454008907080 -0.0286231990903616 0.0184570197016001 0.0541142188012600 0.0323486775159836 0.0316033028066158 0.0242010392248631 0.0264566596597433 0.0106993773952127 -0.000507254560943693 0.00738992309197784 0.00329235754907131 -0.0131633281707764 -0.0373275987803936 -0.0657546743750572 -0.0282125659286976 -0.0238286722451448 -0.0447200611233711 -0.0279291048645973 -0.0137390680611134 -0.0107001746073365 -0.0269253589212894 -0.0193191692233086 -0.0137763032689691 -0.00976559799164534 -0.0167437773197889 -0.0213005878031254 0.0150977186858654 -0.0143401427194476 -0.0308330785483122 -0.00154926499817520 0.00160955952014774 0.00790044572204351 0.000146864564158022 -0.0131075941026211 0.0341895334422588 -0.00350801739841700 0.0116610750555992 0.0138390986248851 0.0396075211465359 0.0283023584634066 -0.00207570940256119 0.0252844560891390 0.0328025780618191 0.0251633301377296 0.0228985249996185 0.0103973196819425 0.0330099575221539 0.0165936145931482 0.00168834067881107 -0.0140987234190106 -0.0142508046701550 0.000249169825110585 0.0175097640603781 0.00931612122803927 0.0202815122902393 0.0350297279655933 -0.0179391708225012 -0.0213164035230875 -0.0161392856389284 -0.0122983381152153 0.00468328362330794 0.00742159504443407 -0.0110741769894958 0.0245352517813444 -0.0174596793949604 0.00817056931555271 0.0153009602800012 -0.0164856407791376 0.0130132995545864 -0.00562115432694554 0.00218618917278945 0.00663573108613491 0.00584892742335796 0.0152439102530479 0.0168106369674206 0.0353967919945717 0.00707060378044844 -0.0169307868927717 -0.0211255401372910 -0.00926725100725889 0.0300994850695133 0.0273493584245443 -0.000510154524818063 0.00953438133001328 0.0112543627619743 0.00439056335017085 0.0138632645830512 -0.0111895063892007 -0.0289739780128002 -0.00111837754957378 0.0198912881314755 0.0308168381452560 0.0340558998286724 0.0229112077504396 -0.0132667794823647 0.000661631172988564 -0.0206227134913206 -0.0114914122968912 -0.00950982794165611 -0.0321640707552433 -0.0257339216768742 -0.0193446446210146 -0.0141912465915084 -0.000923145387787372 -0.0363986641168594 -0.0165586471557617 -0.0181512683629990 -0.0141099197790027 0.00861684232950211 -0.00905528664588928 -0.00230484222993255 0.0194656383246183 0.0250799674540758 0.0230472367256880 0.00979175791144371 0.0455033965408802 0.0235731173306704 0.0366680771112442 0.0408586114645004 0.00695061404258013 0.00682298094034195 0.0204091183841229 0.0213299784809351 -0.000428181403549388 0.0221778694540262 0.0199524220079184 0.00759340263903141 0.0279124826192856 0.0295712202787399 0.0516461357474327 0.0243404209613800 0.0374013818800449 0.0125192953273654 0.0272233188152313 0.0330474078655243 0.0158391036093235 0.0348955504596233 0.00811488274484873 -0.0232597813010216 0.00524489255622029 -0.0242615044116974 -0.0253416076302528 -0.0373699367046356 -0.0620524547994137 -0.0589204356074333 0.0499153472483158 0.0121000278741121 0.0152178825810552 -0.000528464559465647 -0.0187030863016844 -0.0280176866799593 -0.0295591540634632 -0.0136320134624839 -0.0166127793490887 -0.0106252850964665 -0.00578954862430692 -0.00752427242696285 -0.0221778601408005 -0.0309808366000652 -0.0272649507969618 -0.0295200105756521 -0.0170559063553810 -0.0269363559782505 -0.0261101610958576 -0.0431291908025742 0.0142293376848102 -0.0455460511147976 -0.0287737138569355 -0.0292507112026215 -0.0588545501232147 -0.0261156279593706 0.00159359502140433 0.0206288248300552 0.0125497709959745 0.0229135937988758 0.0401473566889763 0.0324842445552349 0.0168658588081598 0.00236453977413476 0.00918925739824772 -0.0325297676026821 0.0193248279392719 0.00933045335114002 0.00872008129954338 0.0113322753459215 -0.0164368916302919 -0.0168406907469034 0.0118561750277877 0.0195169262588024 -0.00672457693144679 0.0100525692105293 -0.00530891353264451 0.00843942444771528 0.0237161684781313 -0.0103614674881101 -0.0327911861240864 -0.0186310894787312 -0.0464455708861351 0.00981811527162790 -0.000600796309299767 0.00427991524338722 0.0341396518051624 -0.00406827125698328 0.0102722868323326 -0.0297717396169901 -0.0253660343587399 -0.0379556007683277 -0.0401450470089912 -0.0222997833043337 -0.0256553553044796 -0.00188387301750481 0.0174212753772736 -0.00271996459923685 -0.0395470224320889 -0.0376524254679680 -0.0349690578877926 -0.00107289769221097 0.0191426351666451 0.0202164556831121 0.0571330450475216 0.0526738762855530 0.0665224865078926 0.00132536655291915 0.00687773292884231 -0.00396385509520769 -0.000472240062663332 0.0119838090613484 0.00955758988857269 0.00312535837292671 0.0303447991609573 0.0201259125024080 -0.0155739625915885 -0.0371261872351170 -0.0211435556411743 -0.0114609664306045 0.00865913834422827 -0.000613255251664668 0.0134541559964418 -0.0133427726104856 0.00192369427531958 -0.0141707593575120 -0.0325010754168034 -0.0289796534925699 -0.0439982637763023 -0.0181020591408014 -0.0255718734115362 0.0213367789983749 0.00730078388005495 0.0157703347504139 -0.0191062204539776 -0.0354739762842655 -0.0354395247995853 -0.0532540380954742 -0.000689544132910669 -0.0128172980621457 -0.00595424277707934 0.0105477655306458 0.0283180195838213 0.0146250855177641 0.0160790123045445 0.0232080556452274 0.00820568669587374 0.0459089428186417 0.0360846780240536 0.00678873807191849 0.0581074319779873 0.0198831167072058 0.0609255954623222 0.0255331639200449 0.0218005813658237 0.0220291689038277 0.0390290580689907 0.0202556960284710 -0.0360070727765560 -0.0528874397277832 -0.0585666447877884 -0.0469183735549450 -0.0225754678249359 0.0257931984961033 0.00549475708976388 -0.0209864899516106 0.0253597348928452 0.0237799137830734 0.0376249775290489 0.0412073209881783 0.0379703454673290 0.00970387551933527 0.00152838428039104 -0.00557437678799033 0.0193762648850679 0.0448102988302708 0.0585636012256146 0.0492809452116489 0.0650738552212715 0.0610732510685921 0.0254754424095154 0.0254652686417103 0.0236134361475706 0.0294975470751524 0.0200675260275602 0.0104258898645639 0.0140770943835378 -0.0284094084054232 -0.0322046913206577 -0.0312961824238300 -0.0520517528057098 -0.0228136815130711 -0.0148873114958406 0.0284565836191177 0.00954939331859350 0.0122917713597417 0.00719053344801068 0.00114794308319688 -0.00836074445396662 -0.0247298143804073 -0.0129768392071128 -0.0217437110841274 -0.0290869567543268 -0.0208712406456471 0.0187931526452303 0.00482618575915694 -0.00803641881793737 -0.00528602954000235 -0.0615142956376076 -0.0233286805450916 -0.0229558013379574 -0.0498125068843365 -0.00219650473445654 0.0109671317040920 0.0450093187391758 0.0487365163862705 0.0488684400916100 0.0523120649158955 0.0524434670805931 0.0469134934246540 0.0404341705143452 0.00893526710569859 0.0171572901308537 0.0150389904156327 -0.00416813557967544 -0.0316129289567471 -0.0635891482234001 -0.0415014661848545 -0.0611048676073551 -0.0616283714771271 -0.0311190914362669 -0.0193321853876114 -0.00920189544558525 -0.0148879187181592 0.0256000980734825 0.000534372171387076 0.0106154093518853 -0.000632398820016533 0.00956649985164404 0.0205745212733746 0.0257992390543222 0.0166843403130770 -0.0229708440601826 -0.0474728606641293 -0.0543871633708477 -0.0523739904165268 -0.0476595610380173 -0.0436588339507580 -0.0262226983904839 -0.00119904684834182 -0.00989469513297081 0.000778575718868524 0.0426310636103153 0.0414055213332176 0.0121135730296373 0.0220903810113668 0.0334168747067452 0.0671765655279160 0.0800158455967903 0.0907883942127228 0.0790015906095505 0.0460950210690498 0.0348401926457882 -0.0310591142624617 -0.0199905708432198 -0.0360309071838856 -0.0651180148124695 -0.0527819916605949 -0.0263891741633415 -0.0145631087943912 -0.0261138454079628 -0.0140096526592970 -0.0301697347313166 -0.00528379762545228 0.0165831204503775 -0.00259679928421974 0.0392740853130817 0.0255417972803116 0.0151502070948482 0.000993990688584745 -0.0362610593438149 -0.0188309978693724 -0.0462116412818432 -0.0323183014988899 -0.0475900992751122 -0.0422813110053539 0.0216503329575062 -0.0109566142782569 0.0135050350800157 0.0115792164579034 0.00995716638863087 0.0248781889677048 0.0110506918281317 0.0358641333878040 0.0220688879489899 0.0219917055219412 0.00848567206412554 0.00634017400443554 0.000318652979331091 0.0361897237598896 0.0353778563439846 0.0412994287908077 0.0177985373884439 -0.00700191268697381 -0.0190862603485584 -0.0299704410135746 -0.0115894395858049 -0.0434266626834869 -0.0335306711494923 -0.0224704556167126 -0.00752383749932051 0.0229418352246285 0.0517668426036835 0.0249712411314249 0.0265320856124163 -0.0513949766755104 -0.0391271598637104 -0.0160315502434969 0.0219963230192661 0.0227057952433825 0.0453401431441307 0.0254393871873617 0.00409056665375829 -0.0150079960003495 -0.0249804519116879 -0.0700683146715164 -0.0305640287697315 -0.0662415474653244 -0.0125454263761640 0.0273928511887789 0.0224351901561022 0.0281670559197664 0.0350707061588764 -0.0137575576081872 0.0378288626670837 0.0445750802755356 0.0262203812599182 0.0675127878785133 0.0296747256070375 0.0596041828393936 0.0109113538637757 -0.00452771782875061 -0.0104051241651177 -0.00803317781537771 -0.0223526190966368 -0.0142413703724742 -0.0391630716621876 -0.0322304219007492 -0.0135665610432625 -0.00891462620347738 0.00680963322520256 0.0189187712967396 0.0271508842706680 -0.0191863700747490 0.0284924358129501 0.0457208678126335 0.0537227205932140 0.0413188077509403 0.0167524646967649 -0.00403790175914764 -0.0186185687780380 -0.0235359296202660 -0.0182878207415342 -0.0354251675307751 -0.0105400690808892 0.0216654520481825 0.0116365421563387 0.0128189800307155 0.0173738040030003 0.0176248755306005 -0.0110933063551784 0.0151895843446255 0.0285584386438131 0.0232107266783714 0.0492741614580154 0.0615067407488823 0.0315367504954338 0.0504969023168087 0.0333381667733192 -0.00348763749934733 -0.0166958663612604 0.00383814354427159 -0.00166081835050136 -0.000557444873265922 0.00436108745634556 -0.0357516631484032 -0.0445519238710403 -0.0226688776165247 -0.0342200510203838 -0.0144407898187637 0.0172316562384367 -0.0162361990660429 0.00361904222518206 0.0184745229780674 0.0189024694263935 0.0161275845021009 -0.00428728898987174 0.0120387859642506 0.00112105102743953 -0.0265510678291321 -0.00693375989794731 0.00979333464056253 0.0264568589627743 0.00836782529950142 -0.000239501416217536 -0.0369438901543617 -0.0188736207783222 -0.0209156163036823 -0.0188860930502415 -0.00830366089940071 0.0176775492727757 0.0275242198258638 0.0478799492120743 0.0366965048015118 -0.00848326086997986 -0.0402480326592922 -0.00344598595984280 -0.00779084581881762 0.00871519371867180 0.0173464585095644 0.0180753637105227 0.0255598034709692 0.000827810319606215 0.0133243342861533 0.0320565253496170 0.0486477166414261 0.0171323735266924 0.0304807014763355 0.0324810780584812 -0.00436134124174714 0.0294683147221804 -0.00327522261068225 -0.0111122420057654 0.0118780611082912 0.00560365896672010 0.0214015804231167 0.0352138206362724 0.0496581792831421 0.0220304392278194 0.0121088111773133 0.0243177246302366 -0.00240514194592834 -0.00381409190595150 -0.0199239943176508 -0.0145006245002151 -0.0208147428929806 -0.0402272157371044 -0.0334799811244011 -0.0466442219913006 -0.0749753713607788 -0.0739078596234322 -0.0657809525728226 -0.0847752541303635 -0.0772937387228012 -0.0301497206091881 0.0192514676600695 0.0158543549478054 0.00309721985831857 0.0184573959559202 -0.00520137511193752 -0.00495252665132284 -0.00260193087160587 -0.00601316522806883 -0.0100102918222547 -0.0166274663060904 0.0100577482953668 -0.0147300353273749 -0.0182104501873255 -0.00344662717543542 0.0103042377158999 0.0160299241542816 0.0277482215315104 0.00660881958901882 0.0112525336444378 0.0389717370271683 0.0365254282951355 0.0404402799904347 0.0388439893722534 0.0472304448485374 0.0153209399431944 0.0521299019455910 0.0254638902842999 -0.0240691676735878 -0.0160700287669897 -0.0459279119968414 -0.0518435798585415 -0.0583266839385033 -0.0700085088610649 -0.0906475782394409 -0.0932766944169998 -0.0793452188372612 -0.0505456589162350 -0.0308580715209246 -0.0177045762538910 -0.0188334081321955 -0.0157535728067160 0.0277272779494524 0.0217138733714819 0.00870282389223576 0.0150409499183297 0.00742999883368611 -0.00772270793095231 0.00161085347644985 0.00368287204764783 -0.0255124177783728 -0.0103854211047292 0.00846285000443459 -0.00545676564797759 -0.00958190485835075 0.00524605484679341 0.0148631157353520 -0.00453911814838648 0.0135346045717597 0.00725334510207176 0.0286136008799076 0.0193722192198038 0.0282328017055988 0.0448635332286358 0.0306844916194677 0.00121436023619026 0.00462906621396542 0.00237578619271517 -0.0113044390454888 -0.0263837315142155 0.00500154355540872 0.0158675685524941 -0.0225101187825203 0.000802365306299180 0.0117097888141871 -0.000171965511981398 0.00153700832743198 -0.0190040171146393 -0.0286420229822397 -0.00426481012254953 -0.0362261235713959 -0.0334797315299511 -0.0420787632465363 -0.0192867051810026 -0.0416166894137859 -0.00532943382859230 -0.0103074498474598 -0.0179660394787788
