-1.384679228067398071e-01
-7.184188580140471458e-04
4.179283231496810913e-02
2.066525071859359741e-01
-3.426681756973266602e-01
1.358058899641036987e-01
1.155533120036125183e-01
4.070655629038810730e-02
5.178415402770042419e-02
-1.456957608461380005e-01
1.418587267398834229e-01
1.193012073636054993e-01
3.849435970187187195e-02
-1.648249477148056030e-01
-1.793100535869598389e-01
1.116951107978820801e-01
2.915870398283004761e-02
-1.356055289506912231e-01
9.308316558599472046e-02
2.929034456610679626e-02
1.539334189146757126e-03
1.067948713898658752e-01
4.040869325399398804e-02
-2.360292710363864899e-02
-1.999149285256862640e-02
4.063110649585723877e-01
-3.168581724166870117e-01
2.448350191116333008e-01
-4.141943156719207764e-02
-4.113160669803619385e-01
1.698632389307022095e-01
1.217196509242057800e-02
-3.604432195425033569e-02
-1.929994821548461914e-01
2.259333990514278412e-02
-9.480837732553482056e-02
-4.941390082240104675e-02
-8.213461376726627350e-03
-3.196499124169349670e-02
-7.462868466973304749e-03
-1.277380436658859253e-01
-6.776141375303268433e-02
-9.800709784030914307e-02
1.376467645168304443e-01
2.467619068920612335e-02
6.189338490366935730e-02
-1.091985404491424561e-01
2.652984485030174255e-02
-8.934719488024711609e-03
2.909426949918270111e-02
1.454652007669210434e-02
-8.957805484533309937e-02
-5.966902896761894226e-02
5.113409459590911865e-02
-1.047297343611717224e-01
-2.720786631107330322e-02
-1.519283056259155273e-01
-8.717337995767593384e-02
2.685747854411602020e-02
-7.060223072767257690e-02
1.317720264196395874e-01
-1.984174735844135284e-02
-1.000545546412467957e-01
2.857852168381214142e-02
2.540885210037231445e-01
-9.548086673021316528e-02
-1.178878173232078552e-02
-1.175323352217674255e-01
1.328646242618560791e-01
1.592705957591533661e-02
5.720477551221847534e-02
1.237125508487224579e-02
1.847941279411315918e-01
6.626915186643600464e-02
1.048565749078989029e-02
1.275546848773956299e-01
-9.434336423873901367e-02
3.999386727809906006e-01
-9.275784343481063843e-02
4.031268954277038574e-01
2.769795954227447510e-01
1.970038712024688721e-01
-3.365120210219174623e-04
-1.560820192098617554e-01
-1.352713406085968018e-01
3.965267445892095566e-03
3.066883422434329987e-02
1.137009933590888977e-01
-4.081655293703079224e-02
1.220352575182914734e-01
-2.932934835553169250e-02
-1.823457889258861542e-02
1.941674947738647461e-01
-3.117467463016510010e-01
3.040214478969573975e-01
-2.690064907073974609e-01
9.795997291803359985e-02
5.304274335503578186e-02
-1.695837229490280151e-01
-1.924367249011993408e-01
7.259364426136016846e-02
-8.215799182653427124e-02
-1.601823270320892334e-01
8.180285990238189697e-02
2.014577686786651611e-01
-8.699501305818557739e-02
3.956099227070808411e-02
1.887062042951583862e-01
-4.698844999074935913e-02
-4.935266822576522827e-02
-3.795084729790687561e-02
-1.188568770885467529e-01
-1.290846467018127441e-01
-1.922187358140945435e-01
3.691321238875389099e-02
-7.572162151336669922e-02
-7.853040099143981934e-02
3.110553137958049774e-02
-7.776237279176712036e-02
-6.717152148485183716e-02
2.824427187442779541e-02
7.186593860387802124e-02
1.319241821765899658e-01
1.346911936998367310e-01
5.859060212969779968e-02
-2.067841030657291412e-02
-1.330073922872543335e-01
-5.147129297256469727e-02