0.367222481145291 -1.02561685423218 0.284861898864993 0.972443098105726 -0.0703849299514832 -0.688418228257739 0.784768656094604 0.537278006501209 -0.274599272501205 -0.965302266103348 1.37482616017818 -1.06320172322690 0.198198566718815 -1.38942401171209 0.824833351661062 -0.165903356041550 1.24709458150745 -0.986911775214219 1.17137699489654 0.817716867176281 -0.839247180413061 -0.0430822060246412 0.0485523383479498 0.204912646988807 -0.0377244574604556 0.421284289329785 -0.764311909067741 0.583850893089317 0.517043450137097 -0.466041557531307 -0.122087819938979 -0.0780783147576146 -0.651628930005245 0.216048973118025 0.999949622345239 0.761785445668103 -1.45097862217230 -0.686810428454443 1.15057533968594 0.214594365313872 -0.221509438978130 -0.661300567885709 -0.587218477175840 0.528395206348842 -0.221652181555030 -0.639827429684364 -0.855570789709278 -0.960113775888824 0.754716440431475 0.444622038573336 -0.131292779712491 -1.35489234436966 -0.584419139041438 -0.596784659466272 0.0455789865272177 -1.28391971342446 0.493193440632067 -0.0248366973537553 0.686456231875559 0.596335470349207 -0.197865292449368 0.130647315924382 0.465513759095704 -0.0786670706197182 0.769488359830575 -0.0786670706197182 0.465513759095704 0.130647315924382 -0.197865292449368 0.596335470349207 0.686456231875559 -0.0248366973537553 0.493193440632067 -1.28391971342446 0.0455789865272177 -0.596784659466272 -0.584419139041438 -1.35489234436966 -0.131292779712491 0.444622038573336 0.754716440431475 -0.960113775888824 -0.855570789709278 -0.639827429684364 -0.221652181555030 0.528395206348842 -0.587218477175840 -0.661300567885709 -0.221509438978130 0.214594365313872 1.15057533968594 -0.686810428454443 -1.45097862217230 0.761785445668103 0.999949622345239 0.216048973118025 -0.651628930005245 -0.0780783147576146 -0.122087819938979 -0.466041557531307 0.517043450137097 0.583850893089317 -0.764311909067741 0.421284289329785 -0.0377244574604556 0.204912646988807 0.0485523383479498 -0.0430822060246412 -0.839247180413061 0.817716867176281 1.17137699489654 -0.986911775214219 1.24709458150745 -0.165903356041550 0.824833351661062 -1.38942401171209 0.198198566718815 -1.06320172322690 1.37482616017818 -0.965302266103348 -0.274599272501205 0.537278006501209 0.784768656094604 -0.688418228257739 -0.0703849299514832 0.972443098105726 0.284861898864993 -1.02561685423218
0.924178033601493 -0.919289371560774 -0.777634774240733 0.489896063604616 -0.847557880312122 -1.20977807564498 -0.114773353678004 -0.0743260040798325 -1.45229553107561 0.0289670482696184 2.04057102513858 0.243150016922085 0.00599811896489672 -1.41968747518643 0.704143181742989 -0.876855901160797 0.170932667353563 -0.685355296273510 1.84715680500248 0.274848739228740 -0.590618252266960 0.00971082812807220 -0.186167425284902 -0.608399786217221 -0.685758383192278 0.219285050195265 0.165890908324926 -0.362809006508028 0.638757230822539 -0.250776424137290 -0.948593583991972 -0.00918270475719628 -1.08651505690068 0.231806249752788 0.620304814283856 0.483519016869269 -0.340271274794262 -0.221827419080983 0.0199872852203045 0.177657423744795 0.910181268249996 0.0734978778506813 -1.31479318781914 1.25807069396097 0.366941782273754 -0.600239999100737 -0.895232860493219 -0.519891295710566 -0.0489917528120799 0.288141882516736 -0.603034881569204 0.279500968122139 0.322770149186705 -0.987869160605108 0.520921199394176 -1.22996656096823 -0.216425688401835 -0.889886458751895 0.712323998382240 0.693358759476122 -0.916845978753931 1.27677323849088 0.812497019326397 1.41628402314731 0.808650983963162 1.41628402314731 0.812497019326397 1.27677323849088 -0.916845978753931 0.693358759476122 0.712323998382240 -0.889886458751895 -0.216425688401835 -1.22996656096823 0.520921199394176 -0.987869160605108 0.322770149186705 0.279500968122139 -0.603034881569204 0.288141882516736 -0.0489917528120799 -0.519891295710566 -0.895232860493219 -0.600239999100737 0.366941782273754 1.25807069396097 -1.31479318781914 0.0734978778506813 0.910181268249996 0.177657423744795 0.0199872852203045 -0.221827419080983 -0.340271274794262 0.483519016869269 0.620304814283856 0.231806249752788 -1.08651505690068 -0.00918270475719628 -0.948593583991972 -0.250776424137290 0.638757230822539 -0.362809006508028 0.165890908324926 0.219285050195265 -0.685758383192278 -0.608399786217221 -0.186167425284902 0.00971082812807220 -0.590618252266960 0.274848739228740 1.84715680500248 -0.685355296273510 0.170932667353563 -0.876855901160797 0.704143181742989 -1.41968747518643 0.00599811896489672 0.243150016922085 2.04057102513858 0.0289670482696184 -1.45229553107561 -0.0743260040798325 -0.114773353678004 -1.20977807564498 -0.847557880312122 0.489896063604616 -0.777634774240733 -0.919289371560774
-0.0603070288198069 -1.04630802983382 -0.361951670718588 -0.653049557764867 -1.02417522110693 -0.524293200084699 0.865487094609325 1.57900165495116 -1.16861244826983 -0.206357006958528 1.91209978596323 -1.67079145909128 -0.490985045794961 -0.881841913960822 -0.489021637963717 -0.442932802111501 -0.281363691456460 -0.392863752327139 1.16611244052242 0.687634711125919 -0.220898483899055 -0.315631950306391 0.404558049568010 0.326467845095311 0.538059388289851 -0.689615982784558 0.915926801330708 0.0441280310099601 -0.138812573738000 -0.626825707292499 -0.257466727233447 -0.120007454939408 0.282824812340550 0.0532893703656288 1.60972770515351 -0.206181562218235 -0.121100483176472 -0.236477219831803 0.0448117708551918 0.163197650512548 -0.0590301731678749 -0.603635097599354 -0.850460276659572 0.335561160042952 0.327358913996316 -0.0780139901325671 -1.22456855285184 0.221185645397979 -0.536425295498378 -0.242190527937735 -0.0667773263770889 -0.173403615693722 -0.403405649541655 -0.707726718952778 -0.000709435562451344 -0.000362945380727953 -0.687857880666855 -0.725613537858857 0.543471269341170 0.804936740821968 -0.640958050263465 -0.540634008575187 0.276356983445381 1.67848447044172 0.663457744172774 1.67848447044172 0.276356983445381 -0.540634008575187 -0.640958050263465 0.804936740821968 0.543471269341170 -0.725613537858857 -0.687857880666855 -0.000362945380727953 -0.000709435562451344 -0.707726718952778 -0.403405649541655 -0.173403615693722 -0.0667773263770889 -0.242190527937735 -0.536425295498378 0.221185645397979 -1.22456855285184 -0.0780139901325671 0.327358913996316 0.335561160042952 -0.850460276659572 -0.603635097599354 -0.0590301731678749 0.163197650512548 0.0448117708551918 -0.236477219831803 -0.121100483176472 -0.206181562218235 1.60972770515351 0.0532893703656288 0.282824812340550 -0.120007454939408 -0.257466727233447 -0.626825707292499 -0.138812573738000 0.0441280310099601 0.915926801330708 -0.689615982784558 0.538059388289851 0.326467845095311 0.404558049568010 -0.315631950306391 -0.220898483899055 0.687634711125919 1.16611244052242 -0.392863752327139 -0.281363691456460 -0.442932802111501 -0.489021637963717 -0.881841913960822 -0.490985045794961 -1.67079145909128 1.91209978596323 -0.206357006958528 -1.16861244826983 1.57900165495116 0.865487094609325 -0.524293200084699 -1.02417522110693 -0.653049557764867 -0.361951670718588 -1.04630802983382
0.557051796116866 -0.677372919009628 0.158353930934760 0.939061921627760 -0.456141922821981 -0.744620560157405 0.717186538906533 -0.510874091088820 -0.345276996732962 -1.44869031389605 0.566825437548040 0.827720061597114 0.125274423501060 -0.683484122861561 1.05476141486678 -1.70854863971364 0.835956528024877 -0.0385415602296945 0.955167671182483 -0.0302091080495760 -0.466365215618849 -0.597974853631899 -0.119601692539700 -0.0678695165404413 0.679407760450196 0.747474222373402 -0.218557242197105 -0.130151108810831 -0.258015260087225 -0.582723259322726 -0.677177637111305 0.209437785337142 0.340596851834562 0.243133017247974 0.108524711399272 0.172019339755250 -0.109909441797107 -0.533859427151716 0.501366047388966 0.679836238578156 -0.540078161653376 0.413517689554786 -0.339887070454124 -0.0592602911868958 0.406807363202212 -0.304780255037108 -0.865709343930490 -0.491087669824921 0.483729339962696 0.296754072194228 -1.04229854427239 -0.325017154092085 -0.268230372634410 0.463487402103032 0.0466829275968311 -1.68753414613171 -0.0979461421184176 0.828559508473952 -0.0270840455528993 -0.0821831717815675 -0.474378731687425 0.0991884476007578 0.245397196451022 -0.856520342338123 0.133450102526695 -0.856520342338123 0.245397196451022 0.0991884476007578 -0.474378731687425 -0.0821831717815675 -0.0270840455528993 0.828559508473952 -0.0979461421184176 -1.68753414613171 0.0466829275968311 0.463487402103032 -0.268230372634410 -0.325017154092085 -1.04229854427239 0.296754072194228 0.483729339962696 -0.491087669824921 -0.865709343930490 -0.304780255037108 0.406807363202212 -0.0592602911868958 -0.339887070454124 0.413517689554786 -0.540078161653376 0.679836238578156 0.501366047388966 -0.533859427151716 -0.109909441797107 0.172019339755250 0.108524711399272 0.243133017247974 0.340596851834562 0.209437785337142 -0.677177637111305 -0.582723259322726 -0.258015260087225 -0.130151108810831 -0.218557242197105 0.747474222373402 0.679407760450196 -0.0678695165404413 -0.119601692539700 -0.597974853631899 -0.466365215618849 -0.0302091080495760 0.955167671182483 -0.0385415602296945 0.835956528024877 -1.70854863971364 1.05476141486678 -0.683484122861561 0.125274423501060 0.827720061597114 0.566825437548040 -1.44869031389605 -0.345276996732962 -0.510874091088820 0.717186538906533 -0.744620560157405 -0.456141922821981 0.939061921627760 0.158353930934760 -0.677372919009628
-0.425075598264812 -0.839825973508669 -0.410499387034430 0.510419451003989 -1.29878106730385 0.359284325214622 -0.236165861670634 -0.842091704732931 -0.210945341461495 -1.20888557374609 1.04327565868157 2.30078339482569 0.474964895376948 -1.24837519548826 0.330125729935603 -1.84706662171133 -0.438283059797306 0.274853859575283 0.709185930322571 -1.06436717622516 -0.707058788167841 -0.587156116579738 0.245184733131149 -0.621686329860933 0.519486984711230 1.00632578345211 0.957186316572523 -0.470266917015022 -0.382903563534636 -0.643482561153675 -1.24953275280051 0.0174193229028687 -0.194775037845830 0.794200840025966 -0.249810214113112 0.148866823082310 0.173127469825028 0.489423108019698 0.0875031884940428 1.30347558906770 -0.724384652576417 1.06217171373202 -1.18209688469648 0.0877385823881964 0.179408823344543 -0.511614355202262 -0.318175872524066 -0.180462202998706 0.871294104836472 -0.245196799087578 -0.489831635067528 0.204135865100778 -0.332216532968370 -0.507012037672782 0.316652670301375 -1.42853525929701 -0.844985791172757 0.132619384705429 0.324174105220680 0.444619214470163 -0.344230210117850 1.92058013245383 0.470057600490239 0.0328256649838339 1.08840089887963 0.0328256649838339 0.470057600490239 1.92058013245383 -0.344230210117850 0.444619214470163 0.324174105220680 0.132619384705429 -0.844985791172757 -1.42853525929701 0.316652670301375 -0.507012037672782 -0.332216532968370 0.204135865100778 -0.489831635067528 -0.245196799087578 0.871294104836472 -0.180462202998706 -0.318175872524066 -0.511614355202262 0.179408823344543 0.0877385823881964 -1.18209688469648 1.06217171373202 -0.724384652576417 1.30347558906770 0.0875031884940428 0.489423108019698 0.173127469825028 0.148866823082310 -0.249810214113112 0.794200840025966 -0.194775037845830 0.0174193229028687 -1.24953275280051 -0.643482561153675 -0.382903563534636 -0.470266917015022 0.957186316572523 1.00632578345211 0.519486984711230 -0.621686329860933 0.245184733131149 -0.587156116579738 -0.707058788167841 -1.06436717622516 0.709185930322571 0.274853859575283 -0.438283059797306 -1.84706662171133 0.330125729935603 -1.24837519548826 0.474964895376948 2.30078339482569 1.04327565868157 -1.20888557374609 -0.210945341461495 -0.842091704732931 -0.236165861670634 0.359284325214622 -1.29878106730385 0.510419451003989 -0.410499387034430 -0.839825973508669
0.307173237932147 -0.766088444876500 -0.00105988304475002 -0.163518313660917 -1.19378760534372 -0.410635653500748 0.305119711208693 0.494604653150590 -0.815258704588795 -0.245860687514490 1.37326515117959 -0.0821798602667442 -0.503413279535526 0.284432337235893 0.630518406460253 -1.22099985757896 0.136037753626645 -0.561871376119856 -0.141536124909071 0.120551715647595 -0.531423484048273 -1.14729780756310 0.0356096889971563 0.441047976355516 0.723258044305205 -0.0225540263747387 1.68826759693098 -0.103316308585277 -0.927154766868867 -0.323223020946541 -0.669835367341803 -0.390006459696405 0.805177889036713 0.0384891980152630 0.679236036367217 0.0689921474912023 0.249897993164931 0.494534490415031 -0.582625188444399 -0.373966315380589 -0.846714213239704 0.925915939491805 -0.740421862512143 0.0967553318550569 0.837522103787759 -0.408560689752440 -0.735183864625658 -0.0867402674423676 0.643410757685140 -0.412885197075927 -0.238565027285637 0.442759851662780 -0.602195426781650 0.00295066203033373 0.725072772196254 -0.0948804848820489 -0.487911456252605 0.00215157472802890 0.483699177694222 0.285547788397948 -1.73304161987091 0.952749855128722 -0.663376094524816 0.452935599959405 0.239121211023303 0.452935599959405 -0.663376094524816 0.952749855128722 -1.73304161987091 0.285547788397948 0.483699177694222 0.00215157472802890 -0.487911456252605 -0.0948804848820489 0.725072772196254 0.00295066203033373 -0.602195426781650 0.442759851662780 -0.238565027285637 -0.412885197075927 0.643410757685140 -0.0867402674423676 -0.735183864625658 -0.408560689752440 0.837522103787759 0.0967553318550569 -0.740421862512143 0.925915939491805 -0.846714213239704 -0.373966315380589 -0.582625188444399 0.494534490415031 0.249897993164931 0.0689921474912023 0.679236036367217 0.0384891980152630 0.805177889036713 -0.390006459696405 -0.669835367341803 -0.323223020946541 -0.927154766868867 -0.103316308585277 1.68826759693098 -0.0225540263747387 0.723258044305205 0.441047976355516 0.0356096889971563 -1.14729780756310 -0.531423484048273 0.120551715647595 -0.141536124909071 -0.561871376119856 0.136037753626645 -1.22099985757896 0.630518406460253 0.284432337235893 -0.503413279535526 -0.0821798602667442 1.37326515117959 -0.245860687514490 -0.815258704588795 0.494604653150590 0.305119711208693 -0.410635653500748 -1.19378760534372 -0.163518313660917 -0.00105988304475002 -0.766088444876500
0.225191377394367 -1.37514752772227 -0.192387245494855 0.102598240872442 -0.0762743912650518 -1.09318293723967 0.170634640352555 -0.500851655238740 0.00892001680136334 0.941429861271443 -1.29115435984990 0.306683647232833 0.831328244628023 -0.249471563945377 -0.0945062849689044 -0.923495885614211 0.641829691031660 0.444023993724519 -0.00844603203283351 -0.908748093474247 -0.319390573919681 -0.826284377592728 0.640329359666246 0.793501936897165 -0.223952819191457 -0.360501128716985 -0.157732193161359 0.511956388254023 -0.949338928743557 -0.329314078174660 -0.486503906755047 0.00929359563639337 0.409144853707403 -0.249019259538302 -0.174169990393364 0.847908335549646 0.202578072428247 -0.661597260825676 -0.582740707078503 -0.824562708542300 -0.205634233960107 -0.280054482353549 -0.0730399821130647 0.0344837937139519 0.530017002510784 -0.607440175280735 -0.178665852446479 -0.832146097741960 -0.0459543304943398 0.137501771079784 -1.18597572440093 0.520968478756954 0.422455380934895 1.54108637548791 -0.810997601899858 -0.512027584562711 -0.896352415059378 0.563030383596838 -0.0113182544713083 -0.617249824288054 -0.170364792158873 -0.310885916015332 -0.0112431177314053 -0.603927845529122 0.0916661207447760 -0.603927845529122 -0.0112431177314053 -0.310885916015332 -0.170364792158873 -0.617249824288054 -0.0113182544713083 0.563030383596838 -0.896352415059378 -0.512027584562711 -0.810997601899858 1.54108637548791 0.422455380934895 0.520968478756954 -1.18597572440093 0.137501771079784 -0.0459543304943398 -0.832146097741960 -0.178665852446479 -0.607440175280735 0.530017002510784 0.0344837937139519 -0.0730399821130647 -0.280054482353549 -0.205634233960107 -0.824562708542300 -0.582740707078503 -0.661597260825676 0.202578072428247 0.847908335549646 -0.174169990393364 -0.249019259538302 0.409144853707403 0.00929359563639337 -0.486503906755047 -0.329314078174660 -0.949338928743557 0.511956388254023 -0.157732193161359 -0.360501128716985 -0.223952819191457 0.793501936897165 0.640329359666246 -0.826284377592728 -0.319390573919681 -0.908748093474247 -0.00844603203283351 0.444023993724519 0.641829691031660 -0.923495885614211 -0.0945062849689044 -0.249471563945377 0.831328244628023 0.306683647232833 -1.29115435984990 0.941429861271443 0.00892001680136334 -0.500851655238740 0.170634640352555 -1.09318293723967 -0.0762743912650518 0.102598240872442 -0.192387245494855 -1.37514752772227
0.00375190249178559 -1.27823319385806 -0.552451733834464 -0.397490487760284 -0.971380226370813 -0.392700459981088 -0.806701044438682 -1.70812130307455 0.243818534230384 0.0704258621121077 -1.21534255878605 1.14247040373940 0.785508675841634 -0.708645148969096 -0.286442043820486 -1.55846692316552 0.118306418081724 0.918971725289521 -0.962803098151063 -1.38761529409158 0.313227109081042 -0.336064002338064 0.304077893173636 -0.299642109373892 0.412130551097186 -0.201595223907552 0.744584205469639 0.166255123999658 -0.804234378083852 -0.479146998949955 -1.74204707985926 -0.122645429589907 0.322545507107861 0.940897448959366 -0.0479951370627783 0.383820050069792 0.731554665030509 0.886373348175272 -0.525916384213195 0.880029414199855 -0.345137072731041 0.818704488942401 -0.387280594064652 -0.623828893518770 0.575136742729941 -0.0144616466523963 0.264997868603260 -0.591281887330221 -0.273681824926266 -0.0999848286788135 -0.320062111194953 -0.0720989075067347 -0.0857929468884202 0.194453843478535 -0.893286293493410 -1.65530726779182 -1.72651517281915 0.594519477740791 0.163561275595264 0.252531588731754 0.438963704757131 0.0319505838244138 -0.498930441144482 0.0813369084296167 -0.231709996587597 0.0813369084296167 -0.498930441144482 0.0319505838244138 0.438963704757131 0.252531588731754 0.163561275595264 0.594519477740791 -1.72651517281915 -1.65530726779182 -0.893286293493410 0.194453843478535 -0.0857929468884202 -0.0720989075067347 -0.320062111194953 -0.0999848286788135 -0.273681824926266 -0.591281887330221 0.264997868603260 -0.0144616466523963 0.575136742729941 -0.623828893518770 -0.387280594064652 0.818704488942401 -0.345137072731041 0.880029414199855 -0.525916384213195 0.886373348175272 0.731554665030509 0.383820050069792 -0.0479951370627783 0.940897448959366 0.322545507107861 -0.122645429589907 -1.74204707985926 -0.479146998949955 -0.804234378083852 0.166255123999658 0.744584205469639 -0.201595223907552 0.412130551097186 -0.299642109373892 0.304077893173636 -0.336064002338064 0.313227109081042 -1.38761529409158 -0.962803098151063 0.918971725289521 0.118306418081724 -1.55846692316552 -0.286442043820486 -0.708645148969096 0.785508675841634 1.14247040373940 -1.21534255878605 0.0704258621121077 0.243818534230384 -1.70812130307455 -0.806701044438682 -0.392700459981088 -0.971380226370813 -0.397490487760284 -0.552451733834464 -1.27823319385806
0.271838514134288 -1.37746729900585 0.491750674636678 -0.352794504102913 -0.492635384869242 -1.91055414141607 0.0565486456425960 0.0889966234249459 0.411270584048854 0.382761929145460 -0.964825839218029 0.843542787541245 0.402400779527798 0.193989170769651 -0.220664729896964 0.222413581174584 -0.366886729114736 0.486985817797416 -0.856134415249282 -0.840346095390548 -0.0161147020994776 -0.856040552673821 -0.429477092430641 0.857079062256038 0.430040235775490 -0.527597442549860 0.586694366327965 1.65739237817556 -0.388387989455472 -0.141058523112937 -0.402478379123062 -0.859418236577618 0.603653331287205 0.0253574123627220 0.964092949352067 0.964984006331203 1.21501773184189 0.308749022656778 -0.530657380083289 -0.303289154621405 -0.752149129886657 -0.0253038622884448 -0.483377275183044 -0.0431619130240844 0.292015877994813 -0.0876614753334307 -0.527698628275523 -0.435541104397527 -0.0208981281881682 0.540156981016779 -1.04012988218323 -0.216702971640831 -0.233234963617556 0.930948778206732 0.0850354790797164 -0.685787769868379 -1.36991795486269 0.633193321985625 0.731976051417826 0.119560674721007 -1.14839938490625 -0.0997253556737736 -0.812826800329836 -0.0193314358815462 -1.00838139653206 -0.0193314358815462 -0.812826800329836 -0.0997253556737736 -1.14839938490625 0.119560674721007 0.731976051417826 0.633193321985625 -1.36991795486269 -0.685787769868379 0.0850354790797164 0.930948778206732 -0.233234963617556 -0.216702971640831 -1.04012988218323 0.540156981016779 -0.0208981281881682 -0.435541104397527 -0.527698628275523 -0.0876614753334307 0.292015877994813 -0.0431619130240844 -0.483377275183044 -0.0253038622884448 -0.752149129886657 -0.303289154621405 -0.530657380083289 0.308749022656778 1.21501773184189 0.964984006331203 0.964092949352067 0.0253574123627220 0.603653331287205 -0.859418236577618 -0.402478379123062 -0.141058523112937 -0.388387989455472 1.65739237817556 0.586694366327965 -0.527597442549860 0.430040235775490 0.857079062256038 -0.429477092430641 -0.856040552673821 -0.0161147020994776 -0.840346095390548 -0.856134415249282 0.486985817797416 -0.366886729114736 0.222413581174584 -0.220664729896964 0.193989170769651 0.402400779527798 0.843542787541245 -0.964825839218029 0.382761929145460 0.411270584048854 0.0889966234249459 0.0565486456425960 -1.91055414141607 -0.492635384869242 -0.352794504102913 0.491750674636678 -1.37746729900585
