0 0.0319111093504524 -0.990658505632579 -0.380397146571605 1.25769151662281 0.816271950577796 -1.21727286803591 0.922267003452861 0.677309920796228 -1.48320936590323 0.422578059232922 -0.849832430874351 1.13858848657791 0.762485344299685 0.363052015363722 -0.116803935299297 0.229927093448078 -0.358021290616338 -0.190783212708660 0.312959783663300 -0.722664470603862 -0.252681553574827 -1.03059205622927 0.658611519615026 -0.890430102361598 -0.873208360674140 -0.499433200470236 0.611317262259319 0.302520062814624 1.20044231774901 -0.259103917526454 -0.0965350893196375 -0.301680595235666 0.525741678922100 -0.131719188459962 0.0548619390314503 0.0283143609170377 0.297267052299922 -0.494035283003167 -1.32795518651481 -0.420680457070339 -0.522550519250326 0.716391322702632 -1.21250060702446 1.19587170117691 -0.123777645630869 0.650467732263043 -0.906902259719533 0.389659813564232 -0.517970634959143 0.141124361587532 -0.398907515793251 0.649270048869666 -0.267787472541676 0.0652952322344285 -0.468921587794586 -0.0291395310988398 0.107630753467228 0.955388387362226 0.444384241570852 0.210660565888174 -0.331986778124442 -0.396788853800923 0.829965488203569 0 -0.829965488203569 0.396788853800923 0.331986778124442 -0.210660565888174 -0.444384241570852 -0.955388387362226 -0.107630753467228 0.0291395310988398 0.468921587794586 -0.0652952322344285 0.267787472541676 -0.649270048869666 0.398907515793251 -0.141124361587532 0.517970634959143 -0.389659813564232 0.906902259719533 -0.650467732263043 0.123777645630869 -1.19587170117691 1.21250060702446 -0.716391322702632 0.522550519250326 0.420680457070339 1.32795518651481 0.494035283003167 -0.297267052299922 -0.0283143609170377 -0.0548619390314503 0.131719188459962 -0.525741678922100 0.301680595235666 0.0965350893196375 0.259103917526454 -1.20044231774901 -0.302520062814624 -0.611317262259319 0.499433200470236 0.873208360674140 0.890430102361598 -0.658611519615026 1.03059205622927 0.252681553574827 0.722664470603862 -0.312959783663300 0.190783212708660 0.358021290616338 -0.229927093448078 0.116803935299297 -0.363052015363722 -0.762485344299685 -1.13858848657791 0.849832430874351 -0.422578059232922 1.48320936590323 -0.677309920796228 -0.922267003452861 1.21727286803591 -0.816271950577796 -1.25769151662281 0.380397146571605 0.990658505632579 -0.0319111093504524
0 -0.297128600551980 -0.151122434475548 -1.28126337329327 -0.102027151037615 0.413800233315772 0.120694017021366 -0.373087876975910 1.56383358571571 -1.64209343465802 -0.0399410343455606 0.277618344228505 0.0993604128262838 -0.00884649313695751 0.974621589748928 -0.0624974344486976 0.666293613136834 0.743236489234373 0.0598865675887726 0.507848575883702 0.226315025635240 -0.943252855819789 -0.323123294676903 1.76184359787130 -1.70100843015279 -0.845485373808154 -1.06492048255942 0.487432463805380 0.714489104182581 0.883111886767987 -0.497921953426340 -0.249739602969599 -0.465039774309844 1.24117353768155 0.167001631036293 0.0957413506834433 0.490168162360044 -0.572287441715622 -0.499156331376308 -1.24801541432472 -0.985093932288420 -1.15033396561202 0.213439281198921 -0.627891717714574 0.802107732410889 -0.424886922985923 0.276009825537585 -1.35033736300786 0.268554811821407 -0.291506697271356 0.456767470052891 0.353179875658661 -0.0740791914392038 2.43125248578903 0.145461138984317 -0.305777692435974 -0.255880235206537 -0.417971084092405 0.280603744032056 0.664995686854808 0.146407424711040 0.208398304532411 -0.0754859771857021 0.133670278743595 0 -0.133670278743595 0.0754859771857021 -0.208398304532411 -0.146407424711040 -0.664995686854808 -0.280603744032056 0.417971084092405 0.255880235206537 0.305777692435974 -0.145461138984317 -2.43125248578903 0.0740791914392038 -0.353179875658661 -0.456767470052891 0.291506697271356 -0.268554811821407 1.35033736300786 -0.276009825537585 0.424886922985923 -0.802107732410889 0.627891717714574 -0.213439281198921 1.15033396561202 0.985093932288420 1.24801541432472 0.499156331376308 0.572287441715622 -0.490168162360044 -0.0957413506834433 -0.167001631036293 -1.24117353768155 0.465039774309844 0.249739602969599 0.497921953426340 -0.883111886767987 -0.714489104182581 -0.487432463805380 1.06492048255942 0.845485373808154 1.70100843015279 -1.76184359787130 0.323123294676903 0.943252855819789 -0.226315025635240 -0.507848575883702 -0.0598865675887726 -0.743236489234373 -0.666293613136834 0.0624974344486976 -0.974621589748928 0.00884649313695751 -0.0993604128262838 -0.277618344228505 0.0399410343455606 1.64209343465802 -1.56383358571571 0.373087876975910 -0.120694017021366 -0.413800233315772 0.102027151037615 1.28126337329327 0.151122434475548 0.297128600551980
0 -0.314797982887851 -1.27278485951406 -0.690985009507464 -0.665893697038149 0.880707610522274 0.447347833047879 0.0108427714038106 1.61526939239220 -1.13095300976667 -0.0224240265005201 0.0131520891752832 0.221590203509583 0.817841324796519 -0.0248227422867154 0.0408388526347808 0.334304332244114 -0.0135042277031104 0.167181769874815 0.243520640945636 -0.119558280054543 -0.856119528432889 -0.971919907774343 0.164061710168767 -0.605029483609540 -1.05616179217173 0.526159599261937 0.375773927698073 0.560088814530371 0.443972318898183 0.347919509924621 0.394014608623394 0.273481599753723 0.793108518704724 -0.961166640881677 0.576532834253295 0.0630243533386620 -0.0751633020766667 -0.481088210759015 -0.153956862319664 -1.16663514338145 -0.650479566416166 -0.218214814322181 -1.43367948765982 0.267158296358240 -0.926760548267681 0.538356402098120 -0.545531441916079 0.117691988800557 0.704403746543258 -0.200011530593599 0.619668182520776 0.204181081389813 -0.110368788752608 -0.934299819622970 -0.632495302004161 -0.767582482522017 -0.541653559056958 0.795350814712220 -0.151176988237968 0.429197141229152 0.0594527498079676 -0.353741634142866 -0.296071664424543 0 0.296071664424543 0.353741634142866 -0.0594527498079676 -0.429197141229152 0.151176988237968 -0.795350814712220 0.541653559056958 0.767582482522017 0.632495302004161 0.934299819622970 0.110368788752608 -0.204181081389813 -0.619668182520776 0.200011530593599 -0.704403746543258 -0.117691988800557 0.545531441916079 -0.538356402098120 0.926760548267681 -0.267158296358240 1.43367948765982 0.218214814322181 0.650479566416166 1.16663514338145 0.153956862319664 0.481088210759015 0.0751633020766667 -0.0630243533386620 -0.576532834253295 0.961166640881677 -0.793108518704724 -0.273481599753723 -0.394014608623394 -0.347919509924621 -0.443972318898183 -0.560088814530371 -0.375773927698073 -0.526159599261937 1.05616179217173 0.605029483609540 -0.164061710168767 0.971919907774343 0.856119528432889 0.119558280054543 -0.243520640945636 -0.167181769874815 0.0135042277031104 -0.334304332244114 -0.0408388526347808 0.0248227422867154 -0.817841324796519 -0.221590203509583 -0.0131520891752832 0.0224240265005201 1.13095300976667 -1.61526939239220 -0.0108427714038106 -0.447347833047879 -0.880707610522274 0.665893697038149 0.690985009507464 1.27278485951406 0.314797982887851
0 -0.519321483105787 -0.688782310535997 0.458586348781574 -0.156852191113235 0.659666663568395 -0.292476597947810 0.828650744302225 -0.227842094020630 -0.506382037449594 0.548005480330433 0.251555789367762 0.887389563174835 -0.000558304374149540 0.329117565631779 0.329830432095733 0.260592246685868 -1.11913516834370 -0.201566414840297 0.0586717440731335 -0.767251334181125 0.811204239450251 0.386135794202666 1.37069623969652 -0.107187450377128 -1.19568294011559 -0.952254796538909 0.369083854191173 1.35866592970718 1.10291924824204 0.248379434483221 0.583622937560619 -0.120098079147283 -1.45189390497310 -0.500556002245651 -0.304811646212153 0.175721145758955 -0.0329588106900559 0.756035367425450 -0.360634597868884 0.868774875277765 -0.301383705700434 0.501634109016625 -0.616887938519118 0.726308133660221 -0.237026958513842 0.778291931270121 -1.40921605533788 -0.115057489693406 -0.905090237044119 -0.00105675623810036 0.508752344174710 0.234457644015812 0.229566319585088 0.638763762656463 -0.918481058781187 0.481115259310488 -0.379041561780379 0.765161096408850 1.68360782954789 0.108105479860455 -0.287983911740972 0.524652338903985 0.217811844230257 0 -0.217811844230257 -0.524652338903985 0.287983911740972 -0.108105479860455 -1.68360782954789 -0.765161096408850 0.379041561780379 -0.481115259310488 0.918481058781187 -0.638763762656463 -0.229566319585088 -0.234457644015812 -0.508752344174710 0.00105675623810036 0.905090237044119 0.115057489693406 1.40921605533788 -0.778291931270121 0.237026958513842 -0.726308133660221 0.616887938519118 -0.501634109016625 0.301383705700434 -0.868774875277765 0.360634597868884 -0.756035367425450 0.0329588106900559 -0.175721145758955 0.304811646212153 0.500556002245651 1.45189390497310 0.120098079147283 -0.583622937560619 -0.248379434483221 -1.10291924824204 -1.35866592970718 -0.369083854191173 0.952254796538909 1.19568294011559 0.107187450377128 -1.37069623969652 -0.386135794202666 -0.811204239450251 0.767251334181125 -0.0586717440731335 0.201566414840297 1.11913516834370 -0.260592246685868 -0.329830432095733 -0.329117565631779 0.000558304374149540 -0.887389563174835 -0.251555789367762 -0.548005480330433 0.506382037449594 0.227842094020630 -0.828650744302225 0.292476597947810 -0.659666663568395 0.156852191113235 -0.458586348781574 0.688782310535997 0.519321483105787
0 -0.369740455556501 -0.0469470753054833 -0.0676432908796711 -0.661747626114030 -0.397741573073461 0.603512483792893 0.0660432820424075 0.150052195535508 -0.304830127254979 -0.0780363028871022 0.893822379444978 0.795692511421189 0.778222426739818 1.41178350860007 0.215847269815389 0.463328270293401 -0.157474303479537 -0.0660695645532947 -1.02508151441382 0.158542755472219 0.316280312355404 1.17550256025203 2.54670650495937 -0.537850313339845 -1.31372745408643 -2.10398649310607 -0.596800493541765 1.36629404003386 1.77564951985681 -0.502375805832144 0.935481469843616 -1.35304335755063 -0.0393386739281333 -0.219471260015325 0.348697589712638 0.485068553381975 0.331172840614264 0.264596069527783 -1.33805923225563 -0.125223485379575 -0.803916948561806 0.723432684509787 0.630756630417324 1.00349012929400 -0.302964649008325 0.349288061598840 -2.18802019589891 0.319610527302698 -0.342291060573317 1.05031733873622 0.471625733677659 -0.565507908729321 2.29181071202301 0.617455259026691 -0.918137910594837 -0.0620409749542408 -0.204293754827419 -0.412501487839264 1.38100075009485 -0.556618020681299 0.116340232512818 0.703761851121439 -0.723985544622932 0 0.723985544622932 -0.703761851121439 -0.116340232512818 0.556618020681299 -1.38100075009485 0.412501487839264 0.204293754827419 0.0620409749542408 0.918137910594837 -0.617455259026691 -2.29181071202301 0.565507908729321 -0.471625733677659 -1.05031733873622 0.342291060573317 -0.319610527302698 2.18802019589891 -0.349288061598840 0.302964649008325 -1.00349012929400 -0.630756630417324 -0.723432684509787 0.803916948561806 0.125223485379575 1.33805923225563 -0.264596069527783 -0.331172840614264 -0.485068553381975 -0.348697589712638 0.219471260015325 0.0393386739281333 1.35304335755063 -0.935481469843616 0.502375805832144 -1.77564951985681 -1.36629404003386 0.596800493541765 2.10398649310607 1.31372745408643 0.537850313339845 -2.54670650495937 -1.17550256025203 -0.316280312355404 -0.158542755472219 1.02508151441382 0.0660695645532947 0.157474303479537 -0.463328270293401 -0.215847269815389 -1.41178350860007 -0.778222426739818 -0.795692511421189 -0.893822379444978 0.0780363028871022 0.304830127254979 -0.150052195535508 -0.0660432820424075 -0.603512483792893 0.397741573073461 0.661747626114030 0.0676432908796711 0.0469470753054833 0.369740455556501
0 -0.267633533918339 0.171142548237561 -0.641198580976881 -0.853794448183246 0.348826693076225 -0.0560000649019694 0.906208094869093 0.548588606199867 -0.993970682391899 0.281478536446074 0.643642829554928 0.263458926690095 0.363476826452792 0.812294646700296 -0.662527860331109 0.677826291622209 -0.977434948451840 -0.0269577643136682 -0.128362094728801 0.223143491494986 -0.177689385675722 0.864131273497663 1.01786629710608 0.0272090204245096 -1.82691244578420 -0.0128066967147091 -0.129669167608004 -0.0546777525102049 0.988957161732837 0.212034541139334 0.690554605313751 -0.422950165113434 -0.426703489693756 -1.34241693759328 -0.112084292587951 0.580678225011600 -0.0590972100737263 -0.0880217493081167 -0.271134829705425 -0.924606896018548 -1.65143798007551 0.222940172579094 -0.483704025570013 -0.636287846505541 -0.109100046721900 0.0827187905176172 -0.724915680558927 0.0752398060020869 -0.390588338920039 -0.395495889289567 0.924365500072311 -0.275506254739261 0.502782495279871 -0.186343044991272 -0.223298286105585 -1.15556532106096 -0.486719953764651 0.131424359640362 0.243839607896251 0.482612970813376 -0.627799918277260 0.744550030507930 -0.826744076635433 0 0.826744076635433 -0.744550030507930 0.627799918277260 -0.482612970813376 -0.243839607896251 -0.131424359640362 0.486719953764651 1.15556532106096 0.223298286105585 0.186343044991272 -0.502782495279871 0.275506254739261 -0.924365500072311 0.395495889289567 0.390588338920039 -0.0752398060020869 0.724915680558927 -0.0827187905176172 0.109100046721900 0.636287846505541 0.483704025570013 -0.222940172579094 1.65143798007551 0.924606896018548 0.271134829705425 0.0880217493081167 0.0590972100737263 -0.580678225011600 0.112084292587951 1.34241693759328 0.426703489693756 0.422950165113434 -0.690554605313751 -0.212034541139334 -0.988957161732837 0.0546777525102049 0.129669167608004 0.0128066967147091 1.82691244578420 -0.0272090204245096 -1.01786629710608 -0.864131273497663 0.177689385675722 -0.223143491494986 0.128362094728801 0.0269577643136682 0.977434948451840 -0.677826291622209 0.662527860331109 -0.812294646700296 -0.363476826452792 -0.263458926690095 -0.643642829554928 -0.281478536446074 0.993970682391899 -0.548588606199867 -0.906208094869093 0.0560000649019694 -0.348826693076225 0.853794448183246 0.641198580976881 -0.171142548237561 0.267633533918339
0 -0.501584841418045 -0.0469825967922002 0.227222725377335 -1.09376526391645 0.509194925691355 0.768144539519791 1.37523592737235 -0.0119697467279820 -1.28120358431474 0.446456734151437 -0.448172195616508 0.501768297954919 -1.16663111030734 -0.972029807319938 0.252164366125442 0.360252874891416 -1.08169586836947 0.0752930499310037 0.440092103322888 0.746495005484457 0.400202614067094 1.24525718138319 -0.422021438032298 0.223152548221049 -0.719305350242259 -0.189919253020878 0.132955039092888 1.20969623313052 -0.450565757584182 -0.714056383971043 0.947065944248980 0.392502102709841 -0.683758124197073 -0.836775186051021 -1.12403096739389 0.112653474928360 0.891167390368916 1.01467650812866 1.38804120833164 0.828980014737790 1.02028732118495 0.0319371309494152 -0.846923742483911 -0.224931199406036 -1.33983727717402 0.818079461313612 0.129037565057747 -0.852062114060714 -1.21791505661912 0.326600397049772 0.0952944254689032 0.286069136742621 -0.0413113012903711 1.28581961182187 -0.183275810530638 -0.167536113185377 -1.17242452778660 0.228567371623886 0.644170852032553 -1.31124192045845 -0.0563882154870373 -0.546916871276000 0.476048743746346 0 -0.476048743746346 0.546916871276000 0.0563882154870373 1.31124192045845 -0.644170852032553 -0.228567371623886 1.17242452778660 0.167536113185377 0.183275810530638 -1.28581961182187 0.0413113012903711 -0.286069136742621 -0.0952944254689032 -0.326600397049772 1.21791505661912 0.852062114060714 -0.129037565057747 -0.818079461313612 1.33983727717402 0.224931199406036 0.846923742483911 -0.0319371309494152 -1.02028732118495 -0.828980014737790 -1.38804120833164 -1.01467650812866 -0.891167390368916 -0.112653474928360 1.12403096739389 0.836775186051021 0.683758124197073 -0.392502102709841 -0.947065944248980 0.714056383971043 0.450565757584182 -1.20969623313052 -0.132955039092888 0.189919253020878 0.719305350242259 -0.223152548221049 0.422021438032298 -1.24525718138319 -0.400202614067094 -0.746495005484457 -0.440092103322888 -0.0752930499310037 1.08169586836947 -0.360252874891416 -0.252164366125442 0.972029807319938 1.16663111030734 -0.501768297954919 0.448172195616508 -0.446456734151437 1.28120358431474 0.0119697467279820 -1.37523592737235 -0.768144539519791 -0.509194925691355 1.09376526391645 -0.227222725377335 0.0469825967922002 0.501584841418045
0 -0.270133507826428 0.139525798005564 -0.543927508247524 -1.23430062082386 0.206420656476887 0.830421308805094 0.425553357049110 -0.0870057029937076 -0.745196306755154 0.266596622928682 0.365605218809671 0.584849956578982 -0.836277454718524 -0.362303457955215 0.0439303736485489 1.05806281992022 -0.205637364036725 -0.379825618656194 -0.566922312711521 0.982744266906224 0.817354697527102 1.83224581491878 0.106788044349387 -0.210697704886342 -1.02079114621122 -0.179477068917972 -0.790970114489787 0.775487130240463 0.183581452726135 -0.731902076688033 2.06816803287684 0.389364716131240 -0.551086635935322 -0.107710714368665 -0.767998481021256 -0.325619745812757 1.30199300003581 -0.0380986739280027 0.354650309519181 0.490789202258379 0.588666898782797 0.355957694463385 0.351416548590122 0.118033486437115 -1.73732652296487 0.452790563921814 -0.221911110663754 -0.861790069222712 -0.260368912361594 0.775778192261213 0.648461121509358 -0.0760483272870557 1.03615034415309 1.12411941173240 -0.443177344547388 -0.698303299994370 -0.259922499433838 -0.600827876523801 1.42730361529548 -1.53281278873188 0.00990937879231274 -0.252724563707395 -0.655524565652163 0 0.655524565652163 0.252724563707395 -0.00990937879231274 1.53281278873188 -1.42730361529548 0.600827876523801 0.259922499433838 0.698303299994370 0.443177344547388 -1.12411941173240 -1.03615034415309 0.0760483272870557 -0.648461121509358 -0.775778192261213 0.260368912361594 0.861790069222712 0.221911110663754 -0.452790563921814 1.73732652296487 -0.118033486437115 -0.351416548590122 -0.355957694463385 -0.588666898782797 -0.490789202258379 -0.354650309519181 0.0380986739280027 -1.30199300003581 0.325619745812757 0.767998481021256 0.107710714368665 0.551086635935322 -0.389364716131240 -2.06816803287684 0.731902076688033 -0.183581452726135 -0.775487130240463 0.790970114489787 0.179477068917972 1.02079114621122 0.210697704886342 -0.106788044349387 -1.83224581491878 -0.817354697527102 -0.982744266906224 0.566922312711521 0.379825618656194 0.205637364036725 -1.05806281992022 -0.0439303736485489 0.362303457955215 0.836277454718524 -0.584849956578982 -0.365605218809671 -0.266596622928682 0.745196306755154 0.0870057029937076 -0.425553357049110 -0.830421308805094 -0.206420656476887 1.23430062082386 0.543927508247524 -0.139525798005564 0.270133507826428
0 -0.320448587631285 -0.440223720289646 0.347548407820406 -1.00119861701523 0.883711017449885 -0.254097314862649 1.25041228974557 0.137877890319046 -1.52895584253265 0.700970176934645 -0.550558976650052 0.589925105284954 -0.725497220944932 -0.486088996630392 0.286136757275376 0.792824486286054 0.0727718820131875 -0.493803089410882 0.117743963963936 -0.342227203327874 0.433122517558159 1.44831394943562 -0.102293470454818 0.305423444932171 -0.779146674026194 0.636256238187740 -0.596474060463026 -0.943102686103614 0.617481026856000 -0.556103342725085 1.49134855747641 -0.305007416289300 -1.09579265483832 -1.12259790805537 -0.543708752475802 0.368765586499944 0.676775313537903 -0.731077110246037 0.264265773047340 -0.312902107152990 -0.121765608978115 0.481554939212494 0.129606922139753 -0.704375276005109 -0.948288758300987 0.111334976443054 0.402493104849448 -1.03449259138047 -1.57518244235426 -0.142972334319785 0.940463369096808 0.346849276323003 0.311728663316175 0.547975139861502 -0.258476285603499 -1.31579450953871 0.776297355738325 -0.955737750015556 -0.144256723252042 -0.693491538234538 -0.301189161122318 -0.133251545884494 -0.268550552484210 0 0.268550552484210 0.133251545884494 0.301189161122318 0.693491538234538 0.144256723252042 0.955737750015556 -0.776297355738325 1.31579450953871 0.258476285603499 -0.547975139861502 -0.311728663316175 -0.346849276323003 -0.940463369096808 0.142972334319785 1.57518244235426 1.03449259138047 -0.402493104849448 -0.111334976443054 0.948288758300987 0.704375276005109 -0.129606922139753 -0.481554939212494 0.121765608978115 0.312902107152990 -0.264265773047340 0.731077110246037 -0.676775313537903 -0.368765586499944 0.543708752475802 1.12259790805537 1.09579265483832 0.305007416289300 -1.49134855747641 0.556103342725085 -0.617481026856000 0.943102686103614 0.596474060463026 -0.636256238187740 0.779146674026194 -0.305423444932171 0.102293470454818 -1.44831394943562 -0.433122517558159 0.342227203327874 -0.117743963963936 0.493803089410882 -0.0727718820131875 -0.792824486286054 -0.286136757275376 0.486088996630392 0.725497220944932 -0.589925105284954 0.550558976650052 -0.700970176934645 1.52895584253265 -0.137877890319046 -1.25041228974557 0.254097314862649 -0.883711017449885 1.00119861701523 -0.347548407820406 0.440223720289646 0.320448587631285
