-4.036086611449718475e-03 -8.355996571481227875e-03 9.329268359579145908e-04 5.054714623838663101e-03 8.791978470981121063e-03 4.578856751322746277e-03 -7.716240826994180679e-03 4.142394755035638809e-03 -5.370934959501028061e-03 -1.156881265342235565e-02 -5.745580419898033142e-03 1.876736525446176529e-03 -2.378785982728004456e-03 -1.631443761289119720e-02 -2.590512158349156380e-03 1.588608883321285248e-02 2.113731764256954193e-02 3.473631665110588074e-02 9.836210869252681732e-03 7.635015528649091721e-03 7.669409736990928650e-03 1.844199933111667633e-02 1.098109688609838486e-02 5.650462117046117783e-03 2.973579801619052887e-02 1.407382823526859283e-02 -2.853352809324860573e-03 -7.834279676899313927e-04 2.317834272980690002e-02 1.413960708305239677e-03 -1.009134016931056976e-02 1.269879052415490150e-03 2.013511396944522858e-02 3.768061753362417221e-03 -1.067471131682395935e-02 -1.563732139766216278e-02 9.939891286194324493e-03 2.181097306311130524e-02 5.200320389121770859e-03 1.099854242056608200e-02 1.863341592252254486e-02 4.982551559805870056e-03 3.807980800047516823e-03 4.194574896246194839e-03 2.562469616532325745e-02 2.693245001137256622e-02 1.124912686645984650e-02 3.152513410896062851e-03 -2.642929786816239357e-03 4.663197323679924011e-03 1.673994399607181549e-02 -4.654040094465017319e-03 1.156636327505111694e-02 1.514549460262060165e-02 -9.567106608301401138e-04 1.603172346949577332e-02 7.895352318882942200e-03 5.147303454577922821e-03 1.163930865004658699e-03 -3.360809059813618660e-03 2.383261919021606445e-03 -5.337051581591367722e-03 4.091801587492227554e-03 1.100184116512537003e-02 4.126496613025665283e-02 8.193253539502620697e-03 1.878169737756252289e-02 2.403085120022296906e-02 3.024647943675518036e-02 2.115548960864543915e-02 2.865561470389366150e-02 1.510816439986228943e-02 2.620044723153114319e-02 4.059608560055494308e-03 1.048884075134992599e-02 8.075066842138767242e-03 2.350576967000961304e-02 3.757022088393568993e-03 -1.201851526275277138e-03 2.255013212561607361e-03 2.247296646237373352e-02 3.483846550807356834e-03 2.848906628787517548e-02 2.546549588441848755e-02 2.755594812333583832e-02 1.807677559554576874e-02 2.590597793459892273e-02 2.352639101445674896e-02 2.732028625905513763e-02 2.399441599845886230e-02 1.839063875377178192e-02 3.123244643211364746e-02 1.676446385681629181e-02 2.276152558624744415e-02 2.339213527739048004e-02 7.041081786155700684e-03 3.070199163630604744e-03 -6.061810534447431564e-03 1.043626386672258377e-02 2.010623225942254066e-03 1.205147989094257355e-02 1.941153593361377716e-02 2.999501489102840424e-02 2.380633167922496796e-02 1.103333849459886551e-02 1.338014565408229828e-02 9.884074330329895020e-03 2.919839462265372276e-03 1.467509008944034576e-02 2.776077948510646820e-02 2.114806324243545532e-03 -9.683846496045589447e-03 -5.771512165665626526e-03 8.162208250723779202e-04 1.243923883885145187e-02 1.582795195281505585e-02 7.358148228377103806e-03 1.326764281839132309e-02 2.413052320480346680e-02 3.275091201066970825e-02 2.675386518239974976e-02 3.259086515754461288e-03 -4.981396719813346863e-03 -6.516247056424617767e-03 -1.805878058075904846e-02 -6.521802861243486404e-03 1.457250025123357773e-02 1.170584373176097870e-02 1.571318320930004120e-02 2.817506203427910805e-03 3.685737727209925652e-03 7.093938067555427551e-03 2.154029672965407372e-03 -1.220602728426456451e-02 -1.215492095798254013e-02 8.594887331128120422e-03 -1.668493822216987610e-02 4.612215328961610794e-03 8.291282691061496735e-03 1.333003677427768707e-02 5.319728516042232513e-03 1.145429257303476334e-02 2.975204261019825935e-03 2.326572081074118614e-03 3.378856554627418518e-02 1.290473528206348419e-02 1.978537999093532562e-02 -6.556741427630186081e-03 2.298448234796524048e-03 -1.170758809894323349e-02 -5.264708306640386581e-04 -1.933971070684492588e-03 -1.318750251084566116e-02 -3.062007250264286995e-03 2.621325477957725525e-02 -2.788158133625984192e-02 -8.129036985337734222e-03 -2.227370569016784430e-04 5.993708968162536621e-03 -6.715235300362110138e-03 9.839670732617378235e-03 1.464711874723434448e-02 4.970583692193031311e-02 1.480911020189523697e-02 2.348571084439754486e-02 3.163024038076400757e-02 -1.180317159742116928e-02 2.529456978663802147e-04 5.027746316045522690e-03 -9.508065879344940186e-03 3.555113915354013443e-03 -2.213566750288009644e-02 -4.295967984944581985e-03 6.464940724981715903e-06 6.041681859642267227e-03 5.579859949648380280e-03 1.497383043169975281e-02 1.701914705336093903e-02 9.298262186348438263e-03 1.464623305946588516e-02 2.951788529753684998e-02 2.379185147583484650e-02 2.532984316349029541e-02 3.535422496497631073e-03 6.590175908058881760e-03 1.925775408744812012e-02 2.424972318112850189e-02 1.198516506701707840e-02 1.416633557528257370e-02 -2.272223494946956635e-02 1.106704701669514179e-03 1.014941930770874023e-02 9.185725939460098743e-04 1.890119910240173340e-02 1.478413585573434830e-02 2.559812040999531746e-03 1.964738778769969940e-02 6.273542996495962143e-03 2.396008698269724846e-03 2.947990782558917999e-02 8.162399753928184509e-04 1.183659862726926804e-02 2.458743192255496979e-02 3.315969952382147312e-04 -4.738227929919958115e-03 -1.885211654007434845e-02 -3.125410992652177811e-03 -2.327769249677658081e-02 -8.868004195392131805e-03 2.059563761577010155e-03 9.236847981810569763e-03 2.728362753987312317e-02 -3.148509422317147255e-03 1.367242820560932159e-02 1.102192793041467667e-02 1.642792485654354095e-02 -4.288782365620136261e-03 -1.005478855222463608e-02 1.618476025760173798e-02 1.352512836456298828e-02 1.376632042229175568e-02 1.546216569840908051e-02 1.084623113274574280e-02 1.147663686424493790e-02 2.596022561192512512e-03 -3.578755713533610106e-04 2.428693231195211411e-03 1.257262285798788071e-02 1.219281274825334549e-02 1.102066412568092346e-02 1.123240962624549866e-02 -1.173308491706848145e-02 2.278381399810314178e-02 -1.619531307369470596e-03 2.230225317180156708e-02 5.551406368613243103e-02 1.683263480663299561e-02 -2.165015786886215210e-02 -3.995287697762250900e-03 1.113026402890682220e-02 8.326814509928226471e-03 -3.043747274205088615e-03 2.244349941611289978e-02 1.296380069106817245e-02 -2.982462570071220398e-02 -5.934978253208100796e-04 -3.966204822063446045e-03 2.301478013396263123e-02 2.936258353292942047e-02 -1.954321516677737236e-03 6.845441181212663651e-03 -6.641661282628774643e-03 1.696640625596046448e-02 -4.957295954227447510e-03 2.806341461837291718e-02 -4.735660273581743240e-03 4.888525698333978653e-03 -6.919605075381696224e-04 -8.636370301246643066e-03 -6.166191771626472473e-03 -2.507623517885804176e-03 -1.122460141777992249e-02 1.179144810885190964e-02 2.744220569729804993e-02 1.850449666380882263e-02 9.112957864999771118e-03 6.164604332298040390e-03 2.358578145503997803e-03 2.403699560090899467e-03 8.439991623163223267e-03 6.223056931048631668e-03 -1.023867051117122173e-03 1.193436793982982635e-02 1.519847847521305084e-02 1.766340248286724091e-02 9.690659120678901672e-03 1.483551133424043655e-02 1.623292826116085052e-02 2.105909958481788635e-02 2.452205494046211243e-02 3.074237890541553497e-02 1.373514905571937561e-02 6.592273246496915817e-03 2.065508253872394562e-02 2.488295920193195343e-02 -5.210382398217916489e-03 -8.378586499020457268e-04 1.630301820114254951e-03 6.236372981220483780e-03 -1.037990953773260117e-02 -1.821748912334442139e-02 -1.277126371860504150e-02 2.384740859270095825e-02 4.543684050440788269e-02 4.692040011286735535e-02 -2.562207402661442757e-03 -1.005715783685445786e-02 1.011826749891042709e-02 4.329262301325798035e-04 3.893692512065172195e-03 3.519359743222594261e-03 -3.651197301223874092e-03 7.895879447460174561e-03 -3.345329780131578445e-03 -2.885403297841548920e-02 -2.904802327975630760e-03 2.605325356125831604e-02 1.924508064985275269e-02 5.157020408660173416e-03 1.171663682907819748e-02 6.285740062594413757e-03 -5.945150274783372879e-03 3.678420092910528183e-03 1.215383061207830906e-03 -1.546678505837917328e-02 7.970349863171577454e-03 2.407956309616565704e-02 2.248845249414443970e-02 2.065465040504932404e-02 1.118996739387512207e-02 2.389495261013507843e-03 5.611489992588758469e-03 1.544560957700014114e-02 4.687502980232238770e-03 1.073919143527746201e-02 6.924723740667104721e-03 2.094750292599201202e-02 1.339286193251609802e-02 6.462921854108572006e-03 1.438417006283998489e-02 1.242255792021751404e-02 -6.278614513576030731e-03 3.876210423186421394e-03 -4.163339734077453613e-03 1.260138303041458130e-02 1.754244975745677948e-02 2.749253623187541962e-02 1.950589008629322052e-02 -8.352597244083881378e-03 5.867456551641225815e-03 1.349884457886219025e-02 -2.118341071764007211e-04 -5.741424858570098877e-03 3.724305890500545502e-03 2.302934229373931885e-02 2.381867356598377228e-02 2.128971926867961884e-02 8.219449780881404877e-03 1.134188845753669739e-02 -1.211814768612384796e-02 4.975991789251565933e-03 1.242733839899301529e-02 1.795537956058979034e-02 1.721105352044105530e-02 3.223293926566839218e-03 1.377351954579353333e-02 1.677963137626647949e-02 6.272122263908386230e-03 3.741208836436271667e-02 2.461807988584041595e-02 1.918116025626659393e-02 1.075733266770839691e-02 1.527281664311885834e-02 2.157937735319137573e-02 1.878373697400093079e-02 3.242912935093045235e-03 3.040913119912147522e-02 2.145116589963436127e-02 1.222600881010293961e-02 4.243671894073486328e-03 1.822035759687423706e-02 2.342061325907707214e-02 8.562472648918628693e-03 5.764299537986516953e-03 4.972922150045633316e-03 2.495392691344022751e-03 2.669820562005043030e-02 2.969095110893249512e-02 1.451866235584020615e-02 1.632307283580303192e-02 2.498831599950790405e-02 2.119281515479087830e-02 4.146990925073623657e-02 1.430691964924335480e-02 1.016835402697324753e-02 3.257775306701660156e-02 2.025531791150569916e-02 1.698487089015543461e-03 -4.284260328859090805e-03 -1.598925516009330750e-02 6.175522692501544952e-03 1.079977024346590042e-02 1.128268241882324219e-02 -3.884826553985476494e-03 7.868601940572261810e-03 2.242731302976608276e-02 3.770277649164199829e-02 3.252987191081047058e-02 1.544175669550895691e-02 9.334312751889228821e-03 2.230922318994998932e-02 1.531201787292957306e-02 6.789614912122488022e-03 2.177137881517410278e-02 1.043468993157148361e-02 -7.974868640303611755e-04 -4.939863458275794983e-03 -3.677112283185124397e-03 -1.447130180895328522e-02 -1.470998395234346390e-02 1.887146569788455963e-02 2.345493063330650330e-02 -2.999862888827919960e-03 1.074553653597831726e-02 2.154655195772647858e-02 1.966863870620727539e-02 2.430704049766063690e-02 -2.294511796208098531e-04 -1.910124532878398895e-02 2.099168952554464340e-03 -1.176556572318077087e-03 8.255290798842906952e-03 3.037015721201896667e-02 2.795914188027381897e-02 8.203228935599327087e-03 -7.584287668578326702e-04 -5.619637668132781982e-04 1.165765058249235153e-02 4.369457717984914780e-03 4.411699250340461731e-03 -4.129660315811634064e-03 4.889383446425199509e-03 9.019793011248111725e-03 1.983176730573177338e-02 3.994113299995660782e-03 2.799281617626547813e-03 2.170759398723021150e-04 2.371038135606795549e-04 2.174264937639236450e-02 5.257913842797279358e-02 4.581236466765403748e-02 3.546153381466865540e-02 1.502746343612670898e-02 1.861938275396823883e-02 -6.890802644193172455e-03 1.225193031132221222e-02 -1.354133058339357376e-02 -1.467947941273450851e-02 1.020159665495157242e-02 2.008587867021560669e-02 3.570628911256790161e-02 2.686367742717266083e-02 2.641373872756958008e-02 1.684285327792167664e-02 2.955405786633491516e-02 2.191130444407463074e-02 1.571356505155563354e-02 1.187295932322740555e-02 1.471090968698263168e-02 2.617312408983707428e-02 5.912769120186567307e-03 1.514419354498386383e-02 7.601704448461532593e-03 -5.778538528829813004e-03 3.316849702969193459e-03 -9.368826635181903839e-03 -9.417670778930187225e-03 -1.832506060600280762e-02 4.592667683027684689e-04 2.067860960960388184e-02 -4.439391486812382936e-04 -3.969665616750717163e-03 1.717863604426383972e-03 -2.813534811139106750e-02 5.735550075769424438e-03 2.345551364123821259e-02 2.864154800772666931e-02 2.621478773653507233e-02 8.449819870293140411e-04 -2.684884937480092049e-03 1.795038022100925446e-02 1.742711989209055901e-03 1.210593711584806442e-02 1.127896923571825027e-02 -2.845135750249028206e-03 -1.819696044549345970e-04 1.599897257983684540e-02 7.423835806548595428e-03 8.907224051654338837e-03 1.881290972232818604e-02 -1.907075941562652588e-02 1.864075311459600925e-03 1.842615194618701935e-02 2.217729575932025909e-02 2.639037556946277618e-02 2.256075106561183929e-02 6.710934918373823166e-03 2.015996258705854416e-03 3.711178200319409370e-03 1.053526345640420914e-02 1.447006966918706894e-02 1.302475947886705399e-02 1.444606669247150421e-02 2.582607232034206390e-02 2.041705511510372162e-02 1.179670449346303940e-02 2.005201950669288635e-02 2.410876937210559845e-02 -3.520616097375750542e-03 4.236066015437245369e-04 -4.695083945989608765e-03 -9.637847542762756348e-03 1.198688428848981857e-02 1.780412532389163971e-02 2.674110978841781616e-02 2.398869395256042480e-02 4.623912740498781204e-03 -8.946730755269527435e-03 -5.850944668054580688e-03 -5.005831364542245865e-03 6.140568759292364120e-03 3.905687481164932251e-02 2.111114375293254852e-02 1.168198883533477783e-02 8.775074034929275513e-03 1.214787550270557404e-02 -1.062179100699722767e-03 2.560388064011931419e-03 -6.709213834255933762e-03 6.553140003234148026e-03 -2.295192517340183258e-02 -2.181852608919143677e-02 -6.819065194576978683e-03 -7.057354087010025978e-04 1.083952467888593674e-02 1.668346486985683441e-02 7.351692765951156616e-03 -2.277615480124950409e-03 -9.474782273173332214e-03 -4.120101686567068100e-03 1.141753699630498886e-02 8.495038375258445740e-03 4.823647905141115189e-04 1.188132632523775101e-02 1.229023002088069916e-02 2.417348325252532959e-02 2.155360952019691467e-02 1.376310922205448151e-02 -3.606726022553630173e-05 9.981001727283000946e-03 1.188682299107313156e-02 -7.288717315532267094e-04 1.788794179446995258e-03 8.590563200414180756e-03 3.313385415822267532e-03 4.978737328201532364e-03 2.496983110904693604e-02 7.573799230158329010e-03 4.293309058994054794e-03 4.330730531364679337e-03 2.745867474004626274e-03 1.715346798300743103e-02 1.251632627099752426e-02 1.720906421542167664e-02 9.270577691495418549e-03 -5.390128586441278458e-03 1.602446474134922028e-02 1.828838512301445007e-02 6.312118377536535263e-03 -4.938386846333742142e-03 2.473343163728713989e-02 2.440557256340980530e-02 -7.530802395194768906e-03 -1.252364460378885269e-02 -1.909609511494636536e-02 -6.842447444796562195e-03 -2.020309679210186005e-03 5.984957795590162277e-03 1.041399035602807999e-02 1.038529537618160248e-02 -8.529437705874443054e-03 -4.736262839287519455e-03 -1.311456435360014439e-03 6.938092410564422607e-03 1.450320053845643997e-02 6.593872793018817902e-03 -3.007795428857207298e-03 1.165187451988458633e-02 3.084157966077327728e-02 3.695144550874829292e-03 1.060432568192481995e-02 4.283945541828870773e-03 5.478574428707361221e-03 -1.477718935348093510e-03 3.773543983697891235e-02 4.637089744210243225e-02 2.360215969383716583e-02 2.294233813881874084e-02 2.068214677274227142e-02 -4.367351939436048269e-04 1.727314107120037079e-02 1.745796762406826019e-02 9.762581437826156616e-03 1.964130625128746033e-02 7.245654240250587463e-03 1.244221907109022141e-02 1.639409363269805908e-02 2.300952561199665070e-02 7.045795209705829620e-04 6.006582640111446381e-03 1.445754989981651306e-02 7.525750435888767242e-03 2.162952721118927002e-02 6.313219666481018066e-03 4.946380387991666794e-03 6.595747545361518860e-03 9.460185654461383820e-03 3.600558638572692871e-02 1.563476212322711945e-02 3.979848232120275497e-03 -5.665849894285202026e-03 -1.814367482438683510e-03 1.045198552310466766e-02 5.494281649589538574e-03 -3.770469920709729195e-03 4.710326436907052994e-03 6.105224601924419403e-03 3.817288437858223915e-03 1.376288384199142456e-02 2.181533351540565491e-02 -4.585104528814554214e-03 1.141370180994272232e-02 1.841713301837444305e-02 1.855009980499744415e-02 2.284033969044685364e-02 -7.481960579752922058e-03 1.203470304608345032e-02 1.511731557548046112e-02 4.659268073737621307e-03 8.832571096718311310e-03 1.393745420500636101e-03 4.537420347332954407e-03 -4.688969347625970840e-03 -2.190179750323295593e-02 -1.408865954726934433e-02 -4.390327259898185730e-03 9.067539125680923462e-03 3.484188765287399292e-02 8.058393374085426331e-03 1.042102742940187454e-02 8.122096769511699677e-03 3.715708153322339058e-04 6.973339477553963661e-04 8.037994848564267159e-04 1.308363582938909531e-02 9.280595928430557251e-03 1.427606679499149323e-02 2.191032469272613525e-02 2.897573821246623993e-02 1.491889730095863342e-02 1.563903503119945526e-02 2.130302041769027710e-02 2.297178655862808228e-02 1.478120684623718262e-02 1.598413661122322083e-02 2.819123305380344391e-02 1.737110689282417297e-02 -5.021107383072376251e-03 -5.523992702364921570e-03 -4.694917704910039902e-03 1.582693681120872498e-02 -2.965493826195597649e-03 6.234455853700637817e-03 1.309519447386264801e-02 2.509546466171741486e-02 1.485070306807756424e-02 1.131690852344036102e-02 1.893832534551620483e-02 2.005523070693016052e-03 -2.312502590939402580e-03 -1.037328317761421204e-02 -5.483068991452455521e-03 3.133791266009211540e-03 2.447076141834259033e-02 2.176377177238464355e-02 -1.955267228186130524e-02 -1.280949544161558151e-02 -1.938999048434197903e-03 1.947422325611114502e-02 -7.160430308431386948e-03 -4.784084390848875046e-03 -1.731464453041553497e-02 8.520717732608318329e-03 1.282852515578269958e-02 4.953139927238225937e-03 1.261453377082943916e-03 4.922585096210241318e-03 6.860795896500349045e-03 -6.180196534842252731e-03 -7.546443957835435867e-04 4.294992238283157349e-02 6.208106409758329391e-03 -5.069438833743333817e-03 -1.897442340850830078e-02 5.221220199018716812e-03 2.068957872688770294e-02 1.486212946474552155e-02 -2.345022186636924744e-02 -2.108767442405223846e-02 1.565656997263431549e-02 1.602398976683616638e-02 8.790108375251293182e-03 1.353048952296376228e-03 1.137232873588800430e-02 2.825756557285785675e-03 -1.917704357765614986e-03 1.452759001404047012e-02 1.893674023449420929e-02 6.891473662108182907e-03 2.205247990787029266e-02 7.527232170104980469e-03 1.233674120157957077e-03 4.765305668115615845e-03 -2.365190535783767700e-02 2.446472062729299068e-04 -5.813851603306829929e-04 9.606662206351757050e-03 1.340231392532587051e-02 1.100606750696897507e-02 4.367175977677106857e-03 2.171896863728761673e-03 -1.249988842755556107e-02 -3.215177217498421669e-03 -3.079323330894112587e-03 1.745575666427612305e-02 2.898075059056282043e-02 2.511841012164950371e-03 4.678384866565465927e-03 2.489479258656501770e-02 2.107356302440166473e-02 2.439881488680839539e-02 1.765451044775545597e-03 -4.928303416818380356e-03 -2.713195135584101081e-05 9.127903729677200317e-03 1.269388198852539062e-02 1.361159794032573700e-02 1.029306743294000626e-02 1.625703461468219757e-02 1.563118956983089447e-02 7.937078364193439484e-03 1.882635115180164576e-05 9.762519039213657379e-04 9.219625964760780334e-03 -1.020667608827352524e-03 8.564705960452556610e-03 1.468761079013347626e-02 2.043450437486171722e-02 1.731163635849952698e-02 1.952263899147510529e-02 7.796239107847213745e-03 3.826125990599393845e-03 -1.539486087858676910e-02 6.163918413221836090e-03 3.097425960004329681e-02 1.090903021395206451e-02 1.413273252546787262e-02 2.359236404299736023e-02 -1.464279252104461193e-03 -4.800286609679460526e-03 1.434878539294004440e-02 2.477474883198738098e-02 1.125756371766328812e-02 2.063808962702751160e-03 -1.471876353025436401e-02 -2.467021346092224121e-02 -8.512781001627445221e-03 3.173044323921203613e-02 3.750879690051078796e-02 -1.465932698920369148e-03 -1.449203491210937500e-02 -2.191949461121112108e-04 4.625197965651750565e-03 1.256210356950759888e-02 1.443347521126270294e-02 2.266671275720000267e-03 9.566466324031352997e-03 1.571565121412277222e-02 2.639256604015827179e-02 1.621000841259956360e-02 -1.863246900029480457e-03 -1.258284412324428558e-02 7.017575670033693314e-03 -2.468399470672011375e-03 -1.069550961256027222e-02 3.579937154427170753e-03 9.191750548779964447e-03 1.331901177763938904e-02 8.933569304645061493e-03 1.334086060523986816e-02 2.666062209755182266e-03 9.536256082355976105e-03 -5.454356782138347626e-03 1.768277212977409363e-02 9.429411962628364563e-03 8.632610552012920380e-03 6.054995115846395493e-03 9.431364946067333221e-03 3.401516703888773918e-03 -1.196946203708648682e-02 -9.907586500048637390e-03 1.499778963625431061e-02 3.069174475967884064e-02 1.919010095298290253e-02 1.901527680456638336e-02 1.821934618055820465e-02 -7.984222611412405968e-04 -1.011772267520427704e-02 -4.713208414614200592e-03 -1.276784762740135193e-02 -1.834824681282043457e-02 6.621432490646839142e-03 3.680113703012466431e-03 2.046259492635726929e-02 2.078373171389102936e-02 2.993641607463359833e-02 2.537259366363286972e-03 -8.105874992907047272e-03 6.624627858400344849e-03 8.026869036257266998e-03 -2.442257711663842201e-03 1.160179730504751205e-02 2.921978570520877838e-02 3.501336649060249329e-02 2.666728571057319641e-02 -2.016767626628279686e-03 7.405017968267202377e-03 4.055174812674522400e-02 1.494890358299016953e-02 1.645263843238353729e-02 2.695160172879695892e-02 2.373415604233741760e-02 3.576837480068206787e-02 3.750583156943321228e-02 3.032734990119934082e-02 6.020493456162512302e-04 3.739972133189439774e-03 -2.343746833503246307e-03 1.700296439230442047e-02 3.647641092538833618e-02 2.819995582103729248e-02 3.238603845238685608e-02 2.875294722616672516e-02 2.868050709366798401e-02 7.317706942558288574e-03 -1.176513079553842545e-02 5.330204498022794724e-03 -7.357073947787284851e-03 -1.969546265900135040e-02 -2.297336468473076820e-03 7.192125078290700912e-03 -4.336749203503131866e-03 1.585943810641765594e-02 1.527818199247121811e-02 3.462067805230617523e-03 2.278390154242515564e-02 1.372820977121591568e-02 2.019685879349708557e-02 1.005282625555992126e-02 4.428042564541101456e-03 7.975574117153882980e-04 -1.851361012086272240e-03 -1.142214605351909995e-04 2.727273851633071899e-02 3.680156543850898743e-02 1.287917699664831161e-02 6.248080171644687653e-03 1.134147867560386658e-02 3.025690326467156410e-03 2.752477489411830902e-02 5.238762591034173965e-03 1.396510563790798187e-02 1.371593680232763290e-03 6.077486090362071991e-03 -1.144773513078689575e-02 1.229577581398189068e-03 3.332481160759925842e-02 1.469535753130912781e-02 3.480767831206321716e-02 3.473634831607341766e-03 1.864991709589958191e-02 2.594600431621074677e-02 -1.490517705678939819e-02 -7.020635064691305161e-03 -2.348424866795539856e-02 -1.001123245805501938e-02 -1.546274218708276749e-02 -2.629532106220722198e-02 -7.282765116542577744e-03 -5.355401430279016495e-03 2.025572024285793304e-02 3.038821741938591003e-02 5.685136187821626663e-03 8.945520967245101929e-03 1.419710554182529449e-02 2.039643749594688416e-02 2.424137108027935028e-02 1.559904776513576508e-02 1.613262109458446503e-02 2.691120281815528870e-02 2.719269879162311554e-02 1.454779785126447678e-02 1.582300104200839996e-02 2.323549799621105194e-02 1.147480122745037079e-02 9.051034227013587952e-03 3.842373844236135483e-03 -1.054942607879638672e-02 -9.743348695337772369e-03 8.430040441453456879e-03 3.513777628540992737e-03 2.512186393141746521e-02 1.637363247573375702e-02 2.986286766827106476e-02 1.744798570871353149e-02 7.649992126971483231e-03 5.503285210579633713e-03 2.710836939513683319e-02 4.208733513951301575e-02 3.916858881711959839e-02 2.975708805024623871e-02 2.199552580714225769e-02 1.086370367556810379e-02 -1.327103469520807266e-02 -7.649179548025131226e-03 5.497526843100786209e-03 2.883510605897754431e-04 3.693358274176716805e-03 -7.218844722956418991e-03 -1.916596433147788048e-03 8.465751074254512787e-03 3.338620066642761230e-02 2.842820249497890472e-02 5.590109620243310928e-03 1.658580079674720764e-02 1.514668669551610947e-02 6.831377279013395309e-03 2.548362873494625092e-02 2.623949572443962097e-02 2.426212467253208160e-02 -4.856697749346494675e-03 -6.287532392889261246e-03 -1.335857529193162918e-02 1.807302236557006836e-03 -1.797166187316179276e-03 7.356334477663040161e-03 1.573607511818408966e-02 1.651536487042903900e-02 1.395208295434713364e-02 1.746125891804695129e-02 -6.550201796926558018e-04 1.302024070173501968e-02 9.168726392090320587e-03 1.355276070535182953e-02 4.044158384203910828e-03 1.899998448789119720e-02 1.558275893330574036e-02 3.145227953791618347e-02 2.868623100221157074e-02 5.050698667764663696e-02 3.353406488895416260e-02 -8.755721151828765869e-03 -1.917300932109355927e-02 -9.494725614786148071e-03 1.436907798051834106e-02 -3.750706324353814125e-03 1.469653449021279812e-03 6.233673542737960815e-03 2.052326686680316925e-03 -8.873921819031238556e-03 -1.435793377459049225e-02 4.148204810917377472e-03 1.870380714535713196e-02 8.350044488906860352e-03 7.723328657448291779e-03 1.199444197118282318e-02 -2.771612955257296562e-03 -9.463460184633731842e-03 1.374022336676716805e-03 1.738362573087215424e-02 1.179111655801534653e-02 1.711495593190193176e-02 1.507557369768619537e-02 2.512878924608230591e-02 2.528410032391548157e-02 2.469718083739280701e-02 -6.459530908614397049e-03 -2.538739703595638275e-03 4.227752331644296646e-03 4.169052932411432266e-03 5.758920218795537949e-03 -3.584989812225103378e-03 -6.361968349665403366e-03 7.156666368246078491e-03 3.155636950396001339e-04 -6.165784434415400028e-04 -1.231550425291061401e-02 4.724810365587472916e-03 -1.220378745347261429e-02 -8.645820431411266327e-03 2.146295458078384399e-02 8.109788410365581512e-03 1.373598352074623108e-02 3.586788475513458252e-02 3.519252315163612366e-02 2.042601071298122406e-02 3.615007502958178520e-03 1.690578833222389221e-02 3.909216448664665222e-02 3.452181443572044373e-02 1.379184052348136902e-02 1.950024440884590149e-02 1.356667838990688324e-02 -1.271811313927173615e-02