-5.477029830217361450e-02 -4.322764649987220764e-02 -9.132168442010879517e-02 8.934622630476951599e-03 -4.801478236913681030e-03 6.315859500318765640e-03 -6.723573431372642517e-03 -2.798029407858848572e-02 3.035850124433636665e-03 -3.628654405474662781e-03 1.979172788560390472e-02 -1.420807326212525368e-03 -3.180685266852378845e-02 -6.812894344329833984e-02 -3.402208909392356873e-02 3.227897360920906067e-02 2.660318836569786072e-02 2.305034361779689789e-02 5.535444244742393494e-03 -2.869861386716365814e-02 2.832541475072503090e-03 1.669288985431194305e-02 -4.275799915194511414e-02 -1.173928752541542053e-02 -3.598167002201080322e-02 2.844515070319175720e-02 1.434174948371946812e-03 -5.756216123700141907e-03 -3.907889127731323242e-02 -1.693665049970149994e-02 7.176327705383300781e-02 3.998130932450294495e-02 -1.475673541426658630e-02 -1.476690638810396194e-02 -3.365042060613632202e-02 -1.270635891705751419e-02 6.159824505448341370e-02 3.128310665488243103e-02 3.451665630564093590e-03 1.795280352234840393e-02 -4.999040625989437103e-03 5.395240709185600281e-02 1.355103310197591782e-02 -3.169363737106323242e-02 4.030179977416992188e-02 6.720225512981414795e-02 2.029586769640445709e-02 -2.286439016461372375e-02 5.043757706880569458e-02 8.221996575593948364e-02 -2.219458110630512238e-03 -1.055418513715267181e-02 -3.096119686961174011e-02 -8.341708034276962280e-02 -6.323703099042177200e-03 6.049107015132904053e-02 3.500241786241531372e-02 3.767631947994232178e-02 -3.669243678450584412e-02 5.075426772236824036e-03 -9.229955263435840607e-03 1.084301341325044632e-02 -1.325722876936197281e-02 -6.097197998315095901e-03 -1.256011542864143848e-03 -1.441880967468023300e-02 -1.193080469965934753e-02 5.903313681483268738e-02 3.249046579003334045e-02 2.904663048684597015e-02 3.001307509839534760e-02 -4.324842710047960281e-03 8.096182346343994141e-02 -2.892086282372474670e-02 -2.804307639598846436e-02 -2.169651724398136139e-02 1.857498474419116974e-02 -2.867816761136054993e-02 -3.097885847091674805e-02 1.726845838129520416e-02 2.346792817115783691e-02 -2.145727194147184491e-04 7.361868768930435181e-02 -6.716226693242788315e-03 3.108649328351020813e-02 2.125304751098155975e-02 -2.476732805371284485e-02 -1.578454859554767609e-02 7.519649341702461243e-03 3.873408585786819458e-02 -2.206631749868392944e-02 -1.690796203911304474e-02 -3.145286068320274353e-02 4.555380344390869141e-02 -2.074035815894603729e-02 1.157380058430135250e-03 -2.715428173542022705e-02 2.085570804774761200e-02 -9.406969184055924416e-04 -2.074778452515602112e-02 4.477820545434951782e-02 -2.677099965512752533e-02 3.810413880273699760e-03 5.126965790987014771e-02 7.056086510419845581e-02 7.517347112298011780e-03 -5.874450784176588058e-03 -4.539610445499420166e-02 -1.375776994973421097e-02 4.396066535264253616e-03 2.499411068856716156e-02 2.618202939629554749e-02 3.743370622396469116e-02 -1.749211177229881287e-02 3.196804597973823547e-02 1.456307154148817062e-02 1.982609182596206665e-02 1.674167998135089874e-02 -1.006687618792057037e-02 3.897912334650754929e-03 4.289361461997032166e-02 6.798221170902252197e-02 -3.742130473256111145e-03 1.243416499346494675e-02 2.670521847903728485e-03 4.495592415332794189e-02 7.451228797435760498e-02 4.051171243190765381e-02 -9.963644668459892273e-03 -3.839116171002388000e-02 -2.012665942311286926e-02 -2.100917696952819824e-02 5.127852316945791245e-03 -3.657639317680150270e-04 5.086953192949295044e-02 3.947329521179199219e-02 6.928706914186477661e-02 -4.753480479121208191e-02 -2.740664966404438019e-02 1.010742154903709888e-03 3.912597522139549255e-02 9.285215288400650024e-03 2.760497666895389557e-02 9.931356646120548248e-03 3.714323788881301880e-02 3.759717568755149841e-02 2.532278932631015778e-02 4.904565215110778809e-02 -5.406552925705909729e-02 1.886200625449419022e-03 1.632540859282016754e-02 -6.672536022961139679e-03 -4.962944239377975464e-02 1.198810711503028870e-02 -8.814390748739242554e-03 3.428397700190544128e-02 3.614668175578117371e-02 8.940058760344982147e-03 -3.852606564760208130e-02 5.279912054538726807e-02 2.013619989156723022e-02 1.312382239848375320e-02 7.084298133850097656e-02 -1.172744948416948318e-02 4.111495986580848694e-02 2.479372918605804443e-02 8.064802736043930054e-02 -7.227873802185058594e-02 -2.915457263588905334e-02 -1.072318479418754578e-02 1.111243292689323425e-02 1.064170338213443756e-02 7.127071730792522430e-03 3.819892928004264832e-02 -3.523146361112594604e-02 -1.331853214651346207e-02 -1.665800623595714569e-02 -1.000882592052221298e-02 1.223486964590847492e-03 -7.983695715665817261e-03 -1.007216237485408783e-02 -5.445222556591033936e-02 -2.864784933626651764e-02 -5.172100663185119629e-02 -2.082788199186325073e-02 -4.667052999138832092e-02 -6.766122300177812576e-03 -4.294497892260551453e-03 8.022692054510116577e-03 7.463744841516017914e-03 -8.778757415711879730e-03 4.885400459170341492e-02 3.355537727475166321e-02 2.145384810864925385e-02 -8.845128118991851807e-03 -9.731386788189411163e-03 -4.079432692378759384e-03 1.837115362286567688e-02 2.252749726176261902e-02 1.097377389669418335e-02 3.384959697723388672e-02 1.857869885861873627e-02 1.164300646632909775e-02 -3.009383194148540497e-02 3.727494180202484131e-02 1.299569848924875259e-02 -2.660421887412667274e-03 9.695114567875862122e-03 -2.678745053708553314e-02 -3.235024213790893555e-02 -1.907975226640701294e-02 -8.267483673989772797e-03 -3.935584798455238342e-02 -5.818436294794082642e-02 1.938947662711143494e-02 1.151090674102306366e-02 4.351716116070747375e-02 -5.285149812698364258e-02 -7.292524445801973343e-03 8.237154223024845123e-03 -2.666806429624557495e-02 -4.898205399513244629e-02 -4.211131110787391663e-02 -3.969806805253028870e-02 -2.357250452041625977e-02 -7.723966985940933228e-02 -4.527469165623188019e-03 -2.729540504515171051e-02 -9.380239062011241913e-03 -1.867119036614894867e-02 -3.005382604897022247e-02 4.844256211072206497e-03 4.633753374218940735e-02 -3.035690076649188995e-02 4.113041609525680542e-02 5.376292020082473755e-02 -2.135667949914932251e-03 -2.363186888396739960e-02 7.438391912728548050e-03 -9.801818057894706726e-03 9.903958998620510101e-03 5.352157168090343475e-03 -5.326377227902412415e-03 1.018701866269111633e-01 3.092278959229588509e-03 1.789678819477558136e-02 -1.647969521582126617e-02 -1.051610452122986317e-03 -6.022740621119737625e-03 1.785461977124214172e-02 7.033767644315958023e-03 3.623975440859794617e-02 4.351111501455307007e-02 -2.009027078747749329e-02 -4.749780520796775818e-02 1.720290817320346832e-02 4.384623095393180847e-02 1.046404708176851273e-02 -2.813595719635486603e-02 -1.995944418013095856e-03 2.554474584758281708e-02 2.507210709154605865e-02 1.088574714958667755e-02 3.862461075186729431e-02 3.032499924302101135e-02 2.841609716415405273e-02 -2.631018636748194695e-03 -1.379736326634883881e-02 2.889929804950952530e-03 -9.736409410834312439e-03 3.520977497100830078e-02 1.841321028769016266e-02 -4.496277309954166412e-03 5.235389992594718933e-02 2.850217372179031372e-02 3.890246443916112185e-04 -1.395826041698455811e-02 5.423728376626968384e-02 6.674531847238540649e-02 4.282730072736740112e-02 -1.342616509646177292e-02 -1.996980747207999229e-03 6.412786990404129028e-02 7.159866392612457275e-03 -1.538276392966508865e-02 6.754425168037414551e-02 2.011242322623729706e-02 2.983500016853213310e-04 -1.980729959905147552e-02 1.003305520862340927e-02 3.179983794689178467e-02 -2.160955965518951416e-02 8.576595224440097809e-03 5.991667974740266800e-03 -3.919882327318191528e-02 -3.742530569434165955e-02 -3.302242979407310486e-02 -2.202400937676429749e-02 -2.347149327397346497e-02 1.610373333096504211e-02 4.284168034791946411e-02 1.182457711547613144e-02 -5.051021650433540344e-02 -1.750631071627140045e-02 5.022158101201057434e-02 -1.283352728933095932e-02 -1.034008897840976715e-02 -2.365493774414062500e-02 3.414780949242413044e-04 1.426518987864255905e-02 4.670704901218414307e-02 -5.139466002583503723e-02 -1.486927084624767303e-02 6.398157682269811630e-03 4.073095507919788361e-03 -3.183385357260704041e-02 -2.841539122164249420e-02 -1.627347245812416077e-02 4.161458462476730347e-02 -3.586587728932499886e-03 -5.472468584775924683e-02 -3.915717080235481262e-02 3.038466162979602814e-02 8.494550362229347229e-03 -1.198701653629541397e-02 9.325901418924331665e-02 -1.065017562359571457e-02 -1.342261582612991333e-02 -9.912176057696342468e-03 1.872874679975211620e-03 -2.097454667091369629e-02 -4.261506348848342896e-02 -1.209213864058256149e-02 -2.436506934463977814e-02 -3.827611356973648071e-02 -2.206672355532646179e-02 -1.569576002657413483e-02 9.442015551030635834e-03 -3.631005994975566864e-03 -4.449333995580673218e-02 2.416519634425640106e-02 5.471564829349517822e-02 6.256202701479196548e-03 -5.097981914877891541e-02 -2.410979196429252625e-02 3.318515419960021973e-02 5.933431908488273621e-02 1.242546271532773972e-02 3.008058294653892517e-02 -1.630541868507862091e-02 -5.865685641765594482e-02 1.113676279783248901e-02 1.818252727389335632e-02 -4.715453460812568665e-02 -5.866895616054534912e-02 1.401938125491142273e-02 3.070774860680103302e-02 -3.333504125475883484e-02 2.339469641447067261e-02 6.507132202386856079e-02 9.308148291893303394e-04 -2.777091972529888153e-02 -1.475985627621412277e-02 -7.107172161340713501e-03 2.214172855019569397e-02 2.558325976133346558e-02 2.684177830815315247e-02 -5.836201831698417664e-02 -2.690487541258335114e-02 -8.477475494146347046e-03 3.225258737802505493e-02 -1.362455822527408600e-02 -3.086237411480396986e-04 -6.452203262597322464e-03 4.889870434999465942e-02 -2.303115092217922211e-02 -2.105210162699222565e-02 -1.154182944446802139e-02 2.280095964670181274e-02 1.819574856199324131e-03 1.587584055960178375e-02 6.261923816055059433e-03 7.977222092449665070e-03 5.548128858208656311e-02 3.686139732599258423e-02 1.626067236065864563e-02 2.237023226916790009e-02 -2.933810697868466377e-03 2.092246897518634796e-02 4.281541332602500916e-02 7.788114994764328003e-02 2.875806204974651337e-02 2.915148856118321419e-03 -2.287397533655166626e-02 -1.004817150533199310e-02 -4.880419932305812836e-03 -2.627141075208783150e-04 4.748986568301916122e-03 2.759673225227743387e-04 -1.452765148133039474e-02 -1.253620255738496780e-02 -9.909352287650108337e-03 2.594418823719024658e-02 1.109034847468137741e-02 3.332732245326042175e-02 -3.561260551214218140e-02 1.938860677182674408e-02 4.151456058025360107e-02 2.908761054277420044e-02 4.191629588603973389e-02 2.923215366899967194e-02 6.738884747028350830e-02 4.618925042450428009e-03 -1.507876254618167877e-02 1.626461185514926910e-02 4.138969257473945618e-02 1.080481708049774170e-02 -2.207636460661888123e-02 -4.633573815226554871e-03 2.172953262925148010e-02 4.649765416979789734e-02 1.885546557605266571e-02 4.184138402342796326e-02 -2.959310822188854218e-02 -1.572935096919536591e-02 4.699475597590208054e-03 -9.692463790997862816e-04 -1.547689666040241718e-03 7.782525569200515747e-02 -8.049012161791324615e-03 -5.440453533083200455e-04 3.245249018073081970e-02 3.868669643998146057e-02 3.508778288960456848e-02 4.221658688038587570e-03 -5.272998474538326263e-03 -4.767216742038726807e-03 -1.988640055060386658e-02 2.902970835566520691e-02 -1.443514483980834484e-03 -1.122917700558900833e-02 -2.345080487430095673e-02 -8.142699487507343292e-03 -9.082201868295669556e-03 4.455812647938728333e-02 2.465807460248470306e-02 -1.366372220218181610e-02 -2.819664962589740753e-02 -2.329799346625804901e-03 5.790749564766883850e-03 -1.727094501256942749e-02 -8.142786100506782532e-03 -1.055783405900001526e-02 -1.238304469734430313e-02 7.470526732504367828e-03 7.187068462371826172e-02 4.207228496670722961e-02 2.646958827972412109e-02 4.664264991879463196e-02 1.502744620665907860e-03 -1.012521144002676010e-02 -2.979450300335884094e-02 -1.250384189188480377e-02 -1.175985857844352722e-02 -5.293920170515775681e-03 -1.070152735337615013e-03 6.710120476782321930e-03 3.913328517228364944e-03 -7.104484830051660538e-03 5.693980306386947632e-02 6.033524125814437866e-02 3.319919109344482422e-02 4.896490275859832764e-02 6.762686371803283691e-02 4.601400718092918396e-02 -9.617026895284652710e-03 3.623287007212638855e-02 4.136765375733375549e-02 2.939821407198905945e-02 4.443321004509925842e-02 1.619657687842845917e-02 1.059581805020570755e-02 -1.507472712546586990e-02 -1.987000182271003723e-02 -1.054719090461730957e-02 1.641520648263394833e-03 1.128551736474037170e-02 2.520990744233131409e-02 1.836724113672971725e-03 9.213572368025779724e-03 2.051258832216262817e-02 -6.723446305841207504e-03 1.675613969564437866e-02 1.422810554504394531e-02 2.739349193871021271e-02 2.772379852831363678e-02 4.766464978456497192e-02 3.942690789699554443e-02 -7.032772526144981384e-03 -1.821281574666500092e-02 2.530173026025295258e-02 1.244666986167430878e-02 -2.375479787588119507e-03 1.434381492435932159e-02 3.950915113091468811e-02 4.139989241957664490e-02 5.692875012755393982e-02 3.849970921874046326e-02 -3.803047165274620056e-02 -2.415946498513221741e-02 -4.261440783739089966e-02 -9.840284474194049835e-03 -3.196432814002037048e-02 -2.158644236624240875e-02 3.669702261686325073e-02 2.951794862747192383e-02 -2.284492552280426025e-02 1.894281059503555298e-02 2.829415723681449890e-02 1.045850291848182678e-02 -1.292179571464657784e-03 -1.680432446300983429e-02 2.965676225721836090e-02 3.360317647457122803e-02 4.411729052662849426e-02 -1.802710629999637604e-02 -2.557025291025638580e-02 -2.092546969652175903e-02 -4.700054228305816650e-02 -6.663113087415695190e-02 -7.081460207700729370e-03 2.103593200445175171e-02 -2.416545711457729340e-02 -1.199627481400966644e-02 -1.718386262655258179e-02 -1.449164468795061111e-02 -1.384174730628728867e-02 6.456920411437749863e-03 1.582150533795356750e-02 -3.130394220352172852e-02 -2.300813607871532440e-02 -2.451767027378082275e-02 -3.054258413612842560e-02 -2.173707820475101471e-02 4.052653908729553223e-03 4.410990979522466660e-03 -1.076725218445062637e-02 4.595139995217323303e-03 -3.292029723525047302e-02 4.627508111298084259e-03 3.518111258745193481e-02 1.413317490369081497e-02 -1.364044565707445145e-02 -7.785441353917121887e-03 1.800650544464588165e-02 6.698919087648391724e-02 5.802000313997268677e-02 -7.507083564996719360e-02 4.119369387626647949e-02 1.257803887128829956e-01 1.823525130748748779e-02 -2.683101780712604523e-02 -2.026647562161087990e-03 3.965102881193161011e-02 -1.660124212503433228e-02 -4.765555262565612793e-02 1.925211958587169647e-02 4.593971371650695801e-02 -4.578710347414016724e-02 -1.133009046316146851e-02 2.950676018372178078e-03 -8.543934673070907593e-03 -3.835448995232582092e-02 5.803051590919494629e-02 7.008049637079238892e-02 3.233945742249488831e-02 -9.154076687991619110e-03 3.316486254334449768e-02 -5.931946448981761932e-03 -7.613061927258968353e-03 -4.816328291781246662e-04 2.909673377871513367e-02 4.994038119912147522e-02 7.404441386461257935e-02 5.841584876179695129e-03 2.374854497611522675e-02 1.312540285289287567e-02 1.323986984789371490e-02 3.617439419031143188e-02 2.067955397069454193e-02 2.260781265795230865e-02 2.933375164866447449e-02 2.855221554636955261e-02 -1.609759591519832611e-02 1.316481735557317734e-02 1.887007988989353180e-02 -3.511086339130997658e-03 -4.007669631391763687e-03 1.334947161376476288e-02 5.246390029788017273e-02 1.742010936141014099e-02 -4.489339143037796021e-02 9.316561045125126839e-05 3.492899611592292786e-02 -1.206599827855825424e-02 5.477973259985446930e-03 5.384566262364387512e-03 7.727796328254044056e-04 -1.734275929629802704e-02 6.406170129776000977e-02 -9.786885231733322144e-03 -2.587434090673923492e-02 -1.483538001775741577e-02 -4.425164312124252319e-03 2.477057743817567825e-03 -3.097670152783393860e-02 -2.453206107020378113e-02 2.648887410759925842e-02 6.654526805505156517e-04 2.141293510794639587e-02 -6.961072981357574463e-02 -1.386567135341465473e-03 -1.399623602628707886e-02 5.128482356667518616e-02 7.897805189713835716e-04 -7.050497923046350479e-03 -4.048970341682434082e-02 -2.047701925039291382e-02 -5.241124331951141357e-02 -1.391113083809614182e-02 -5.929842591285705566e-03 9.338639676570892334e-03 -1.975046237930655479e-03 3.580037504434585571e-03 -2.904669195413589478e-02 1.908341981470584869e-02 -1.262689009308815002e-02 -2.337909117341041565e-02 4.864130169153213501e-03 -1.709442399442195892e-02 2.861114032566547394e-02 -9.508104994893074036e-03 -3.309429809451103210e-02 -1.288648694753646851e-02 -1.681187376379966736e-02 -9.731224738061428070e-03 -1.878419704735279083e-02 3.048291988670825958e-02 1.254337467253208160e-02 -8.034702390432357788e-03 1.204865146428346634e-02 1.816525682806968689e-02 5.145986378192901611e-02 -5.542176961898803711e-02 1.010453402996063232e-01 8.676292002201080322e-02 -3.354465821757912636e-03 -4.877023026347160339e-02 7.609723135828971863e-03 3.107217373326420784e-03 -8.527734130620956421e-02 -6.104785576462745667e-02 5.845848470926284790e-02 -5.942613817751407623e-03 -5.032789707183837891e-02 -4.202186129987239838e-03 3.998894616961479187e-02 4.354435577988624573e-02 -3.462345106527209282e-03 4.032468423247337341e-02 9.820878505706787109e-03 -6.247384473681449890e-03 -3.877077624201774597e-02 -2.179424092173576355e-02 1.139980331063270569e-01 7.980407774448394775e-02 -2.202302962541580200e-02 6.346850097179412842e-02 -4.668566398322582245e-03 -1.417998969554901123e-02 -2.666771598160266876e-02 8.918657898902893066e-03 1.617921702563762665e-02 -6.396099925041198730e-02 5.571487918496131897e-02 5.330003052949905396e-02 3.501866245642304420e-03 4.326120391488075256e-02 -2.938991226255893707e-02 -1.968880183994770050e-02 8.211507461965084076e-03 4.102503880858421326e-02 2.722989395260810852e-02 1.539013162255287170e-02 -8.324442431330680847e-03 -1.441007293760776520e-02 -3.631232678890228271e-02 -1.414390932768583298e-02 -6.911996752023696899e-02 -4.834463819861412048e-02 -2.430154941976070404e-02 2.995852753520011902e-02 2.801602147519588470e-02 -1.975115761160850525e-02 8.999014273285865784e-03 7.606569677591323853e-02 4.635280370712280273e-02 -2.560697868466377258e-02 1.546550262719392776e-02 1.364006474614143372e-02 1.403801329433917999e-02 2.248907089233398438e-02 -1.165822613984346390e-02 -3.338935226202011108e-02 -2.758688665926456451e-02 1.267371326684951782e-02 -2.243964560329914093e-02 -3.616542369127273560e-02 -7.375827431678771973e-02 -7.197161018848419189e-02 -2.303856052458286285e-02 6.455357372760772705e-02 5.170631222426891327e-03 7.801130414009094238e-03 3.099974244832992554e-02 -3.026031143963336945e-02 5.259322468191385269e-03 4.853568971157073975e-02 1.808439008891582489e-02 1.873880438506603241e-02 3.325048834085464478e-02 1.389431534335017204e-03 4.122810065746307373e-02 6.602966040372848511e-02 -3.890162333846092224e-02 -4.836901277303695679e-02 -1.271079760044813156e-02 2.805359289050102234e-02 9.998495690524578094e-03 1.237640902400016785e-02 -2.203812636435031891e-02 6.255777552723884583e-03 4.272095113992691040e-02 1.334429811686277390e-02 -7.684439886361360550e-03 -6.128180027008056641e-02 -7.245177403092384338e-03 6.479385495185852051e-02 4.983597900718450546e-03 6.852628290653228760e-02 7.366322726011276245e-02 -4.498981405049562454e-03 -8.553750813007354736e-02 -4.972678795456886292e-02 4.119994491338729858e-02 3.294558450579643250e-02 1.979133300483226776e-02 7.353375107049942017e-02 3.273557126522064209e-02 -3.405926004052162170e-02 -1.726242154836654663e-02 7.219927012920379639e-02 -4.682998172938823700e-03 -1.817345991730690002e-02 -2.862551622092723846e-02 2.301131002604961395e-02 1.010907366871833801e-01 6.060588359832763672e-02 5.500493571162223816e-02 1.132187992334365845e-02 -7.948433980345726013e-03 -2.065322175621986389e-02 -2.020812220871448517e-02 4.379473626613616943e-02 5.840119346976280212e-02 -3.359398245811462402e-02 -1.420281268656253815e-02 -5.024540005251765251e-04 1.698837615549564362e-02 -3.392168506979942322e-02 -1.016195956617593765e-02 4.817903041839599609e-02 1.116309221833944321e-02 -4.365588072687387466e-03 -9.855151176452636719e-03 1.146674249321222305e-02 2.721474878489971161e-02 2.328922040760517120e-02 2.831106074154376984e-03 -2.691063657402992249e-02 -6.931466516107320786e-03 -9.676929563283920288e-03 -3.645896678790450096e-03 -1.062139030545949936e-02 6.196356844156980515e-03 1.394688896834850311e-02 -7.366762030869722366e-03 1.377327716909348965e-03 -2.992505021393299103e-02 -6.689870264381170273e-03 1.215515006333589554e-02 3.135128691792488098e-02 9.201414883136749268e-03 -3.069825842976570129e-02 -5.921459943056106567e-02 6.541215628385543823e-02 6.543184071779251099e-02 1.190723851323127747e-02 -1.612733490765094757e-02 3.662967309355735779e-02 1.052562072873115540e-01 -1.245802151970565319e-03 1.046380959451198578e-02 6.814076751470565796e-02 4.651235044002532959e-02 -5.060841888189315796e-02 -1.172102335840463638e-02 1.899034716188907623e-02 -1.839187555015087128e-02 2.507224678993225098e-03 -1.344875805079936981e-02 -1.142667979001998901e-02 -5.036564171314239502e-02 -1.555153913795948029e-02 7.141000591218471527e-03 -1.383751258254051208e-02 -2.164383605122566223e-02 -1.208686921745538712e-02 9.966865181922912598e-03 2.791257807984948158e-03 2.868667617440223694e-02 -2.944337204098701477e-02 -3.800005838274955750e-02 3.471269086003303528e-02 5.693609267473220825e-02 -3.256368450820446014e-03 -3.443752601742744446e-02 5.198978260159492493e-02 3.345901146531105042e-02 5.105074867606163025e-02 6.092578917741775513e-02 7.850757800042629242e-03 -1.662691123783588409e-02 -1.994727551937103271e-02 -8.348675444722175598e-03 -1.655249670147895813e-02 8.418006822466850281e-03 -1.014328468590974808e-02 1.786143705248832703e-02 3.097586520016193390e-02 2.610750123858451843e-02 5.256891250610351562e-02 -3.067995188757777214e-03 -4.769147839397192001e-03 -2.032432239502668381e-03 1.579426415264606476e-02 -2.762982249259948730e-02 4.638542607426643372e-02 3.759726509451866150e-02 1.099322456866502762e-02 -1.884961873292922974e-02 -8.948897942900657654e-03 -9.475935250520706177e-03 -2.111051976680755615e-02 -1.613596267998218536e-02 -2.895571105182170868e-02 -5.366459372453391552e-04 -1.402731705456972122e-02 -3.836251795291900635e-03 -3.794014081358909607e-02 4.594436287879943848e-02 4.354938119649887085e-02 3.558978438377380371e-02 4.233307391405105591e-02 6.071140244603157043e-02 -1.651954092085361481e-02 1.335155218839645386e-02 3.776178229600191116e-03 -9.726312011480331421e-03 -7.115326356142759323e-03 -1.485159434378147125e-02 1.658523268997669220e-02 1.163059473037719727e-01 8.956632018089294434e-02 -3.605782985687255859e-03 -3.321078419685363770e-02 -2.656468562781810760e-02 -1.664858870208263397e-02 2.650340273976325989e-02 7.632461935281753540e-02 6.345423310995101929e-02 -3.340413793921470642e-03 -7.611488457769155502e-03 -6.251374259591102600e-03 3.687925403937697411e-03 1.628809235990047455e-02 -3.320001438260078430e-02 -1.882421411573886871e-02 1.008706633001565933e-02 5.308107472956180573e-03 1.551168039441108704e-02 -2.377131581306457520e-02 1.759850606322288513e-02 4.185869917273521423e-02 9.512241184711456299e-02 2.968570217490196228e-03 -4.453355446457862854e-02 4.742263630032539368e-02 6.010583415627479553e-02 1.078651472926139832e-02 -3.442535549402236938e-02 7.275124639272689819e-02 6.032328680157661438e-02 -4.851153492927551270e-02 -9.971785545349121094e-02 -4.947977140545845032e-03 7.982300966978073120e-02 6.881415843963623047e-02 -4.131013900041580200e-02 -4.547749832272529602e-02 -2.659922279417514801e-02 1.331922132521867752e-02 -4.999715462327003479e-02 4.472349211573600769e-02 7.968334853649139404e-02 1.749177463352680206e-02 6.856612861156463623e-02 -5.068237334489822388e-02 -8.542989962734282017e-04 -4.634319990873336792e-02 -9.320487827062606812e-02 -3.182647749781608582e-02 5.007010698318481445e-02 -3.200017288327217102e-02 -4.827278107404708862e-02 4.705566167831420898e-02 9.680578112602233887e-02 -4.803898930549621582e-02 3.283572196960449219e-02 2.879435010254383087e-02 7.963085919618606567e-02 4.059938713908195496e-02 2.419556304812431335e-02 3.438400104641914368e-03 7.063972204923629761e-02 -4.986856947652995586e-04 -7.199728488922119141e-02 4.097328335046768188e-02 6.460313498973846436e-02 5.611565336585044861e-02 -3.301860019564628601e-02 1.414460712112486362e-03 1.716546714305877686e-02 -7.910355634521692991e-06 1.974542858079075813e-03 -3.012438304722309113e-03 -3.260090202093124390e-02 -3.470489755272865295e-02 -4.087512567639350891e-02 6.516805849969387054e-03 3.190944902598857880e-03 -1.108262501657009125e-02 5.205994937568902969e-03 2.890631742775440216e-02 -2.242105640470981598e-02 -1.335529983043670654e-02 -8.657599799335002899e-03 -2.368064783513545990e-02 -2.537190169095993042e-02 3.099514357745647430e-02 -1.125335600227117538e-02 -1.968192122876644135e-02 6.975828856229782104e-02 -6.278856843709945679e-02 -7.378600537776947021e-03 2.169024012982845306e-02 -2.625996619462966919e-02 -6.100990995764732361e-02 -4.572989791631698608e-02 -6.013527885079383850e-02 -9.213799610733985901e-03 -6.255586165934801102e-03 -7.098856568336486816e-02 -1.432337425649166107e-02 1.875150948762893677e-02 6.442448589950799942e-03 -2.834061533212661743e-02 -5.095856264233589172e-02 2.332060225307941437e-02 2.423917688429355621e-02 -4.741214215755462646e-02 4.752565920352935791e-02 1.208492554724216461e-02 -5.364171043038368225e-02 -4.572742432355880737e-02 8.035367727279663086e-02 7.040497660636901855e-02 -3.364985436201095581e-02 -5.195810645818710327e-02 5.665770545601844788e-02 7.751040160655975342e-02 -2.084670960903167725e-02 -3.197904303669929504e-02 6.538618355989456177e-02 4.248913004994392395e-02 -3.821666166186332703e-02 -3.219699021428823471e-03 5.195556953549385071e-02 5.431580543518066406e-02 -8.299691975116729736e-02 -5.600772798061370850e-02 -2.956026466563344002e-03 -1.662598550319671631e-02 -7.816666737198829651e-03 -7.350056432187557220e-03 -3.590757399797439575e-02 -2.418921329081058502e-02 -1.365223061293363571e-02 -1.684732362627983093e-02 -4.712586849927902222e-02 1.458240766078233719e-02 -3.596614673733711243e-02 -3.260665386915206909e-02 -1.521018426865339279e-02