-8.111280476441606879e-05 -1.710254140198230743e-02 2.885462529957294464e-02 3.404839430004358292e-03 3.904613479971885681e-02 -2.631264040246605873e-03 4.035401716828346252e-02 2.031238935887813568e-02 -1.169262174516916275e-02 8.294937200844287872e-03 8.150094188749790192e-03 3.680153284221887589e-03 1.247931644320487976e-02 -1.244618557393550873e-02 -1.048449194058775902e-03 1.104895956814289093e-03 -1.879889168776571751e-03 1.492089685052633286e-02 5.001317244023084641e-03 4.844376817345619202e-03 -1.351074595004320145e-02 -5.143106915056705475e-03 2.228020923212170601e-03 -9.251455776393413544e-04 5.499120801687240601e-03 -4.282249603420495987e-03 3.498787293210625648e-03 -3.219611942768096924e-03 7.314469199627637863e-03 -6.114931311458349228e-03 5.689486861228942871e-03 -3.598555456846952438e-03 1.655452615523245186e-05 -8.634209516458213329e-04 1.221700571477413177e-03 -3.846319392323493958e-03 -1.545228902250528336e-02 -1.446585077792406082e-02 -1.836423575878143311e-02 2.055846527218818665e-02 -6.013182923197746277e-03 2.662110142409801483e-02 -7.971936836838722229e-03 1.133103389292955399e-02 3.110070247203111649e-03 -1.089562755078077316e-02 -8.916654624044895172e-03 5.130015313625335693e-03 1.423569116741418839e-02 1.653676293790340424e-02 5.513753276318311691e-03 1.803782884962856770e-03 1.992091909050941467e-02 -6.945321336388587952e-03 1.921204477548599243e-02 1.528290752321481705e-02 -7.165345363318920135e-03 2.395653352141380310e-02 3.094165120273828506e-03 1.518629211932420731e-02 5.114691797643899918e-03 3.482666099444031715e-03 2.110082842409610748e-02 8.374144323170185089e-03 2.618143334984779358e-03 -5.722941830754280090e-03 2.667896449565887451e-03 -8.883146801963448524e-04 1.403965521603822708e-02 1.700620166957378387e-02 -4.139869939535856247e-03 9.922955185174942017e-03 2.090850286185741425e-02 1.975403167307376862e-02 -8.803959004580974579e-03 6.216135341674089432e-03 1.403725985437631607e-02 9.984418749809265137e-03 8.388307876884937286e-03 3.270187973976135254e-02 3.087883442640304565e-02 -1.582790724933147430e-02 3.915137611329555511e-03 1.755969971418380737e-02 1.671093329787254333e-02 4.131687432527542114e-02 1.565608009696006775e-02 1.920411735773086548e-02 1.039036829024553299e-02 8.587130345404148102e-03 -1.437249965965747833e-02 -1.252633053809404373e-02 -1.484673656523227692e-02 -8.853123523294925690e-03 -1.886287890374660492e-02 1.308994740247726440e-02 -4.015920218080282211e-03 1.882971264421939850e-02 2.018185891211032867e-02 1.379396021366119385e-02 -7.347287144511938095e-03 2.509310096502304077e-02 3.298591356724500656e-03 1.367743872106075287e-02 1.704513840377330780e-02 6.555586121976375580e-03 6.285608280450105667e-03 1.725084148347377777e-02 1.632052101194858551e-02 1.360517460852861404e-02 6.911905948072671890e-03 5.020521115511655807e-03 2.945931395515799522e-03 1.161958184093236923e-02 -7.921454496681690216e-03 -1.110449340194463730e-02 -1.154471840709447861e-02 -1.453872676938772202e-02 -1.074502826668322086e-03 -6.312967278063297272e-03 -9.089951403439044952e-03 3.014244139194488525e-03 2.757281810045242310e-02 3.247977793216705322e-02 1.387531496584415436e-02 2.332825027406215668e-02 -1.166404876857995987e-02 -1.747863425407558680e-04 5.578038748353719711e-03 2.140488289296627045e-02 1.487748604267835617e-02 1.184273161925375462e-03 2.875977195799350739e-02 2.358292927965521812e-03 -9.279591962695121765e-03 1.554298773407936096e-02 2.008338831365108490e-02 -5.149226170033216476e-03 -1.364244334399700165e-02 -8.356410078704357147e-03 -6.375106750056147575e-04 3.013621550053358078e-03 2.000133506953716278e-02 2.717803698033094406e-03 1.452711317688226700e-02 3.679003566503524780e-02 1.541134156286716461e-02 -5.204176995903253555e-03 1.713477820158004761e-02 -1.229931483976542950e-03 1.926727709360420704e-04 9.806849993765354156e-04 6.910694763064384460e-03 -5.594668909907341003e-03 1.717405207455158234e-02 6.375526543706655502e-03 8.994615636765956879e-03 1.995676197111606598e-02 1.957725919783115387e-02 1.796053163707256317e-02 4.188423231244087219e-02 3.356307744979858398e-02 8.111758157610893250e-03 3.903822973370552063e-03 8.855748921632766724e-03 1.346588507294654846e-02 4.998558200895786285e-03 1.071354374289512634e-03 -1.416704244911670685e-02 -1.332148257642984390e-02 1.084673125296831131e-02 1.255603414028882980e-02 1.551949791610240936e-02 -6.485383957624435425e-03 8.065652102231979370e-03 5.160638131201267242e-03 1.858189888298511505e-02 1.538041606545448303e-02 2.031787484884262085e-02 3.293135762214660645e-02 1.785167492926120758e-02 5.045701283961534500e-03 -5.240496248006820679e-04 1.053337287157773972e-02 3.490291303023695946e-03 -1.022117328830063343e-03 4.204852040857076645e-03 -1.927994773723185062e-03 1.292994339019060135e-02 1.453100936487317085e-03 4.573425758280791342e-05 4.049251601099967957e-02 1.288367155939340591e-02 -7.445851340889930725e-03 -1.299962121993303299e-02 -5.260546691715717316e-03 -5.453262478113174438e-03 -4.388228524476289749e-03 -1.466000685468316078e-03 1.705140434205532074e-02 8.724366314709186554e-03 5.813144147396087646e-03 1.067429129034280777e-02 2.428985200822353363e-03 4.804415162652730942e-03 -2.581515116617083549e-03 -1.074594445526599884e-02 -7.175873033702373505e-04 1.270729023963212967e-02 1.718857325613498688e-03 1.024705264717340469e-02 1.114979153499007225e-03 -5.746567621827125549e-03 8.176978677511215210e-03 6.393346469849348068e-03 -5.297149065881967545e-03 3.010484948754310608e-02 1.593544147908687592e-02 -1.039046328514814377e-02 -4.853860475122928619e-03 1.198382931761443615e-03 4.405859857797622681e-03 1.520894560962915421e-02 3.463789820671081543e-02 9.958360344171524048e-03 4.267654847353696823e-03 -3.827282926067709923e-03 5.560968071222305298e-03 7.612179499119520187e-03 2.767470898106694221e-03 -1.046439073979854584e-02 -8.583855815231800079e-03 -8.362729102373123169e-03 7.101403316482901573e-04 2.516422607004642487e-02 1.771942153573036194e-02 9.423939511179924011e-03 5.373437423259019852e-03 4.035849124193191528e-03 8.422510582022368908e-04 7.291449233889579773e-03 -1.539739751024171710e-04 -1.005434617400169373e-02 -6.606589071452617645e-03 1.020486280322074890e-02 1.658492162823677063e-02 1.413251925259828568e-02 -4.238131805323064327e-05 -1.057860255241394043e-02 8.766571059823036194e-03 6.618016865104436874e-03 2.584534138441085815e-02 1.467072684317827225e-02 3.105787932872772217e-02 2.944034710526466370e-02 7.728192489594221115e-03 3.968317527323961258e-03 6.554596591740846634e-03 2.947512827813625336e-02 1.616206765174865723e-02 2.031003311276435852e-02 8.154239505529403687e-03 1.372757600620388985e-03 1.581639982759952545e-02 -1.918712072074413300e-02 2.153501659631729126e-02 2.561171306297183037e-03 2.607866749167442322e-02 1.201429590582847595e-02 9.636193513870239258e-03 -4.660516511648893356e-03 -3.139163134619593620e-03 6.548880599439144135e-03 3.870859742164611816e-03 -6.127104628831148148e-03 -7.044846657663583755e-03 -2.833544509485363960e-03 -3.264078870415687561e-03 -1.517027057707309723e-02 -4.717631731182336807e-03 -1.604752056300640106e-02 6.432950031012296677e-03 1.584764686413109303e-03 7.322205696254968643e-03 1.307064946740865707e-02 3.119326569139957428e-02 -2.368504554033279419e-02 2.131670247763395309e-03 -5.496394354850053787e-03 -7.783015258610248566e-03 -1.617527008056640625e-02 -6.543856114149093628e-03 1.035308185964822769e-02 9.330172091722488403e-03 3.983205650001764297e-03 -4.253424413036555052e-04 2.092270879074931145e-03 7.062797900289297104e-03 3.015920706093311310e-02 1.476798392832279205e-02 -2.926365239545702934e-03 -2.974272938445210457e-04 -5.005990155041217804e-03 -8.018343709409236908e-03 7.145102135837078094e-03 2.402789657935500145e-03 2.327460562810301781e-03 2.046212553977966309e-02 -2.857780316844582558e-03 -6.330419331789016724e-03 -1.217275625094771385e-03 -7.439463399350643158e-03 7.476537488400936127e-03 3.213007003068923950e-03 2.429052628576755524e-02 9.199052117764949799e-03 2.304266393184661865e-02 1.518264040350914001e-02 3.835455980151891708e-03 1.480605266988277435e-02 2.063727751374244690e-02 4.612769931554794312e-02 1.157239079475402832e-02 1.092070341110229492e-02 -3.540992503985762596e-03 1.655468600802123547e-03 1.433760765939950943e-02 1.437488757073879242e-02 4.392770119011402130e-03 5.610222462564706802e-03 6.671852432191371918e-03 -1.442293915897607803e-02 6.838665809482336044e-03 4.314911086112260818e-03 1.234918367117643356e-03 1.353053469210863113e-02 1.778624393045902252e-02 6.948191206902265549e-03 1.735694706439971924e-02 5.860679084435105324e-05 -7.036254741251468658e-03 1.792246848344802856e-02 1.790590956807136536e-02 4.301038105040788651e-03 1.521879900246858597e-02 9.704831056296825409e-03 8.381740190088748932e-03 1.584419421851634979e-02 2.368904417380690575e-03 -5.481395637616515160e-04 -4.485895391553640366e-03 3.055155742913484573e-03 2.095934702083468437e-03 6.908976007252931595e-03 6.540349218994379044e-03 4.097761120647192001e-03 1.036486588418483734e-02 1.077989861369132996e-02 -1.169135607779026031e-02 1.247698348015546799e-02 9.941441938281059265e-03 5.989751312881708145e-03 -1.172340754419565201e-02 -5.055960733443498611e-03 6.596190854907035828e-03 6.748539861291646957e-03 1.117086596786975861e-02 7.936750538647174835e-03 8.481002412736415863e-03 1.508750673383474350e-02 4.781750962138175964e-03 1.474806852638721466e-02 2.061345614492893219e-02 5.840537138283252716e-03 1.154400967061519623e-02 -1.887414255179464817e-03 8.226152509450912476e-03 1.623969152569770813e-02 1.641921140253543854e-02 -5.448867101222276688e-03 -1.051980257034301758e-02 3.660810412839055061e-03 1.406718883663415909e-02 2.182794921100139618e-02 8.657555095851421356e-03 5.019237753003835678e-03 2.625280804932117462e-02 4.685374442487955093e-03 -2.238887129351496696e-03 1.580722443759441376e-02 -1.938487961888313293e-02 1.383355073630809784e-02 -4.279937711544334888e-04 1.155567727982997894e-02 6.580813351320102811e-05 -4.655571654438972473e-03 -9.092690423130989075e-03 -2.235962264239788055e-02 -1.144455838948488235e-02 -1.156029291450977325e-02 -3.395658917725086212e-03 3.709649899974465370e-03 1.525728683918714523e-02 -1.445039408281445503e-03 1.287076622247695923e-03 3.643443807959556580e-02 4.930343478918075562e-02 5.553611740469932556e-02 4.752474650740623474e-02 -1.016864087432622910e-02 -6.770693231374025345e-03 1.475800666958093643e-02 6.103579420596361160e-03 1.246132189407944679e-03 1.144806668162345886e-02 6.054785568267107010e-03 -1.027717953547835350e-03 -1.572815142571926117e-02 7.040672004222869873e-03 -7.834717631340026855e-03 -8.170385262928903103e-05 5.301686469465494156e-03 6.137680262327194214e-03 1.009168941527605057e-02 7.697740104049444199e-03 1.286966167390346527e-02 2.293162792921066284e-02 1.839031837880611420e-02 8.153992705047130585e-03 1.903253234922885895e-02 1.943697407841682434e-02 1.356739643961191177e-02 -2.320078201591968536e-03 1.052122283726930618e-02 -1.324178010690957308e-04 -8.428890258073806763e-03 -1.700151711702346802e-02 -2.021106192842125893e-03 3.719130530953407288e-03 1.690915971994400024e-02 1.456745900213718414e-02 -6.418741773813962936e-03 1.140964310616254807e-02 1.447216328233480453e-02 1.178795658051967621e-02 2.926472388207912445e-02 -2.051818370819091797e-02 1.629020646214485168e-02 -1.720273867249488831e-02 1.245225500315427780e-02 1.930641010403633118e-02 2.041643671691417694e-02 1.500764209777116776e-02 1.042390428483486176e-02 1.221724133938550949e-02 -1.469365321099758148e-02 1.106173614971339703e-03 -3.661883238237351179e-04 5.396969616413116455e-03 4.140483681112527847e-03 1.845201104879379272e-02 2.214165404438972473e-02 2.079183608293533325e-02 1.904376409947872162e-02 4.431429319083690643e-03 1.325030624866485596e-02 2.834109775722026825e-02 1.417293772101402283e-02 7.232682779431343079e-03 -4.591109696775674820e-03 -1.038721576333045959e-02 5.643282085657119751e-03 -7.482378277927637100e-03 1.084958203136920929e-02 1.709354855120182037e-02 1.688002981245517731e-02 1.113781332969665527e-02 -2.880244748666882515e-03 1.885160617530345917e-02 -8.611687459051609039e-03 1.898512942716479301e-03 8.049208670854568481e-03 -2.033176366239786148e-03 1.022897474467754364e-02 9.097249247133731842e-03 4.772644955664873123e-03 -9.957346133887767792e-03 8.891612291336059570e-03 1.437263470143079758e-02 -1.356444135308265686e-02 -8.229936473071575165e-03 1.808623084798455238e-03 -3.630602965131402016e-03 4.040440544486045837e-02 4.747357743326574564e-04 -1.216833572834730148e-02 -8.290448226034641266e-03 -3.875144830089993775e-05 5.059475079178810120e-02 2.784094400703907013e-02 4.704876802861690521e-03 2.241279743611812592e-02 1.119106542319059372e-02 6.309148389846086502e-03 1.585565856657922268e-03 -5.500369705259799957e-03 -9.140510112047195435e-03 2.573532750830054283e-03 9.903320111334323883e-03 6.902939174324274063e-03 3.699754131957888603e-03 -4.864768590778112411e-03 7.614480331540107727e-03 1.312903128564357758e-02 5.061874166131019592e-03 -5.486558657139539719e-03 -5.011424655094742775e-04 1.831342838704586029e-02 1.234089117497205734e-02 1.616348326206207275e-02 2.494815737009048462e-03 1.707584597170352936e-02 1.262359321117401123e-02 1.340970490127801895e-02 6.785595323890447617e-03 2.439363300800323486e-02 1.575152389705181122e-02 2.967177703976631165e-02 1.480683311820030212e-02 -8.713820017874240875e-03 -5.552900955080986023e-03 1.337481662631034851e-02 3.193248808383941650e-02 3.469507396221160889e-02 -1.290697325021028519e-02 9.688462130725383759e-03 -2.411836758255958557e-03 -8.571038953959941864e-03 5.666771903634071350e-03 7.999861612915992737e-03 -1.392408274114131927e-02 5.617028567939996719e-03 1.212389208376407623e-02 -1.468238607048988342e-02 -1.336711272597312927e-02 4.700789868365973234e-04 1.927143707871437073e-02 -2.164508914574980736e-03 4.840836860239505768e-03 8.787601254880428314e-03 5.813247989863157272e-03 8.915646933019161224e-03 -9.352159686386585236e-03 2.443356439471244812e-03 -8.276171982288360596e-03 3.474637493491172791e-02 2.613728679716587067e-02 3.652529418468475342e-02 1.514875143766403198e-02 2.104413509368896484e-02 -4.168324638158082962e-03 -6.126543506979942322e-03 -1.044085598550736904e-03 -1.106263510882854462e-02 1.280839182436466217e-02 5.673980340361595154e-03 1.024854928255081177e-02 4.008190240710973740e-03 1.455442863516509533e-03 3.181131556630134583e-02 4.748199507594108582e-02 2.382667153142392635e-04 -1.255570445209741592e-02 -1.458097831346094608e-04 -1.158815110102295876e-03 -4.783594980835914612e-03 -8.257697336375713348e-03 1.002383232116699219e-02 1.629903167486190796e-02 8.882103487849235535e-03 1.938729360699653625e-02 2.583593502640724182e-02 4.776557907462120056e-02 3.213149309158325195e-02 1.441962644457817078e-02 -1.906853727996349335e-02 4.499962553381919861e-03 -7.719747722148895264e-03 -1.151470467448234558e-02 7.538255769759416580e-03 -1.415004208683967590e-02 3.374952124431729317e-03 9.993513114750385284e-03 1.223086006939411163e-02 -1.136174541898071766e-03 1.246370468288660049e-02 4.567753523588180542e-03 -5.315075628459453583e-03 6.546455435454845428e-03 6.104496307671070099e-03 4.946552682667970657e-03 9.177455678582191467e-03 2.232730761170387268e-02 1.550381351262331009e-02 -4.788342339452356100e-04 6.093201227486133575e-03 -1.155383512377738953e-02 -2.240827772766351700e-03 -5.977652035653591156e-04 -1.502312137745320797e-03 -2.681443700566887856e-03 -2.727516461163759232e-03 1.438737660646438599e-02 -1.281368732452392578e-02 6.798315327614545822e-03 1.946965977549552917e-02 -4.681494552642107010e-03 5.872722715139389038e-03 -1.911351829767227173e-02 2.668811008334159851e-02 3.330941870808601379e-02 1.856027171015739441e-02 3.180716186761856079e-02 3.484580293297767639e-02 5.356147885322570801e-03 2.160876756533980370e-03 -1.430751662701368332e-02 -6.646904163062572479e-03 1.763605512678623199e-02 6.602530833333730698e-03 -5.371390841901302338e-03 8.373629301786422729e-03 1.224765554070472717e-03 1.813889853656291962e-02 4.523809999227523804e-03 -7.095884066075086594e-04 -2.406487241387367249e-03 1.909128949046134949e-02 1.745068840682506561e-02 1.425478025339543819e-03 -1.717738457955420017e-03 1.248684059828519821e-02 7.441625464707612991e-03 8.734350092709064484e-03 -5.547965411096811295e-03 1.749636605381965637e-02 -1.297855190932750702e-02 1.673120888881385326e-03 -1.184651278890669346e-03 1.709756441414356232e-02 9.021295234560966492e-03 -1.094168052077293396e-02 2.384439483284950256e-02 1.531567610800266266e-02 7.469316478818655014e-03 1.039619743824005127e-02 2.083509694784879684e-03 3.511652117595076561e-03 9.233905933797359467e-03 3.023201599717140198e-03 5.175554193556308746e-03 1.412444049492478371e-03 -1.176831428892910480e-03 -2.939869184046983719e-03 -1.052731368690729141e-02 1.512768329121172428e-03 1.091715879738330841e-02 1.196096534840762615e-03 2.625175751745700836e-02 6.118737626820802689e-03 -7.190913893282413483e-03 -5.941329058259725571e-03 -4.674509167671203613e-03 6.913546938449144363e-03 -3.644028212875127792e-03 1.547919586300849915e-02 -7.846506312489509583e-03 -1.135073322802782059e-02 -3.922802396118640900e-03 4.745760932564735413e-03 3.326399251818656921e-02 3.085062652826309204e-02 4.867351800203323364e-02 2.070329524576663971e-02 6.849139463156461716e-03 1.789518073201179504e-02 -5.439441651105880737e-03 2.658685436472296715e-03 1.759321428835391998e-02 8.283118950203061104e-04 9.142880327999591827e-03 3.502084314823150635e-02 5.479013780131936073e-04 1.613922230899333954e-02 1.051952037960290909e-02 9.455868043005466461e-03 8.942987769842147827e-03 1.295551937073469162e-02 9.588985703885555267e-03 3.055563196539878845e-02 1.863035373389720917e-02 1.126821991056203842e-02 -1.384039642289280891e-03 7.743034977465867996e-03 -5.207859212532639503e-04 6.504783872514963150e-03 4.225403536111116409e-03 1.214701496064662933e-02 1.704095304012298584e-02 1.795913092792034149e-02 7.630749605596065521e-03 9.437613189220428467e-03 1.772799156606197357e-02 5.295715527608990669e-04 9.594483301043510437e-03 5.219128448516130447e-03 8.484822319587692618e-05 1.569120027124881744e-02 7.448632270097732544e-03 -3.459846135228872299e-03 1.116209663450717926e-02 1.438853051513433456e-02 9.477725252509117126e-03 5.809375550597906113e-03 1.018278952687978745e-02 4.616269841790199280e-03 -7.940975949168205261e-03 -1.615464314818382263e-02 5.325022619217634201e-03 1.185402460396289825e-02 9.722771123051643372e-03 1.242508273571729660e-02 1.694514229893684387e-02 7.973760366439819336e-03 1.127820275723934174e-02 9.361139498651027679e-03 -3.981058020144701004e-03 9.510105475783348083e-03 2.952501410618424416e-03 6.822088733315467834e-03 -2.130352426320314407e-03 6.113118492066860199e-03 3.736599581316113472e-03 8.871352300047874451e-03 -9.263785555958747864e-03 1.500677200965583324e-03 -2.857094164937734604e-03 -1.065613888204097748e-02 -2.470948733389377594e-03 -3.507838846417143941e-05 1.038931496441364288e-02 -2.573883160948753357e-03 -4.169919528067111969e-03 3.333018394187092781e-03 1.457046810537576675e-02 3.182752430438995361e-02 1.658635027706623077e-02 1.647709123790264130e-02 2.405808307230472565e-02 1.541804056614637375e-02 1.338273193687200546e-02 4.140891600400209427e-03 1.100715808570384979e-02 3.280005417764186859e-03 4.980812314897775650e-03 2.183105610311031342e-02 -7.061192882247269154e-04 7.031761109828948975e-03 -6.968342349864542484e-04 8.401727303862571716e-03 2.057651989161968231e-02 7.063084747642278671e-03 4.690919071435928345e-03 1.470831339247524738e-03 1.302781514823436737e-02 1.845025829970836639e-02 3.072293940931558609e-03 -7.261011749505996704e-03 1.814290066249668598e-03 7.327837869524955750e-03 9.074600413441658020e-03 4.412286943988874555e-05 7.093553896993398666e-03 1.174079999327659607e-02 5.226989276707172394e-03 7.180099375545978546e-03 3.673283755779266357e-02 1.726348884403705597e-02 1.955371117219328880e-03 1.138530299067497253e-02 7.239508442580699921e-03 3.104638122022151947e-02 2.463557012379169464e-02 -3.456788253970444202e-04 1.057633105665445328e-02 -1.903772540390491486e-02 1.025520637631416321e-02 1.029236894100904465e-02 1.742777298204600811e-03 1.124055939726531506e-03 -2.118991455063223839e-03 5.549703724682331085e-03 2.218127623200416565e-02 1.676272973418235779e-02 -7.850828580558300018e-03 1.986359432339668274e-02 -7.850771769881248474e-03 2.283266745507717133e-03 2.898246422410011292e-02 3.779659280553460121e-03 2.025947347283363342e-02 1.222330238670110703e-02 6.266431882977485657e-03 1.184680685400962830e-02 3.863288462162017822e-02 1.354176178574562073e-02 4.964193212799727917e-04 -1.742965891025960445e-03 3.478627884760499001e-03 5.507159978151321411e-03 8.813851512968540192e-03 5.621078424155712128e-03 1.141290925443172455e-02 1.288509462028741837e-02 -2.078194171190261841e-03 -7.760667707771062851e-03 8.692591451108455658e-03 8.572611026465892792e-03 5.485963542014360428e-03 -8.772903122007846832e-03 -1.960457069799304008e-03 2.500064484775066376e-02 1.950419694185256958e-02 4.767171572893857956e-03 -4.392091184854507446e-03 1.392358355224132538e-02 2.888295566663146019e-03 -1.216728985309600830e-02 -4.411572124809026718e-03 2.534716390073299408e-02 2.041748724877834320e-02 -8.411264978349208832e-03 1.592250540852546692e-02 2.762589231133460999e-02 2.735920064151287079e-02 3.186750784516334534e-02 4.542742297053337097e-02 2.425960078835487366e-02 -1.959833549335598946e-03 -5.794543772935867310e-03 1.901205629110336304e-02 1.995071209967136383e-02 -4.887884017080068588e-03 7.694586529396474361e-04 -5.346725694835186005e-03 -8.286313386633992195e-04 7.688952027820050716e-04 -5.451167933642864227e-03 -8.961433195509016514e-04 -6.064720917493104935e-03 -2.510140184313058853e-03 -1.163891796022653580e-02 2.462365664541721344e-02 9.535021381452679634e-04 -1.834766566753387451e-02 5.156839615665376186e-04 -1.465069968253374100e-02 -7.597246207296848297e-03 -5.080320406705141068e-03 1.208539586514234543e-02 -7.933637825772166252e-04 4.757853224873542786e-03 -5.259531550109386444e-03 -4.461364820599555969e-03 -5.027632578276097775e-04 1.039798022247850895e-03 -6.407927721738815308e-03 1.178259402513504028e-02 -1.412842655554413795e-03 3.092582337558269501e-03 -1.845814101397991180e-02 1.517131272703409195e-02 1.039712806232273579e-03 2.993230475112795830e-03 1.816674135625362396e-02 2.920385636389255524e-02 9.545313194394111633e-03 -6.601989734917879105e-03 -5.522626917809247971e-03 -7.056165020912885666e-03 3.620261792093515396e-03 -4.275528714060783386e-03 1.148818060755729675e-02 1.469430513679981232e-02 3.608340863138437271e-03 -4.862783476710319519e-03 1.036868337541818619e-02 1.546364743262529373e-03 2.607081842143088579e-04 4.634411260485649109e-02 1.813178509473800659e-02 -1.655477844178676605e-02 3.130567260086536407e-03 1.674279570579528809e-02 2.344275079667568207e-02 2.126290230080485344e-03 1.356390304863452911e-02 1.805556565523147583e-02 -9.636825998313724995e-04 -1.386937568895518780e-03 -7.340046111494302750e-03 4.965052474290132523e-03 1.213215757161378860e-02 -5.056182388216257095e-03 4.111715592443943024e-03 -3.041783114895224571e-03 5.312783643603324890e-03 -2.172091510146856308e-03 -3.560775658115744591e-03 -1.040292190737091005e-04 8.707409724593162537e-04 -1.187557727098464966e-02 -4.667728673666715622e-03 1.436604931950569153e-02 -4.737612791359424591e-03 -6.706507876515388489e-03 1.235713623464107513e-02 1.113127171993255615e-02 1.494343951344490051e-02 5.371477920562028885e-03 1.804341003298759460e-02 1.184384338557720184e-02 1.314092893153429031e-03 9.415118955075740814e-03 7.457799278199672699e-03 -2.385743937338702381e-05 1.027508825063705444e-02 1.068985834717750549e-02 -4.027463495731353760e-03 2.762733260169625282e-03 7.879396900534629822e-03 6.163254845887422562e-03 2.074888162314891815e-02 7.565239444375038147e-03 5.816925549879670143e-04 -1.472344971261918545e-03 -5.590618820860981941e-04 1.097995601594448090e-02 -1.489560119807720184e-03 5.404074545367620885e-05 2.278368687257170677e-03 2.437934279441833496e-03 -6.054176483303308487e-03 1.566427946090698242e-02 3.719225898385047913e-02 2.349442988634109497e-02 1.134874206036329269e-02 1.796627603471279144e-02 3.640206297859549522e-03 5.602100398391485214e-03 2.570351120084524155e-03 1.045440789312124252e-02 1.137057971209287643e-02 9.734679944813251495e-03 9.460153989493846893e-03 2.110383659601211548e-02 3.323460370302200317e-02 6.278560031205415726e-03 -3.829634748399257660e-03 1.019502640701830387e-03 -6.212126463651657104e-03 -8.123041130602359772e-03 3.536867210641503334e-03 -3.418001579120755196e-03 1.805578544735908508e-02 6.271334132179617882e-04 1.107850950211286545e-02 3.983867820352315903e-03 3.124935785308480263e-03 2.021891996264457703e-03 1.017844025045633316e-02 -5.977267399430274963e-03 1.158331055194139481e-03 5.448916344903409481e-04 4.586666356772184372e-03 6.799493450671434402e-03 1.682346337474882603e-03 8.544055745005607605e-03 -7.710027974098920822e-03 6.280648522078990936e-03 2.738200686872005463e-02 3.612652048468589783e-02 2.714963629841804504e-02 2.772612683475017548e-02 3.831681609153747559e-02 1.521327719092369080e-02 2.006055973470211029e-02 1.231351168826222420e-03 3.897051094099879265e-03 -3.396091982722282410e-03 1.509231701493263245e-02 1.093979552388191223e-02 1.672100089490413666e-02 1.680222898721694946e-02 1.008320599794387817e-02 3.496564691886305809e-03 6.643667351454496384e-03 -1.440209802240133286e-03 2.502796240150928497e-03 2.574679814279079437e-02 4.585510585457086563e-03 1.717451214790344238e-02 -9.048415813595056534e-04 7.691198494285345078e-03 -3.484807210043072701e-03 1.066280156373977661e-02 4.676503594964742661e-03 -1.074716262519359589e-02 -8.254712156485766172e-05 7.716040592640638351e-03 6.203649099916219711e-03 1.040073763579130173e-02 -5.355311091989278793e-03 -1.184685435146093369e-02